none 0.78731 -0.59619 -0.31542 -0.26816 -0.35467 -0.24358 0.3415 -0.22354 -0.28928 -1.4192 0.016135 -0.21811 0.8459 0.40879 0.85525 -0.12933 -0.046191 -0.8445 0.17585 0.34628 -0.77717 0.99212 -0.093253 -0.13469 0.35203 -0.22478 -0.14368 -0.10699 -0.31347 0.28624 -0.14243 -0.44733 0.58862 0.59688 0.17625 -0.031589 -0.38481 -0.10837 0.3035 0.25004 -0.575 -0.078982 -0.2851 -0.026088 -0.064075 0.27026 0.1318 -0.68443 0.18826 0.12421 -0.29745 -0.038689 0.36706 0.11712 -0.24967 0.067926 0.75923 -0.026049 1.2235 0.091981 0.36547 -0.44332 -0.25144 0.071082 0.03499 0.57397 0.093456 -0.079187 0.010642 -0.13129 -0.30446 -0.55417 -0.31142 -0.43651 0.18511 -0.40374 -0.49561 0.12838 -0.098388 -0.19282 0.38468 0.73445 -0.29601 0.40034 -0.2557 1.1038 0.484 -0.4923 -0.056861 0.15318 -0.25899 0.34623 0.10402 0.28616 -0.39328 0.94461 -0.067153 -0.36536 0.089398 0.087374 -0.41887 0.29816 0.091789 0.30139 0.34427 -0.77755 0.65469 -0.078288 -0.63977 0.48133 0.67057 -0.10398 -0.75478 -0.32275 -0.28798 0.97855 -0.39222 0.33754 0.019581 -0.2717 -0.51291 -1.2294 -0.15491 0.052774 -0.10745 -0.20128 -1.0052 -0.57298 -0.29974 0.08148 0.53275 -0.22154 -0.39984 -0.66106 -0.36435 0.82175 -0.45808 0.060452 0.29276 -0.38152 0.30626 0.57266 0.28082 -0.17065 0.16139 0.20238 0.32402 0.2545 -0.75311 -0.21564 0.38365 -0.36765 0.20024 0.13876 0.025557 0.09084 0.026443 0.18157 0.084063 -0.13523 0.038098 0.059121 -0.19412 0.16781 0.4338 0.11966 -0.16393 -0.43959 0.046439 -0.26317 0.61825 0.039254 0.14695 0.10218 0.14419 0.23875 -0.15074 0.3685 -0.68755 -0.16087 -0.23091 -0.011 0.27501 0.56618 0.4035 0.21146 0.39846 -0.094572 0.42591 -0.013931 -0.29285 0.30204 -0.022752 0.24097 0.35306 -0.46253 0.54942 0.14211 0.3758 -0.62114 0.20401 0.20614 -0.6824 -0.52562 -0.23582 0.13513 0.059437 0.10717 -0.62713 0.21908 -0.83806 0.26753 -0.30405 -0.56242 -0.24649 -0.34156 -0.48058 -0.11356 0.080696 -0.60196 0.44822 -0.29509 0.0748 0.17986 -0.1168 -0.70421 -0.61596 -0.38766 -0.18474 -0.19328 -0.13132 -0.50727 -0.046896 0.44927 -0.31671 0.34371 0.14012 0.35217 0.081308 -0.19088 0.31608 0.65292 -0.47243 0.28764 0.085174 0.3836 0.076211 0.11555 0.60249 -0.2102 -0.30556 0.3309 0.13694 -0.34141 -0.40283 -0.36087 -0.13606 -0.28574 -0.55424 0.41282 -0.23942 -0.46332 -0.58714 -1.071 -0.35293 0.34694 0.081159 -0.033488 -0.76349 -0.05505 -0.066226 0.10024 0.34512 -0.59013 -0.10207 0.32227 -0.032831 -0.21514 0.18923 -0.3663 -0.0055576 -0.10856 -0.98273 0.15316 -0.10994 0.052251 0.47362 0.40951 0.066476 -0.010249 0.54367 -0.44459 -0.16451 -0.40983 0.35174 -0.019923 0.028182 0.041666 0.62726 -0.10967
label 0.52928 -0.018097 -0.53028 0.19416 0.70857 -0.11594 -0.31044 0.0032038 0.091223 -2.097 -0.20064 0.1974 -0.49813 0.45706 0.84418 -0.25611 0.24708 0.80934 0.050433 0.026611 0.0083797 0.39982 0.083968 0.22437 -0.16897 -0.35953 0.45108 0.49987 0.47257 -0.084524 0.38949 0.16825 -0.20957 -0.047513 -0.069035 0.55087 0.69718 -0.15527 0.17715 0.71363 0.64282 0.5346 0.25621 0.12376 0.030268 -0.49468 0.25249 0.061528 -0.25715 0.29094 -0.45434 0.34815 -0.19142 0.40368 0.41768 -0.80881 0.044996 -0.21084 -0.30561 -0.43632 -0.13443 -0.015407 0.2935 0.46686 0.4648 0.097533 0.20139 -0.0072359 0.46289 0.37599 0.17125 -0.049308 -0.29223 -0.24121 -0.067777 0.0246 0.20782 -1.0118 -0.59341 -0.57635 -0.2714 0.24561 0.50252 0.2586 0.24482 0.19232 -0.065999 -1.5701 0.41963 0.031624 -0.42173 0.33 0.29531 0.15354 0.55452 -0.8764 -0.005042 0.37288 -0.19233 -0.38149 -0.31995 -0.1092 0.30019 -0.0062761 0.019803 0.98146 0.03093 0.005144 -0.5756 0.31211 -0.28105 0.13948 0.037453 0.53506 -0.42297 -0.1573 0.74795 -0.0047826 -0.44321 0.22527 -0.369 0.30847 -0.10708 -0.41726 0.50547 -0.066328 0.13801 0.663 0.64085 -0.083648 -0.27481 0.016646 -0.57526 -0.40207 0.25811 -0.35948 -0.38773 -0.38433 0.65294 0.094067 -0.023846 0.085752 0.32049 -0.287 -0.19797 -0.60001 0.040688 0.066734 0.33295 -0.024765 -0.72988 0.16497 -0.16622 0.11439 -0.069407 0.044467 -0.42774 -0.19512 -0.055203 0.94154 -1.3009 0.031499 0.066239 0.1693 -0.76898 0.19194 -0.97856 -0.179 -0.11673 -0.25545 0.38957 -0.36256 0.0096862 0.264 0.79597 -0.24891 0.2536 0.13977 0.54497 0.32437 0.18943 -0.017148 0.67344 -0.045796 -0.26658 -0.018156 0.24854 0.22337 -0.43284 -0.25392 0.22125 -0.66562 -0.57001 0.28241 0.72969 -0.31562 0.34741 -0.1029 -0.10639 0.30608 0.37326 0.68977 -0.78204 0.10353 -0.089489 0.51145 0.04283 -0.15708 0.20412 0.11404 0.45678 -0.49833 -0.22266 0.29957 0.21478 0.039924 0.060102 -1.2047 -0.095791 0.46536 -0.37219 0.23497 -0.17297 -0.084224 -0.15182 0.076937 0.37478 0.15941 -0.32156 -0.10216 0.24353 -0.68189 0.16245 0.052441 -0.19234 0.11189 -0.38571 -0.32879 -0.62873 -0.38227 -0.44596 -0.13673 0.39182 0.44074 -0.1553 0.34794 -0.046475 -0.2889 -0.28163 0.012346 0.37625 0.53806 -0.3068 -0.1372 -0.14553 -0.33889 -0.082117 -0.14921 0.48858 0.42271 -0.10888 0.47648 -0.25645 -0.21037 -0.069673 0.11694 -0.18606 0.05569 0.45377 -0.305 -0.10529 0.48631 0.44406 -0.21563 0.78196 0.03872 -0.34351 0.60633 0.00096189 -0.26993 0.19764 -0.040268 0.56624 0.42905 -0.12205 0.046373 -0.58717 0.29614 0.062992 0.2108 -0.27275 -0.072429 -0.1981 -0.22909 -0.11939 -0.088646 -0.14147 0.87856 0.38577 -0.53457
1st 0.38041 0.070304 0.34263 -0.060702 0.31551 0.31695 0.82413 0.38144 -0.17057 -2.0745 0.87697 -0.014674 0.12341 0.77696 0.54166 -0.00090718 0.34789 -1.1046 -0.0051424 0.56056 0.12051 0.031642 0.23243 -0.036104 0.23007 -0.045061 -0.27825 -0.14464 -0.63069 -0.19698 0.34298 -0.01658 0.36151 -0.41889 -0.21679 -0.56898 0.049401 0.33629 -0.086426 0.33317 0.20223 -0.79715 -0.80464 -0.033647 0.32575 -0.16656 0.42931 -0.18858 0.12774 0.35088 0.48789 -0.18183 0.53045 0.69405 0.055629 0.1305 -0.34023 -0.021338 0.2811 -0.66952 -0.2678 0.52372 0.32428 -0.7744 -0.16577 0.66462 -0.27623 -0.71222 -0.035331 -0.86941 -0.080756 -0.16408 -0.47304 0.12043 0.19665 -0.3103 -0.14536 -0.44432 -0.29873 0.19786 0.37597 0.050492 0.44659 0.10671 0.17307 0.22722 0.12718 -0.56463 -0.71653 0.13408 -0.56794 -0.54283 -0.33284 -0.12947 -0.26212 0.93446 0.88972 0.029297 -0.31112 0.63329 0.12309 -0.66812 -0.13658 0.14692 -0.43123 -0.48767 -0.090512 -0.76321 -0.34224 0.042842 0.021118 0.31718 0.44325 -0.34972 -0.13654 0.071625 -0.12737 -0.2135 0.015882 -0.14421 -0.10319 0.25232 -0.2457 0.34361 -0.0062222 0.32291 -0.45023 0.58388 0.20361 0.17925 0.26389 -0.41015 -0.19354 -0.11677 -0.12177 -0.013216 0.36194 0.17672 0.12492 -0.0078418 0.86603 0.76191 -0.43155 0.74543 -0.49677 -0.11796 -0.21951 0.30488 -0.3954 0.001404 -0.37655 0.13628 0.26985 -0.28058 -0.20788 -0.02621 0.46293 0.59012 0.027284 -0.73567 0.17257 0.14591 -0.36456 -0.39495 -0.3551 0.13492 -0.69824 0.43951 0.16343 0.20037 -0.10982 -0.64253 0.1152 -0.049009 -0.078489 -0.52218 -0.094405 0.21516 -0.28676 0.53624 -0.011801 -0.9015 0.33626 0.68167 0.2442 -0.1176 -0.34675 -0.66681 0.65374 0.14724 0.26862 -0.093825 0.2773 -0.84811 0.69298 -0.16191 0.4319 -0.079471 0.18172 -1.3933 0.066332 0.059709 0.35122 0.15326 -0.35119 -0.25202 0.16636 0.098947 0.18884 0.18525 0.2115 -0.05696 -0.22928 0.65686 -0.094418 -0.25939 0.14754 -0.52641 0.87858 0.11993 -0.020078 0.23091 0.2198 -0.1638 -0.33095 0.041516 -0.28841 -0.40974 -0.29001 -0.60728 0.31319 0.020372 -0.17885 -0.69073 -0.082036 0.63708 -0.10704 -0.77253 0.1016 -0.4384 0.27273 0.27474 -0.089203 0.030314 -0.27513 0.011445 0.46595 0.35348 0.0067533 -0.69553 0.053213 -0.44883 -0.67762 -0.058104 -0.21082 -0.54885 -0.40941 0.18867 -0.30828 -0.44708 -0.31078 -0.60852 0.28093 -0.76749 -0.13459 0.35375 0.32397 0.47441 -0.76712 0.16052 -0.015039 0.15434 -0.13551 0.28594 -0.058912 0.27325 -0.47098 -0.067053 0.50271 0.63898 -0.0068021 -0.25998 -0.52264 0.51159 0.15752 -0.0022664 -0.7207 0.66124 0.046071 0.0027028 0.81913 -0.64389 -0.38171 0.23272 -0.65058 -0.016534 0.24967 0.39934 -0.62692 -0.14735
runway 0.40417 0.20334 0.39013 0.43657 -0.23177 0.064888 0.15796 0.91325 -0.53645 -1.8668 -0.22872 0.22502 -0.36961 0.77349 0.38128 -0.12439 -0.30676 -0.29189 0.44431 -0.027882 0.68927 0.27806 -0.23405 -0.10997 0.6612 0.15321 -0.19347 0.18601 -0.10065 -0.78577 0.20069 0.37069 -0.090739 0.5505 -0.86191 -0.013347 -0.076992 -0.83519 -0.38739 0.53831 0.21861 0.48316 0.58679 0.10905 -0.4694 0.18407 -0.49138 -0.099559 0.20512 0.40762 0.53677 -0.26078 -0.31853 0.19653 -0.33344 0.064121 -0.34473 -0.04559 -0.024456 -0.50877 -0.38097 -0.34996 -0.16702 -0.16817 0.11977 0.50053 -0.33769 0.017004 0.60599 0.39386 0.26713 -0.22711 -0.56615 -0.31454 -0.86766 -0.19107 -0.003852 0.076463 -0.38956 -0.44337 0.25634 0.48449 0.064877 0.13525 -0.127 0.16772 0.37248 -1.4484 -0.2417 0.021864 0.10844 0.61054 -0.042991 -0.29019 -0.35564 0.2738 -0.39922 0.14139 -0.03356 -0.17656 0.33196 0.024296 -0.3059 -0.4639 0.058322 0.47791 -0.99109 0.21636 -0.93111 -0.65586 -0.36893 -0.33247 0.38992 0.14494 -0.17742 0.33557 0.27099 -0.25747 0.26291 -0.58869 -0.69242 0.1789 -0.28212 0.51175 1.0957 -0.45127 -0.44717 0.95963 0.35628 -0.79999 -0.22245 -0.83012 -0.46126 0.24142 -0.18734 -0.36851 -0.27913 -0.52521 0.50911 0.34004 0.15036 -0.49624 -0.24486 -0.25317 0.14778 -0.20767 0.1322 0.014409 0.008094 0.3905 -0.42701 0.32192 -0.11529 -0.11519 -0.21632 -0.34203 0.25835 0.10191 0.48114 0.20944 -0.89805 -0.64772 0.077222 0.099028 -0.060804 0.73724 -0.26414 -0.13727 0.22908 0.32489 -0.18387 -0.18221 0.75277 -0.41264 0.26603 -0.24844 0.55245 0.15259 0.19287 0.77667 0.086818 0.59405 -0.28242 -0.24664 -0.117 0.47348 -0.013866 0.069821 0.11205 -0.0037689 -0.36835 -0.32284 -0.029807 -0.25439 0.031339 -0.21458 0.3894 -0.47039 0.29096 0.30215 -0.99802 0.39133 0.14355 -0.13961 0.025751 -0.050126 0.38234 -0.01286 0.75262 0.087685 0.026942 -0.20979 0.10033 -0.12583 0.22448 0.81231 -0.50408 -1.0815 0.40236 -0.11651 0.07458 -0.2142 -0.056141 0.077189 -0.41693 -0.14929 -0.0364 -0.35832 -0.77184 0.68451 0.13577 0.10935 0.21582 -0.21691 0.57713 0.18333 -0.26381 -0.028254 0.096793 0.43579 -0.4237 -0.61459 -0.063567 0.17285 -0.56937 0.16866 0.57676 0.16999 -0.17005 0.23285 -0.51497 0.64348 -0.3465 -0.023437 -0.36871 -0.53012 0.5887 0.25215 0.23087 -0.35281 0.22603 -0.43972 -0.072507 0.096514 -0.33267 -0.27875 0.6964 -0.35426 -0.5268 0.030639 -0.95008 0.78672 0.40544 -0.59434 0.36108 -0.059771 0.10038 0.13439 -0.035297 0.50907 0.82209 -0.22608 0.17484 0.67289 -0.075584 0.060752 -0.43617 -0.0026488 0.1741 0.25251 0.335 0.67331 -0.14114 0.27141 -0.46834 -0.71909 -0.22264 -0.10334 -0.19279 -0.97318
length 0.58018 0.50516 -0.065243 0.097633 0.3396 -0.44209 -0.15485 0.58389 0.063117 -2.0072 -0.13731 0.87135 0.081722 1.0406 -0.16185 0.25435 0.50447 1.0456 -0.21476 -0.31049 -0.52627 -0.26442 -0.24278 -0.4388 -0.077154 -0.33177 -0.14432 0.028191 -0.18808 0.11706 1.1232 0.18446 -0.43104 -0.20427 0.2909 -0.69038 0.030397 -0.69 -0.58622 0.50924 0.7036 -0.37169 0.34609 -0.59352 0.32092 0.3687 0.21401 0.11984 -0.1459 0.35193 0.097495 -0.6957 -0.17587 -0.24199 0.36006 -0.075796 0.25091 0.18853 -0.3112 0.28776 0.21779 -0.43788 0.24712 0.6616 0.0026102 -0.54522 0.35348 -0.12986 0.085481 0.26623 0.083532 0.078445 0.32056 0.32121 0.05625 0.46806 0.30147 -0.012441 -0.33439 0.083631 0.31135 -0.026378 -0.0084114 0.21446 0.13812 0.12138 0.4705 -1.811 0.69662 -0.059265 0.050687 0.66932 -0.08389 -0.22847 0.25087 -0.38631 -0.58987 0.88697 0.31783 -0.37743 -0.057227 -0.53052 0.71497 0.38903 0.11099 0.70485 0.018257 0.050606 -0.27823 -0.83091 0.18036 0.85279 -0.51232 0.41423 -0.074542 -0.30145 -0.24371 -0.18501 0.0096456 0.011472 0.49324 0.39833 0.25334 0.071329 0.39907 0.48087 0.058315 0.49671 -0.086017 -0.17956 -0.0056105 0.71245 -0.27752 0.5338 -0.26439 0.25653 0.1851 -0.061244 0.13368 0.48924 -0.021183 -0.23133 -0.21925 -0.18483 0.021229 -0.60178 0.42005 -0.44467 -0.26852 0.36929 -0.26356 -0.096969 -0.81953 0.42192 0.4534 -0.017288 0.011794 -0.36475 -0.30613 0.3544 -0.55292 -0.38202 0.13952 0.095708 -0.073203 0.60979 -0.3424 0.30583 -0.36273 -0.016176 0.12317 -0.193 -0.43593 -0.21769 -0.047278 0.020458 0.53837 -0.12366 0.34619 -0.5733 0.049899 0.19533 -0.26823 0.094068 -0.70712 0.87503 -0.80114 0.018604 -0.45629 0.72568 0.27234 0.28267 0.1837 0.33961 -0.2503 -0.51154 -0.048169 -0.045106 -0.41067 0.14776 0.15893 0.73055 -0.25496 -0.29024 0.39908 0.47645 0.0023306 -0.8824 0.8513 -0.42855 0.47684 -0.71968 0.40538 0.2134 0.096221 -0.17017 -0.48957 -0.61756 0.52879 -0.28968 -0.2152 -0.049775 0.11302 -0.52403 -0.71436 0.44278 -0.56263 -0.50097 -0.028375 0.62307 0.50982 -0.62042 0.12775 -0.16185 0.13869 0.80386 -0.5701 -0.14671 -0.3488 0.57421 -0.30113 -0.75486 -0.010702 -0.66336 -0.051772 0.14338 -0.46981 0.4267 0.12535 0.42045 -0.41874 0.51375 0.037615 -0.36819 -0.32702 0.41557 0.27874 0.050519 0.030727 0.12601 -0.025743 0.14118 0.015463 -0.0012595 -0.021558 0.37881 0.15709 -0.27381 0.0089248 -0.2586 -0.84891 -0.094884 0.42587 -0.52757 -0.14892 0.29932 0.3144 0.85675 0.25699 0.60798 0.382 0.20031 -0.016304 0.069005 -0.1322 -0.24943 -1.0297 -0.56609 0.33467 0.47985 0.63791 -0.15473 0.18284 -0.15453 -0.09432 0.006136 -1.2255 -0.1916 -0.34723 -0.76654
feet 0.46787 0.054895 0.32745 -0.24001 0.44366 -0.85093 -0.66581 -0.094448 -0.11744 -1.7894 0.099459 0.19432 0.26167 0.73185 0.11107 0.59388 -0.34176 0.44456 0.2531 -0.10365 0.050999 0.66204 0.033758 -0.45726 -0.10506 -0.41145 -0.38022 0.075984 -0.47932 -0.54106 0.67511 0.85544 -0.54774 -0.11337 0.11099 0.011044 -0.05378 -0.94042 -0.043446 0.56296 0.41337 0.20197 0.47549 -0.38898 0.29165 0.19112 0.29809 -0.47914 -0.077235 0.16367 0.14254 0.49708 -0.37812 -0.20326 0.35289 0.14195 -0.55811 0.16819 0.54797 0.18301 0.24997 0.21681 -0.35741 0.44192 -0.32835 -0.16671 0.82436 -0.10639 0.19943 0.45186 -0.19449 -0.091447 0.13526 -0.41052 0.37128 0.054656 0.42207 0.1581 0.35034 -0.071133 -0.10498 -0.064078 0.47799 -0.17772 -0.20654 -0.40286 0.23349 -1.5706 0.53495 -0.070922 0.16867 -0.32139 -0.070369 -0.66171 -0.16938 -0.19351 -0.59077 -0.19561 -0.41424 -0.25112 0.17287 -0.22205 -0.16111 -0.15795 0.058687 0.81701 -0.22699 -0.27788 -0.48303 -0.50316 0.22808 0.3052 0.53711 -0.27066 0.46378 -0.23156 0.32854 -0.88946 0.76817 0.41515 0.064323 0.027521 0.21099 -0.31269 0.38455 0.3555 -0.24676 0.6005 -0.067667 0.022324 -0.50715 -0.12315 -0.23584 0.083114 -0.29276 0.27467 0.017032 0.5381 0.88245 0.1703 -0.73115 0.21845 0.42017 -0.12677 0.011704 0.28122 0.53346 -0.49722 0.040971 0.78881 -0.28971 0.058129 -0.43684 -0.13734 0.39411 -0.41971 -0.04047 0.019773 0.023214 -0.10805 0.0067048 -0.79461 -0.16609 -0.034084 -0.30567 -0.10574 0.026998 0.057121 -0.080655 0.15732 -0.1576 -0.54979 -0.25785 -0.48123 0.088248 0.33346 -0.25613 0.25385 -0.11211 -0.2838 -0.70189 0.32173 0.23043 -0.20838 0.053614 -0.040712 -0.15134 0.03429 0.63728 0.40647 -0.48403 0.69726 0.18788 0.036193 -0.12248 -0.073313 -0.14712 -0.19252 0.29324 0.20748 0.33319 0.13314 0.028017 0.26702 0.40826 0.46385 0.085297 0.015116 0.71049 -0.32795 0.21131 -0.56853 -0.15643 0.17886 -0.1523 0.33404 0.16273 -2.1287 0.6141 -0.14255 -0.087546 0.208 0.09683 -0.8677 -0.17184 0.022423 -0.18618 -0.17513 -0.62994 0.77214 -0.080832 0.076456 0.065549 0.03107 0.84162 0.40504 0.063305 0.041676 -0.084301 0.39826 -0.84639 -0.26112 0.44157 0.26648 -0.3848 -0.011604 -0.056149 -0.26059 0.50768 1.1351 -0.54536 0.60092 0.58629 0.38988 0.24849 0.25269 0.20812 0.1882 0.4667 -0.079376 0.45493 -0.77918 1.021 -0.16622 -0.19465 -0.088034 -0.35673 -0.35121 0.050417 -0.08126 -0.19989 -0.36452 -0.13852 -0.39222 -0.52436 -0.45709 -0.17751 0.76932 0.22031 0.41255 0.23619 0.14356 -0.35913 0.57377 -0.095209 -0.10466 -0.77914 -0.5261 0.13956 0.32575 0.1005 0.42362 0.0080006 -0.1026 -0.43129 0.29294 0.20556 -0.44787 0.10095 -1.1284
metre 0.7873 0.4801 -0.10107 0.44447 0.39292 -0.82158 -0.41806 0.15443 -0.47194 -2.5148 0.022646 0.69636 -0.012827 1.0393 0.259 -0.033821 0.39078 -0.82435 0.7472 0.12236 -0.059056 0.39618 -0.38616 -0.1351 -0.49825 0.15546 -0.10304 0.15534 0.24414 0.25754 0.42652 0.21177 -0.45992 -0.22686 -0.16846 -0.52543 0.30863 -0.60667 -0.27087 -0.49933 0.10126 -0.12558 0.027038 0.861 -0.17793 -0.53017 0.32812 0.058482 0.01602 0.41261 0.36698 -0.47363 -0.58892 -0.1161 0.46524 -0.21679 -0.036989 0.14652 -0.19058 0.080599 0.31851 -0.092136 0.20227 -0.68383 -0.092852 -0.38489 0.63553 -0.4271 0.010806 0.71796 -0.40384 0.45326 -0.26146 -0.11318 -0.1363 -0.5851 -0.15708 0.048209 -0.15329 0.32549 -0.26178 0.37784 -0.15541 0.31018 -0.50997 -0.26369 0.62245 -0.92539 0.64258 -0.2744 0.55714 0.34007 0.062271 0.044272 -0.31805 0.3409 -0.57029 0.24451 0.3919 0.06917 -0.62348 -0.52154 0.19728 0.38934 -0.54122 0.28733 -0.43102 0.68631 -0.1327 -0.4764 -0.17159 0.41799 0.065707 0.1555 0.68856 0.14957 -0.40411 -0.042077 0.48117 0.87632 0.25353 -0.27056 0.028311 -0.054401 0.66502 0.13618 -0.18065 0.95508 0.17141 0.25848 -0.23538 0.44708 0.16241 -0.11831 -0.31339 -0.084589 0.87019 0.77797 0.48124 0.19739 0.62857 0.27181 -0.093805 0.09474 -0.24153 -0.55197 0.10107 -0.43324 0.1564 0.4995 0.48421 -0.30526 -0.33715 -0.0035239 -0.24382 -0.23345 -0.30575 0.1537 0.2118 0.78823 -0.57202 -0.21873 -0.16479 -0.15039 -0.0083688 0.67746 -0.18302 0.28925 -0.50831 -0.16122 0.080438 0.11799 -0.60049 -0.20113 -0.17619 -0.35626 0.12553 0.020801 0.1731 -0.14637 0.02604 0.17674 0.22971 0.059398 -0.43549 -0.24302 -0.12788 -0.87569 0.47566 0.97247 0.16767 0.90776 0.096226 0.33748 0.012807 -0.55034 0.09876 -0.11812 -0.29685 -0.89661 -0.010025 0.59463 -0.25887 -0.072549 -0.18291 0.33576 -0.15274 -0.41285 0.64898 -0.29667 0.66479 -0.27627 -0.58877 -0.012481 0.38921 -0.28131 0.65314 -0.84056 0.78885 -0.3303 -0.85249 0.60436 0.35501 -0.90216 -0.24807 -0.15076 -0.17879 -0.82108 -0.52941 -0.0042981 0.50699 -0.48745 -0.25074 -0.48846 0.41847 0.68661 0.28266 0.1345 -0.24243 -0.21155 -0.83653 0.085525 -0.21036 -0.091425 -0.018795 0.56086 -0.028932 0.16127 0.20801 -0.051578 -0.31051 0.60931 -0.50741 0.34797 -0.19298 -0.38026 0.39454 0.0068509 0.78476 0.22091 0.26975 0.023856 0.075249 -0.050559 -0.44696 -0.26376 -0.004655 0.41283 0.05027 -0.078249 -0.13907 0.69774 0.15211 0.15528 0.020716 -0.45315 0.43365 0.44907 0.25197 -0.13171 0.30511 -0.75435 -0.68768 0.28468 0.031091 0.50132 -0.24929 -0.42867 -0.17405 0.1101 0.43874 -0.29773 -0.54193 0.32254 0.018172 0.40707 -0.18359 -0.28248 0.10846 0.15469
number -0.010017 -0.30511 0.083489 -0.001354 -0.259 -0.4544 0.11427 0.057365 -0.39361 -2.2369 0.44042 0.80722 0.22511 -0.12581 0.5984 -0.34219 0.64859 -0.82396 1.0431 0.62197 -0.23767 0.43093 0.14362 0.22845 -0.13167 -0.62525 0.016048 -0.28468 -0.18347 0.40136 0.093241 0.51008 -0.032477 -0.2027 -0.10125 0.13201 0.0076075 0.33725 -0.11003 -0.1884 0.0022517 -0.031608 0.25603 -0.091693 0.2283 -0.12567 -0.073469 0.72875 -0.34836 0.47585 -0.24487 -0.019063 0.72863 -0.17094 -0.27079 0.10222 0.61559 0.67922 0.96151 0.82843 0.28595 0.22076 -0.35745 -0.44951 -0.41103 0.074144 -0.3257 -0.2211 -0.3665 -0.10154 0.063761 0.28872 0.20326 -0.71055 -0.11219 0.16746 0.041731 0.22046 -0.1655 0.34622 0.63796 0.26174 0.17394 0.10021 -0.52775 0.09832 -0.0027208 0.031188 -0.30482 -0.030626 -0.57715 -0.094536 0.27522 -0.42659 -0.74399 0.1673 0.020942 0.11151 -0.083687 0.41701 -0.34826 -0.40375 0.35613 0.60921 0.62255 -0.53546 -0.52574 -0.11652 -0.94083 0.035995 0.02423 0.37705 0.20231 0.0071596 -0.046599 0.39239 0.25796 0.44961 0.019973 -0.048417 -0.46882 0.37587 -0.075451 0.28497 0.44235 -0.048493 0.13448 -0.050118 -0.16749 -0.12357 -0.15666 0.804 0.12413 0.47502 -0.91027 -0.50165 0.35815 0.092764 -0.16191 0.11056 0.72696 0.8732 -0.2812 -0.52576 -0.16548 0.38918 0.49332 0.55224 0.27885 -0.53357 -0.39299 0.05262 -0.32239 0.14792 0.1177 0.060892 0.57908 -0.12245 -0.22904 0.44899 -0.35253 -0.34897 -0.25288 0.043318 0.10684 -0.4789 0.0043866 0.29579 -0.20224 -0.04912 -0.47288 0.13452 0.40382 0.53405 -0.032897 -0.2462 0.099961 -0.35716 -1.0768 -0.48509 -0.51672 -0.23173 0.41893 0.34925 0.23266 0.069799 0.26557 -0.41555 -0.47701 0.37591 -0.12091 -0.0056933 0.20974 -0.8797 0.01424 -0.059711 0.75333 0.51802 0.10157 -0.6041 -0.19284 -0.051428 0.023508 -0.013484 -0.60424 0.06305 -0.23232 0.98956 -0.091821 0.23382 -0.22821 0.21267 0.22417 0.29713 -0.67503 -0.7935 -0.80565 -0.16157 0.23502 0.0083939 0.39882 0.21495 0.43521 0.14591 0.076229 0.18061 0.64032 -0.015283 -0.44586 -0.36001 -0.3681 -0.028047 -0.20152 -0.28663 -0.058308 0.1681 0.45861 -0.40162 0.35583 -0.26528 -0.62024 0.41657 -0.2732 0.36729 0.079753 -0.39145 0.40284 -0.095392 0.2454 -0.16682 -0.42435 -0.19973 0.041255 0.58656 -0.46599 -0.81809 0.18053 0.19696 0.42573 -0.080064 0.70323 -1.1566 0.41651 -0.44533 0.24963 0.22317 -0.18934 0.3398 -0.6906 0.12436 0.10513 -0.014885 -0.21412 0.38043 0.0069228 0.42624 -0.068502 -0.11561 0.19414 -0.40936 0.15217 -0.13668 -0.23274 -0.67305 -0.27491 0.47106 0.59834 0.30865 -0.51775 0.42451 0.19486 -0.16097 0.077474 0.031672 0.28637 0.28383 0.14579 0.7981 -0.75132 -0.0019071
surface 0.5202 -0.28006 0.17468 -0.2564 0.22566 -0.62809 -0.053077 0.1958 -0.53675 -2.3825 0.3383 0.5584 -0.065885 -0.094836 0.17363 0.1906 0.61026 0.93982 -0.30192 -0.1162 -0.20968 0.4497 -0.046891 -0.20653 0.073444 -0.073139 0.31922 -0.097213 -0.40606 -0.46216 -0.1395 0.33814 -0.47496 -0.13706 -0.14458 -0.36689 0.399 -0.70408 -0.045705 0.23994 -0.043278 0.54174 1.612 -0.47821 -0.57531 0.26304 -0.58345 -0.61975 0.32267 -0.057103 0.319 -0.17998 -0.34186 -0.0964 -0.20555 -0.36775 -0.43352 0.076601 0.38029 0.23525 0.14013 0.20565 0.29828 1.0342 -0.41631 -0.7127 -0.13152 0.11855 0.19782 0.41149 -0.38944 0.49635 -0.50158 -0.44912 -0.1049 0.53123 -0.39373 -0.81405 0.030323 -0.34428 0.18714 -0.55031 0.039784 0.19427 0.54239 -0.011408 -0.10146 -1.4048 0.2014 -0.003206 0.98894 -0.12221 -0.41402 -0.053905 0.064107 -0.87795 -0.30823 -0.22222 0.19114 0.39983 0.33588 -0.35155 -0.023697 0.14798 0.04385 0.047907 -0.42781 -0.036616 -0.25619 -0.6792 0.29413 -0.01406 0.44176 0.013378 0.17966 0.59825 0.17763 -0.4009 0.096739 -0.076792 -0.20531 -0.050022 -0.65127 -0.45011 0.55492 -0.14484 0.12941 0.19112 0.029734 -0.3247 -0.61121 -0.91135 -0.52013 -0.30297 -1.0508 0.31944 -0.42624 0.087098 0.48695 -0.45312 0.64942 -0.32337 -0.35711 -0.45215 -0.19941 0.012075 0.004966 0.24024 0.39543 0.23976 0.0042499 -0.037027 0.038392 0.31979 0.54213 -0.56595 -0.44075 -0.030101 0.25542 -0.12165 -0.79844 -0.20022 -0.075481 0.30662 -0.29018 0.29345 -0.49068 -0.16367 0.70539 0.48367 -0.2405 -0.5869 -0.3066 0.034398 0.56322 0.38456 0.14951 -0.37475 -0.24575 -0.14278 0.30016 0.39885 -0.087085 0.52304 -0.096962 0.36357 0.061925 0.43755 -0.10265 -0.025253 0.40096 -0.1435 -0.25066 0.20861 -0.2464 0.12084 0.16282 -0.32324 0.12787 0.3357 0.081065 -0.049773 0.68325 -0.070614 0.62761 0.21078 -0.08985 -0.28954 0.57173 0.24249 -0.19851 0.40025 -0.61423 0.2541 0.083527 -0.17395 -0.36175 -1.3631 -0.053877 -0.059327 0.01233 -0.38872 -0.39022 -0.44667 0.13361 -0.087683 -0.463 -0.22595 -0.89105 0.0856 0.54287 0.16044 0.081805 -0.49408 0.40008 0.4919 0.19396 0.07942 0.16193 -0.16415 0.076547 -0.17059 0.15158 -0.1909 -0.43331 0.39025 -0.32545 -0.34526 0.2163 0.18504 -0.029525 0.37097 -0.12777 -0.10629 -0.3034 0.29513 0.1086 0.035361 -0.12708 -0.14307 -0.067178 -0.20023 0.1271 -0.64277 0.25561 -0.29661 -0.33701 -0.014004 0.29978 -0.20187 0.12861 0.10726 0.62496 -0.53071 0.47202 0.02126 -0.37352 -0.13476 0.042081 0.56988 0.25531 0.22436 -0.26261 0.5023 -0.64398 -0.36058 -0.35143 -0.3879 -0.25793 0.080379 0.5063 -0.056459 -0.60729 0.0087066 0.14741 0.57311 0.37317 -0.39037 -0.34597 -0.45473
type 0.1554 -0.22168 0.49346 -0.45805 -0.0048912 -0.36762 0.89641 0.86117 0.6458 -2.0147 0.0076632 0.00033313 -0.10687 0.54173 0.61806 -0.62772 0.42651 -1.1811 0.38396 0.61536 0.31675 -0.37318 0.53607 0.12207 0.8383 0.00034817 0.41233 -0.2243 -0.23821 -0.80865 0.55416 -0.80541 0.61417 -0.50559 -0.35238 0.15187 -0.31766 0.59759 -0.20244 0.43415 -0.303 -0.89913 -0.40649 -1.0115 -0.32274 -0.75298 -0.014589 -0.71655 -0.38281 0.53987 0.27962 0.19059 -0.94576 -0.1871 1.6795 -0.10914 -0.83661 -0.10486 0.31693 0.492 0.20383 0.63917 0.14372 0.51116 -0.052804 0.56268 -0.63571 0.53585 -0.29558 0.55102 0.032812 -0.59559 -0.20863 0.29745 -0.28296 -0.50235 -1.3938 -0.085272 -0.77411 -0.0028097 -0.039864 0.14519 0.6277 -0.22754 -0.80655 0.90163 0.71346 -0.025787 -0.09683 -0.76264 -0.24494 -0.19106 0.33004 0.56714 -0.40328 0.52534 0.49868 0.41864 -0.14642 -0.1027 -0.03084 -0.13016 0.1985 0.29477 0.055197 -0.43295 -0.042009 -1.3753 -0.3518 0.20406 -0.75342 0.28757 0.40959 0.68903 0.22145 -0.30051 -0.44349 -0.29832 0.26059 -0.74401 -0.30314 0.25972 -0.13011 -0.62222 0.57534 0.1795 -0.15003 0.089697 0.59487 0.96293 0.45958 0.72974 0.38523 0.29945 -0.22242 -0.56612 -0.017437 0.35918 0.32337 -0.18147 1.2298 0.28083 -0.37355 0.46839 0.22862 0.26999 0.00034726 -0.93005 -0.023576 -0.14009 -0.033007 0.30627 -0.019151 -0.086083 0.13488 0.29013 -0.4326 0.3654 -0.63444 -0.94802 -0.66908 -0.81988 -0.69955 1.4107 0.68131 0.6892 -0.95721 -0.47384 -0.94228 -0.99986 0.3499 0.1227 -0.24134 -0.26072 0.54651 0.063727 0.4038 0.46358 0.025575 -0.15525 0.27122 -0.3877 0.19743 -0.089253 0.063369 0.54469 0.51331 -0.41013 0.71775 0.051597 0.99947 -1.3232 -0.4565 -1.6255 0.37428 0.17757 0.23496 0.030562 0.49791 -0.031927 -0.043303 0.6885 1.7802 0.26461 -0.48805 -0.58368 0.17944 0.25487 0.60457 -0.26115 0.5796 0.31895 -0.23604 0.10493 -0.6509 0.37135 -0.30555 -0.2842 0.52047 -0.32392 -0.37759 0.11675 0.093947 0.57127 0.6983 0.055099 -0.35542 -0.56471 -0.59818 -0.12538 -0.56817 -0.2777 -0.48898 -0.23303 -0.24074 0.45421 0.96195 0.08851 -0.52164 0.32617 -0.33794 0.8666 -0.68319 0.34228 0.142 -0.31011 -0.12044 1.0072 0.59557 -0.89966 0.42949 -1.1025 0.10077 0.14011 -0.82832 -0.87418 -0.32306 0.01786 -0.59194 -0.17492 -0.052286 -0.83241 -0.44856 -0.35054 -0.44898 -0.12551 -0.44085 0.43327 -1.0124 0.71999 0.32885 -0.32327 -0.46148 0.093964 -0.25412 -0.11825 -0.6508 -0.86061 -0.40166 -0.98261 0.47434 -0.6794 0.30195 0.33641 -0.55157 0.49362 0.11458 1.1411 -0.42971 0.17254 0.17031 0.32656 -1.2778 0.1519 -0.81231 0.01308 -0.070899 -0.38844 -0.052216 0.095364
3rd 0.18205 -0.40002 0.35627 -0.021352 -0.12193 0.11357 0.67989 0.48555 -0.71902 -1.3427 0.13083 0.47229 0.31462 0.33558 0.067067 0.036384 0.096979 -0.6966 0.12035 -0.030537 -0.023757 -0.35342 0.63742 -0.06881 -0.31767 -0.10219 0.49521 -0.50371 -0.48556 0.15596 0.21809 -0.50414 0.4226 0.27998 0.012907 0.27531 -0.0033627 0.13939 0.36508 -0.28957 -0.57971 0.23161 -0.35122 0.14072 0.26815 -0.057493 0.38162 -0.17543 0.32715 -0.17363 -0.18321 -0.23931 0.21245 0.63218 -0.32443 0.22701 -0.4074 -0.034542 0.38208 -0.68703 0.0021957 -0.00074555 -0.51335 -0.32505 0.062889 0.47888 -0.41535 0.12134 -0.478 -0.88841 -0.041855 -0.24561 -0.054635 0.0058262 -0.0094453 -0.088028 0.14886 -0.097381 0.48218 0.37589 -0.27924 -0.017141 0.61416 0.16685 -0.63522 0.010854 -0.24481 -0.012086 -0.64019 0.79984 -0.75513 -0.36829 0.21149 0.67901 -0.26455 -0.091994 0.32571 -0.25581 -0.065249 0.45726 -0.21086 -0.25853 0.069435 0.57927 -0.37155 1.0246 -0.74091 -0.21598 0.042478 0.22459 -0.24981 0.38036 -0.48183 -0.13639 0.28041 0.099511 0.013632 -0.24029 0.24228 -0.7879 -0.1304 -0.11015 0.15086 0.78293 0.29505 0.13493 -0.41084 0.59288 -0.1849 -0.19929 0.73298 -0.43211 -0.11928 -0.05596 -0.16204 -0.40833 -0.3846 0.02008 0.7429 -1.3706 0.956 0.14659 0.13607 0.054477 0.07247 -0.52325 0.32025 0.20804 -0.26122 -0.34995 0.0057424 -0.44756 0.32871 0.25845 0.82747 -0.14014 0.019285 -0.060536 -0.13735 -0.37308 0.16658 -0.42166 0.22252 0.55835 0.50966 -0.30946 0.019682 1.0118 0.063769 0.83097 -0.21281 -0.10071 -0.10644 -0.088004 0.32989 0.22646 -0.49905 -0.25207 0.31751 -0.036113 -0.19874 0.32216 0.20886 0.2719 0.53677 0.65355 -0.34034 -0.65943 -0.17715 -0.17521 0.054229 0.034432 0.17753 0.36594 0.21999 0.15541 -0.14521 0.30311 -0.53155 -1.1023 -0.17352 -0.64056 0.20087 0.0043796 0.0095797 -0.86535 -0.095808 -0.78841 0.24334 0.13401 -0.49996 0.19892 0.15895 0.36744 -0.20685 -0.33528 -0.93413 -0.43509 -0.11837 0.090397 0.29913 -1.0253 0.37734 0.12596 -0.29472 -0.053871 0.0045524 0.38346 -0.85372 -1.1509 -0.079981 -0.18464 -0.0056621 -0.56794 -0.22984 -0.26517 0.13435 -0.68241 0.2986 -0.32787 -0.093558 0.083365 -0.18105 0.33139 -0.47034 0.14745 0.51587 0.57487 0.097428 -0.41678 -0.25169 -0.10135 0.76228 0.069843 0.36434 0.030569 0.31113 -0.10222 0.072344 0.10447 -0.037681 -0.28302 -0.31269 -0.65918 0.58209 -0.47943 -0.14604 0.85035 -0.49265 -0.49857 0.040168 -0.16431 0.055381 0.21202 -0.39125 -0.64785 -0.43863 0.34878 -0.29259 0.07053 -0.083353 0.28452 -0.11812 -0.046122 0.089844 -0.35585 0.51426 0.3113 0.37589 -0.057008 -0.25105 0.57384 -0.81646 0.42575 0.078205 0.03274 -0.63465 0.079839 -0.076492 0.32135
4th 0.42629 -0.17989 0.25708 0.020251 -0.18556 -0.19499 0.76271 0.63896 -0.60179 -1.1072 0.55602 0.23743 0.72554 0.027262 0.26046 0.085681 0.26953 -0.92169 0.06348 0.26542 -0.23786 -0.08812 0.4354 0.045474 -0.32328 -0.354 0.087338 -0.611 -0.59775 0.18706 0.023148 -0.098423 0.24435 0.45858 0.42095 -0.19772 0.28112 0.20488 0.11222 -0.42285 -0.25748 0.39553 -0.63406 -0.15044 -0.12534 -0.01312 0.45667 -0.27098 0.36225 -0.14281 -0.0039191 -0.13102 0.35337 0.57236 -0.095092 0.22816 0.013796 0.013034 -0.067446 -0.62942 0.34042 -0.31806 -0.55424 0.29152 -0.27923 0.30651 -0.52625 0.13679 -0.38083 -0.22848 -0.37122 -0.14116 -0.084932 -0.32759 0.22099 -0.12161 -0.14364 -0.33424 0.18506 0.45156 0.057867 0.25778 0.41119 0.4963 -0.25133 0.21761 -0.43301 -0.4547 -0.39854 0.16015 -0.29439 -0.15746 0.079458 0.16616 -0.0087784 0.3169 -0.13786 -0.22557 0.27739 -0.24353 -0.043245 0.11945 -0.088303 0.18798 -0.14901 1.0254 -0.47279 -0.072215 0.63455 0.1846 -0.057044 0.33217 -0.6103 -0.27861 0.44131 0.39532 0.20477 -0.26417 0.34404 -0.37485 -0.037348 -0.082612 -0.16252 0.79914 0.622 0.50281 -0.35011 0.43336 -0.1688 -0.017323 0.29568 -0.48122 0.094305 0.19464 -0.1146 -0.27629 -0.15266 0.12671 0.68739 -1.3621 0.73215 0.50317 0.16557 0.33457 0.37277 -0.14179 0.36102 0.19805 -0.48393 -0.16815 -0.062075 -0.35226 0.26896 0.02383 0.23678 -0.51437 0.29392 -0.28379 -0.43649 -0.49592 0.36247 0.31226 0.56685 0.26722 0.24401 -0.34813 0.29334 0.94111 0.37248 0.76743 0.3912 0.2043 -0.28802 0.57803 -0.24774 0.25883 -0.67359 -0.41243 0.28496 0.35612 0.028943 -0.026587 0.22175 0.27444 0.21339 -0.061685 -0.14684 -0.39746 -0.086761 0.10157 0.47006 -0.02692 -0.039182 0.13815 0.36802 0.53813 -0.034502 -0.25754 -0.54826 -0.84151 0.049347 -0.29947 -0.085323 0.064458 0.37174 -0.30517 -0.40963 -0.71558 0.074201 0.35409 -0.30394 0.064736 0.046552 0.30049 -0.36953 -0.59803 -0.10746 -0.44369 -0.081195 0.20725 0.18353 -0.7109 0.0034703 -0.28745 0.12278 0.089607 -0.066656 0.12048 -0.59401 -1.0481 0.13036 0.24186 0.093341 0.23069 0.0054995 -0.095553 0.48539 -0.90325 0.24655 -0.2282 0.026438 0.1983 0.28247 0.90676 -0.55378 0.33218 0.82689 0.34543 -0.039076 -0.57653 -0.66532 -0.33774 0.15381 -0.13577 0.02785 -0.11775 -0.019398 -0.0069649 0.055133 -0.20828 -0.128 -0.24488 -0.35863 -0.58144 0.46867 -0.19927 -0.2855 0.96782 -0.63015 -0.5067 -0.030124 -0.24798 -0.20905 0.25921 -0.36036 -0.41686 -0.81447 0.002089 -0.70513 -0.19625 0.17505 -0.3361 -0.022506 0.3449 0.26477 -0.19481 0.59917 0.50198 -0.48134 0.15945 -0.19948 0.26017 -0.70277 0.56622 -0.063784 0.21765 -0.15083 0.17392 -0.53095 0.39916
5th 0.26703 -0.076282 0.49839 -0.3767 -0.14676 0.55088 0.40848 0.65489 -0.9459 -1.2394 0.78614 -0.1049 0.90238 0.067061 0.18421 -0.10093 -0.11436 -0.89325 0.32111 0.096401 0.077405 -0.35169 0.55444 0.16633 0.026132 -0.44031 -0.069253 -0.12288 -0.46261 0.043898 -0.018566 -0.16311 0.56293 0.56316 0.22976 -0.16093 0.61614 -0.16464 0.1063 -0.40692 -0.39944 0.44525 -0.86985 -0.095229 0.024092 0.16454 0.26156 -0.59226 0.33617 0.10481 0.0256 -0.35098 0.49355 0.57849 -0.47936 -0.29263 -0.11077 0.49133 -0.30503 -0.45614 0.26762 -0.25884 -0.22202 -0.11971 0.15725 0.45885 -0.8412 0.43483 -0.0072331 -0.11535 -0.13785 -0.48988 -0.1645 -0.0063609 0.075052 0.0051747 -0.14509 0.12731 0.5261 0.21871 -0.16879 0.20592 0.29121 0.27215 -0.47643 -0.20248 -0.016962 -0.32463 -0.6305 0.19391 -0.65779 0.50164 0.42907 0.068568 0.12802 0.33302 0.46377 -0.057875 0.11538 -0.24384 0.39637 0.032081 -0.072596 0.2266 -0.21606 1.0133 -0.48567 0.21253 -0.15776 -0.20474 0.10429 0.25199 -0.28468 0.06784 -0.31985 0.41329 0.34011 -0.27947 0.46701 -0.57784 0.27364 0.012734 -0.27277 0.63774 0.43341 0.5311 -0.24295 0.33299 -0.16432 0.1145 0.2898 -0.80279 0.12113 -0.10573 0.15113 -0.33967 -0.095126 0.017955 0.44318 -1.2628 0.57772 0.014488 -0.05708 -0.098543 -0.046843 -0.43432 0.55806 0.061413 -0.21843 -0.14371 -0.073235 -1.0718 0.15076 -0.09068 0.33219 -0.59037 0.42234 -0.37255 -0.6828 -0.58624 0.37225 -0.071843 0.96152 0.37319 0.48302 -0.48104 0.3383 0.81174 0.24112 0.3407 -0.082555 -0.14177 -0.01231 0.16341 -0.045244 0.11318 -0.61763 -0.28237 0.49114 0.21694 0.27762 0.41808 0.20698 0.54609 0.08722 0.34621 0.025618 -0.51495 -0.15372 0.18642 0.4177 -0.090381 -0.10971 0.039619 0.36084 0.37706 0.13425 0.17169 -0.34412 -0.83446 -0.033428 -0.36148 0.047464 0.1432 0.32395 -0.42307 -0.37186 -0.75295 0.021245 0.26217 0.045135 -0.31364 -0.12408 0.22948 -0.28977 -0.14867 -0.15089 -0.23664 -0.10099 0.60533 0.18461 -0.21709 0.047158 -0.39827 -0.25625 -0.14081 0.11797 0.24647 -0.28975 -1.0135 0.0011894 0.054665 0.25516 0.023655 -0.020386 -0.62928 -0.075334 -0.50211 0.1631 -0.12378 -0.066976 -0.35402 0.068934 0.77453 -0.5798 0.35573 0.77519 0.082156 -0.13275 -0.51384 -0.76649 0.033246 0.6009 -0.19654 -0.029831 -0.35629 -0.1193 0.19946 0.29859 0.34045 -0.0022005 -0.50176 -0.24886 -0.7206 0.3649 -0.47205 0.014691 0.94223 -0.84715 -0.34922 0.17742 -0.38803 0.11695 -0.19355 -0.63199 -0.43313 -0.35916 0.36209 -0.24544 -0.41982 0.19178 0.1435 0.29409 0.49134 0.65228 -0.17105 0.22199 0.073515 -0.36585 0.16566 -0.017557 -0.19106 -0.75937 0.77114 0.040353 0.095928 -0.5343 -0.055243 -0.57482 0.1721
eissn 0.71047 -0.057105 -0.22693 -0.55284 -1.2399 -0.24731 0.6961 0.51112 -0.33222 -1.7596 0.21316 -0.79787 0.094088 0.38167 0.73293 -0.28897 -0.99462 -1.3979 0.3392 0.74151 -0.14449 -0.029221 -0.33127 -1.0268 1.4912 -0.56254 0.94973 0.21212 -0.29054 -0.41668 -0.11705 -0.42926 0.42888 -0.32028 -0.3239 0.37968 -0.62562 0.409 0.95112 0.76575 0.24651 -0.12453 0.30673 -0.29595 -0.5813 -0.14603 -0.17913 0.91801 0.56864 0.50488 -0.64008 -0.64053 1.1992 -0.82245 -0.11376 0.71808 -0.1801 -0.20862 -0.55276 0.21009 -0.5083 -1.1247 0.17789 -0.4473 0.4832 0.079974 0.22182 -0.60848 0.7561 0.94581 -0.6424 -0.89191 -0.46805 0.39808 0.065594 0.11271 -0.49124 1.3981 -1.2397 -0.21403 -0.0040454 -2.1819 0.3049 0.78964 -0.63793 -0.81686 0.74409 0.32374 -0.046089 0.13291 0.4329 1.1243 -0.42519 0.063782 -0.74338 -0.38856 1.0215 1.1933 -0.88686 1.2233 -0.50694 -0.36446 0.33561 -0.92348 -0.046471 -0.80675 -0.067458 -0.42398 0.57288 -0.61405 0.68343 1.472 0.49595 0.70729 -0.34709 0.5561 0.55371 0.29765 -0.37979 0.26329 -0.67433 -0.22944 0.5417 0.48062 0.23018 -1.1596 1.1354 -0.70164 0.89528 -0.73529 0.45695 -0.46909 -0.77315 0.34761 -0.46366 0.50263 -0.070036 -0.55623 0.11451 -0.099632 1.559 -0.52774 -0.11606 -0.058923 0.29565 -0.23353 0.31108 0.29316 1.4176 -0.22592 0.60128 -0.58143 0.73786 -0.25321 0.36721 0.96128 0.38757 0.09096 0.03495 0.51185 0.1162 0.22544 -1.2648 0.99954 -0.44909 0.53704 -1.1568 0.18739 -0.43893 0.36938 0.67763 -0.26507 -0.030978 -0.25604 0.99553 -0.29072 0.26064 -0.47274 0.27033 0.48547 0.67351 0.6019 0.24472 -0.016941 0.93481 -0.056381 0.47893 0.32483 0.18748 -0.0077276 1.0931 0.46679 0.35726 0.3733 -0.4612 -0.080434 -0.50249 -0.74511 0.27752 0.3226 1.0498 1.0423 -1.167 0.056462 0.21819 -0.061385 -0.12172 0.88838 -0.66023 -0.47109 -0.040339 -0.62743 0.40455 -0.43878 -0.84242 0.67768 -1.0243 0.4669 -1.0936 0.33779 -0.50868 -0.57671 0.34792 0.13397 -1.1153 -1.4459 -0.065197 -0.73055 1.1727 0.015354 2.2493 0.016713 -0.45827 -0.19823 -0.037123 0.4133 0.37412 -0.056983 -0.20714 0.90649 -0.12141 -0.38454 -0.3362 -0.69278 -0.067555 -0.217 0.28263 0.12784 0.29216 0.015374 0.41963 0.39383 -1.5072 -0.65084 -0.025552 -1.1192 -0.35273 0.24363 0.085255 0.19076 0.28367 -0.40502 -0.46988 -0.60864 0.03007 0.72091 -0.44322 0.31041 -0.8285 0.3158 -1.7225 -1.1816 0.98887 -0.35333 0.65351 0.88233 -0.29748 -0.19117 -0.29263 -0.66162 -0.18815 0.6523 -0.19566 -0.26945 0.19994 0.211 -0.59517 1.3139 -0.70765 -0.67234 0.92229 0.00026364 -0.85293 0.48713 -0.13072 1.125 0.40582 -0.61239 -0.53333 -0.43455
lccn -0.32537 -0.97929 0.081147 0.44353 -0.31263 -0.046144 -0.011062 -0.58967 -0.62735 -1.7194 -1.0983 0.16846 0.14243 -0.29535 -0.30028 0.3665 -0.2821 -0.11999 1.2657 -0.43722 -0.039275 0.18468 0.13729 -0.33214 0.23367 0.17941 0.080204 -0.035613 0.23421 -0.16237 0.041072 -0.47702 -0.68965 -0.22234 0.66599 0.12328 0.68303 -0.43178 -0.037683 0.35707 0.20472 0.18676 0.094686 0.13654 0.56433 -0.10892 -0.2809 0.36773 -0.34572 0.40483 -0.89234 -0.83725 0.30704 -0.34299 0.34832 0.027901 0.16102 0.0050795 0.7157 0.12227 -0.050534 0.32945 0.57879 0.17005 -0.013732 1.2183 0.030806 0.3915 0.52258 -0.34755 -0.7144 0.5182 0.26828 -0.43494 -0.35251 0.82482 -0.27915 0.44808 0.092049 0.68657 -0.0037749 0.30847 -0.50914 -0.48133 -0.37316 -0.32141 0.50976 -1.5268 0.26374 0.9087 -0.2367 0.35436 0.34664 -0.26701 0.005834 0.084534 0.36988 0.0034822 0.32914 -0.12535 -0.64372 -1.2724 0.022461 0.13657 0.3042 -0.47243 0.18992 0.050239 -0.23011 0.71528 -0.28476 0.94033 0.36038 -0.2886 0.088383 -0.50946 -0.59841 0.071031 -0.071999 -0.57302 -0.46688 0.15131 0.59747 -0.25734 -0.62025 -0.80248 0.53756 -0.97606 -0.078799 0.2405 -0.021091 -0.47111 -0.0024028 0.43512 0.88316 0.36781 -0.51344 0.41987 -0.22023 0.046661 1.2737 0.27565 -0.031851 0.5637 -0.30019 -0.068791 0.91928 -0.23451 -0.8793 0.30002 0.22644 0.18017 0.18188 0.53046 -0.40307 0.099943 -0.37299 -0.40193 0.11379 0.08379 -0.32115 -0.61461 0.34851 0.43048 -0.12022 -0.77506 -0.077811 0.18802 -0.15529 -0.0091128 -0.41416 -0.36048 0.38664 0.58184 0.62433 0.14663 -0.23665 0.12456 -0.87815 -0.27996 0.3253 -0.14005 -0.034766 -0.91937 0.39673 0.22438 -0.39268 -0.073506 -0.40745 0.12271 0.63345 -0.13763 -0.24896 0.80532 0.12019 -0.27803 -0.13106 -0.14451 -0.43328 -0.14139 0.51103 0.085325 -0.55865 -0.99652 0.2617 -0.73049 -0.47029 0.49795 -0.37348 0.075914 0.68711 0.069246 0.22744 -0.27433 -0.34785 -0.12597 -0.46884 -0.25403 0.048323 0.27041 0.58222 0.4805 0.16971 0.22408 -1.1891 0.35616 -0.50883 -0.24095 1.11 -0.077731 0.44538 -0.83594 -0.75572 -0.29753 -0.19342 0.21763 -0.5075 0.71267 0.4056 0.53355 -0.33051 -0.27732 0.040453 0.32754 -1.31 -0.34592 -0.72397 0.62116 0.24493 -0.045077 0.64627 -0.14546 -0.093492 0.030985 -0.28194 -0.39749 -0.24853 -0.18336 0.23327 -0.50473 -0.78048 -0.26554 -1.1144 -0.050751 0.38774 -0.32299 -0.10274 0.075011 -0.20874 0.37646 0.0016635 0.27145 0.54154 1.1717 0.32522 0.19852 -1.0216 -0.34923 -0.45164 -0.81728 -1.0817 -0.47402 0.013959 -0.53805 0.30595 0.44989 0.18837 0.62373 0.21162 0.57443 0.86989 -1.1726 0.067701 0.14104 -0.20703 0.2588 -0.4805 0.028675 -0.39329 -1.022
oclc -0.20351 -0.43302 -0.01593 -0.022781 0.25834 0.45369 0.16625 -0.04935 -0.36255 -1.1001 -0.95027 0.30602 0.36142 -0.24982 -0.067063 1.0118 -0.20885 -0.59377 0.3126 -0.83404 -0.40986 -0.25379 0.73648 -0.3546 1.0811 -0.13007 -0.36738 -0.24428 -0.43289 0.31239 0.28249 -1.1537 0.36378 0.29856 -0.099237 0.38871 0.81044 -0.5582 0.26306 0.74666 -0.16021 -0.12519 0.27686 -0.97192 -0.064644 -0.2655 0.41562 0.67425 -0.84174 -0.40935 -0.18609 -0.28432 0.18268 -0.30684 -0.043653 -0.14274 0.19385 -0.3705 0.1909 -0.25407 -0.52089 -0.28873 0.75441 -0.23821 -0.23369 0.56753 0.54842 -0.091321 -0.15322 0.056488 0.20247 -0.78258 -0.083482 -0.46246 0.41133 0.07479 -0.29818 0.27102 -0.23127 -0.24786 0.00055683 0.29185 0.22782 -0.73491 0.35705 -0.069857 0.6308 -0.6619 -0.40259 0.6827 -0.039429 -0.07452 -0.042177 0.34659 0.021841 0.099567 -0.71642 0.67434 0.52832 0.23261 -0.62006 -0.54935 -0.037129 0.54084 0.28354 -0.53668 -0.22476 0.037661 -0.92931 0.81605 -0.11964 0.3179 -0.16653 0.092014 0.77815 0.45759 0.08759 0.25633 -0.55365 0.086916 -0.76189 0.92629 -0.54894 -0.098255 -1.4363 0.68186 0.98633 -0.30974 0.33925 0.024802 -0.36134 0.068982 0.56385 0.65537 -0.0071737 -0.2426 -0.77384 0.20241 -0.36047 -0.47084 0.72769 -0.13194 -0.36402 0.72295 0.79815 -0.19554 -0.23054 0.034067 -0.53131 0.24191 0.413 0.12058 0.3645 0.43393 0.023482 0.61268 -0.094019 -0.60054 0.35706 0.36036 -0.26542 -0.39675 0.074453 -0.095273 -0.085049 0.010172 -0.67322 -0.51172 -0.18963 -0.17299 0.1977 0.648 0.16768 0.31885 0.72875 0.24208 0.14018 0.17525 -0.36479 0.19099 -0.10203 -0.24991 -0.032349 -0.22829 -0.13869 0.55724 -0.076228 -0.1018 0.14327 -0.098368 -0.42965 -0.71273 0.45169 0.91061 0.59644 -0.48586 0.11834 -0.10506 -0.12716 -0.51463 0.43524 -0.43851 0.044693 -0.13691 -0.50282 0.014597 -0.35264 -0.1485 0.047163 0.48374 -0.22648 -0.43063 0.38563 -0.42289 -0.48677 -0.38603 -0.12334 -0.31585 0.37635 -0.35325 0.43203 0.1346 -0.097176 0.4815 -0.54812 -0.46412 -0.12912 -0.71604 0.16334 -0.038218 0.18599 -0.42743 -0.005251 -0.83853 -0.48746 -0.17653 -0.61559 0.068745 -0.060125 0.77655 -1.2371 -0.36907 0.44169 0.49765 -1.1454 -0.72284 -0.22878 -0.16521 0.49451 -0.88707 1.2277 -0.65769 -0.56142 -0.043709 1.3309 -0.0055286 -0.74337 -0.63848 -0.3235 -0.42308 -0.49734 -0.66895 -0.21712 0.028829 0.36405 0.094786 -0.035017 -0.11861 -0.25905 0.57401 -0.75524 0.0045364 0.4274 0.61231 0.79168 0.39388 0.22614 -0.091119 -0.80235 -0.89477 0.025107 -0.64151 0.37097 -0.24464 0.1485 0.69875 -0.12245 0.49952 0.73955 0.65291 1.3939 -0.39154 -0.59811 1.0281 0.29571 -0.016881 0.31044 0.19239 -0.69172 -0.66292
academic 0.135 -0.48141 0.29286 -0.13673 -0.23887 -0.1411 0.29484 0.69161 -0.23548 -1.1542 -0.32631 0.16269 -0.25509 -0.058315 1.1314 0.41865 0.078125 -0.21014 0.04864 0.028476 0.17039 0.28489 0.12809 0.35237 0.19716 -0.27899 -0.59199 -0.2965 0.50945 0.11545 -0.14337 0.72277 0.50034 0.21048 0.019904 -0.24477 -0.028532 -0.38218 0.13846 0.37661 0.19047 0.3486 0.60482 0.46903 0.38448 -0.3827 0.43019 -0.25757 -0.095024 0.15979 -0.65855 -0.39601 0.27892 -0.16014 -0.2766 -0.37006 0.44451 0.34997 -0.24377 0.57415 0.070518 -0.34538 0.2181 0.16066 0.18114 0.54638 0.26706 -0.41368 0.25788 0.69491 -0.73772 -0.35138 0.32425 -0.081287 0.17356 0.19714 -0.030569 0.51056 -0.37425 0.48803 -0.63544 0.43176 0.18583 0.06791 0.016679 0.23593 -0.20679 -1.6928 0.45688 0.4244 0.17352 0.37013 0.46787 -0.37897 -0.89106 -0.48517 0.36035 -0.69355 0.060005 -0.5747 0.19041 -0.53139 0.26279 -0.42842 0.081481 0.0088373 0.26864 0.2856 0.5612 -0.78985 0.13937 0.50282 0.30478 -0.47245 0.40872 -0.21545 -0.030622 -0.60745 0.02623 -0.77155 -0.06071 0.19309 -0.1482 0.11285 0.18328 -0.075632 -0.019125 0.1607 0.095872 1.1577 0.68232 -1.1882 -0.02151 0.050782 0.31559 0.12752 -0.73009 0.1793 -0.13489 0.41602 1.7295 0.47652 -0.2239 -0.12469 0.034249 0.050446 0.093075 -0.21764 -0.12686 0.041773 0.05369 -0.48392 -0.14634 0.18868 -0.11685 -0.030326 -0.48311 0.23559 0.73592 -0.36622 -0.32636 -0.22349 0.31781 -0.43441 0.058267 0.24481 -0.52731 -0.71727 -0.00099546 0.64156 -0.63218 -0.76391 0.72351 -0.56386 0.041912 0.031293 0.0046613 -0.36606 0.29952 0.27776 0.71814 0.29885 0.17824 0.62916 -0.062162 0.38001 -0.61431 -0.50379 0.22142 -0.86641 0.16825 -0.24341 -0.0079871 -0.38944 -0.30905 -0.07219 0.58682 0.070611 0.57946 0.44904 0.44597 0.16168 -0.28959 -0.28589 -0.17697 0.043569 0.4176 -0.15268 0.25394 0.51016 -0.18783 -0.15091 -0.50406 0.49123 -0.23827 0.51135 -0.038428 -1.8058 -0.25486 0.081247 -0.063757 0.017237 -0.23448 -0.0019858 0.11343 0.11687 0.12316 0.034544 0.52828 -0.35818 0.069938 -0.11804 -0.029076 0.15567 0.065674 0.11281 0.013277 -0.2846 0.20452 0.81418 0.14956 -0.86147 -0.34272 0.056525 0.38359 0.13342 0.013455 0.40578 0.069852 0.14546 -0.27341 0.31345 -0.10101 -0.027723 -0.14044 -0.30474 0.026781 -0.38437 -0.6901 0.013753 -0.092302 0.18374 -0.013991 0.10827 0.16897 -0.02381 -0.53292 -0.33567 0.23578 -0.81347 -0.63977 0.15726 0.27042 -0.2601 0.52531 0.3845 0.32678 -0.059896 -0.37784 -0.12862 0.10979 -0.61238 -0.046542 0.075879 -0.38735 -0.44235 -0.37198 -0.29121 -0.11732 -0.4085 0.93521 -0.16936 -0.68809 -0.41602 0.062477 0.38312 -0.33341 0.023108 0.20283 -0.44634
discipline 0.41066 0.48037 -0.18891 -0.41633 0.50014 0.25121 -0.16015 0.30187 -0.20777 -1.338 -0.38601 0.45206 0.21733 0.47164 0.58938 -0.0019651 -0.24137 -0.79491 -0.15527 0.39683 0.61265 -0.11312 0.51187 -0.35423 -0.31692 -0.28387 0.27509 0.0195 -0.098296 -0.3978 0.067516 0.074342 0.3924 -0.052768 0.74704 -0.067575 0.4078 -0.53647 -0.16946 0.29997 -0.24132 0.27203 0.32503 0.55836 -0.0036102 -0.24842 -0.66523 0.040239 -0.42222 -0.10638 -0.088444 -0.11208 0.63622 0.35106 0.11901 -0.27242 -0.15417 -0.23774 -0.15304 -0.39509 -0.33519 -0.049846 -0.24046 -0.23476 0.20658 0.10757 -0.16789 0.28422 0.39297 -0.15754 -0.5946 -0.83878 0.0021981 -0.23799 0.27338 0.28315 0.30388 0.14095 -0.34748 -0.13029 -0.41911 -0.72611 -0.0051906 -0.29163 -0.16742 0.47025 -0.040671 -1.7632 -0.39527 -0.080522 0.39962 0.4627 0.21449 -0.24544 -0.2404 -0.40366 0.33064 0.019745 -0.17667 -0.12625 0.01856 -0.37294 0.019317 0.14064 -0.57683 -0.42293 -0.041546 0.060401 -0.032745 -0.3472 0.03286 0.69479 0.64171 -0.05795 0.17342 -0.0022083 -0.17961 -0.78065 -0.056536 -0.2828 0.083529 0.37402 -0.38195 0.49714 -0.15565 0.1667 -0.37124 0.10454 -0.28994 0.15114 0.3213 -0.81048 -0.21014 0.23826 0.42688 0.45074 -0.38761 0.10068 0.38518 -0.078605 0.84993 0.12376 -0.20812 0.64926 -0.084382 0.085725 -0.42583 0.16679 -0.046641 -0.2162 -0.31358 0.2379 0.16266 0.071492 -0.72393 0.068781 -0.88749 -0.8439 -0.29155 -0.13582 -0.54764 0.26989 0.17964 -0.45222 0.21066 0.12948 -0.75443 -0.37304 -0.29055 0.46496 -0.20981 -0.75472 1.108 -0.20486 0.23362 0.78517 -0.21454 0.12391 -0.26572 -0.28794 0.64115 0.089462 0.046541 0.65686 -0.21926 -0.41019 -0.63435 0.24104 0.044803 -0.19466 -0.10218 0.1047 0.24692 -0.087618 0.0047455 -0.25512 -0.35379 -0.32882 0.78336 0.46744 0.69642 0.14471 0.084302 -0.27248 -0.19484 -0.11696 0.041702 -0.1957 0.63898 0.10053 -0.68749 0.32173 -0.41688 0.62412 0.24664 0.045623 -0.11326 -0.8904 0.10683 0.40625 0.81365 -0.70473 0.403 -0.22736 -0.11794 0.070304 -0.73937 0.27394 -0.2379 -0.25545 -0.22433 0.43653 -0.77653 0.67722 0.054249 0.051551 0.31847 0.50572 0.42644 -0.30787 0.095369 -0.76234 0.097313 0.040053 0.37117 -0.037849 -0.72748 0.1105 0.21672 0.18625 -0.46958 0.37531 0.31128 -0.063114 -0.1999 -0.16122 0.059494 -0.37552 -0.27235 0.16822 -0.46825 0.086976 -0.26499 0.35212 0.12406 0.37633 -0.079717 -0.1914 0.1598 -0.48354 -0.70016 0.016363 0.15362 -0.37969 0.58434 -0.17499 0.23779 0.55847 0.20351 0.31615 -0.11449 -0.49085 -0.32854 0.18956 0.27506 -0.30044 -0.55917 -0.32759 -0.23912 -0.56082 0.65486 -0.35967 -0.28998 -0.60683 0.089175 0.52614 0.75 0.11161 0.1315 -0.67662
staff 0.16395 -0.20346 0.64272 0.237 -0.90162 -0.10022 0.59327 0.21357 0.36894 0.22116 -0.15845 -0.40773 -0.2522 0.51282 -0.45109 0.3923 0.13111 0.1334 0.37813 0.1484 0.33153 0.05515 0.0029435 -0.013401 0.073222 0.03395 -0.58543 0.15622 0.10302 -0.41167 -0.096431 -0.37187 -0.16491 -0.39626 0.48573 0.30603 0.30592 -0.70781 0.0011112 -0.16055 0.41208 0.001642 0.51801 0.24823 0.49036 -0.56402 0.36204 -0.083173 0.16232 0.57745 0.5474 -0.29461 -0.00068136 0.55918 -0.12611 -0.057297 0.093339 0.6515 -0.054743 0.047534 -0.34077 -0.3786 0.44542 0.65664 0.57448 0.098087 0.25014 -0.16895 0.23005 0.74303 -0.030997 0.23956 0.27398 0.57089 0.21572 0.4374 0.16112 -0.28814 -0.045206 -0.30872 0.13344 -0.40121 0.64511 0.37701 0.061718 0.37817 -0.15972 -1.8537 -0.0013052 0.01639 0.25502 -0.10389 0.39075 -0.19208 -0.17356 -0.73515 0.59629 -0.76089 -0.4037 -0.52305 0.31393 0.058377 -0.56649 -0.2459 -0.0070197 1.4421 0.38696 0.015677 0.21782 -0.14891 -0.22581 0.55616 -0.06394 0.31359 0.35724 0.10965 -0.43387 -0.15244 0.23027 -0.52293 0.17417 0.20114 -0.29329 0.084139 0.41195 -0.58227 -0.34176 -0.34112 -0.492 1.0768 0.014185 -0.22889 -0.14619 -0.4332 -0.54181 0.10222 -0.32602 -0.091066 0.10296 -0.05948 0.69138 0.27006 0.11398 0.029698 0.010112 0.59056 0.056216 0.041994 0.19487 -0.50997 -0.3302 0.36284 -0.20773 0.37231 -0.31372 0.18677 -0.44641 0.18446 0.60006 0.024926 -0.18857 0.05766 0.85735 -0.32012 0.092982 0.25303 -0.44871 -0.95097 -0.31512 0.037388 -0.2968 -0.16532 0.27397 -0.55093 0.23143 0.24396 0.15764 0.27877 0.0029264 0.18854 0.069254 0.31176 -0.084101 0.54014 0.32906 -0.039091 0.35944 -0.95267 -0.42029 -0.2995 -0.012074 -0.10991 -0.33095 -0.21059 -0.33174 -0.48795 0.0029091 0.56104 -0.47379 -0.097913 0.67097 0.59142 -0.13719 -0.28849 0.009757 -0.22842 0.33284 0.042174 0.22464 -0.2233 0.17943 0.061801 -0.39763 0.2078 0.51768 0.1573 0.1736 -1.3475 -0.24375 -0.12272 -0.32161 0.55116 0.56645 -0.22717 -1.1382 -0.062054 -0.2929 1.0375 -0.20819 -0.50096 -0.28848 -0.6114 -0.56424 0.24101 -0.1577 0.20147 -0.083231 0.038446 0.063344 0.34273 0.19024 -1.1316 -0.023542 -0.17976 0.21167 0.32362 -0.65416 0.3085 0.48941 0.057268 -0.43939 0.5507 0.048104 -0.111 0.21026 -0.12082 -0.48661 -0.2079 0.022912 0.37868 -0.45641 0.18359 0.25173 -0.69474 -0.10914 -0.10038 -0.52188 -0.022146 0.059946 -0.0081295 -0.95836 0.078264 0.17815 -0.60913 0.13644 0.18827 0.027334 -0.018292 0.1005 0.98936 0.1524 0.28065 -0.31502 0.80808 -0.092143 -0.31661 -0.28813 0.27212 0.32085 0.62296 0.35882 -0.38918 0.38007 -0.82944 -0.074523 0.1388 0.23174 -0.0483 0.13372 -0.15998
size -0.40378 -0.81031 0.18502 0.17705 0.20732 0.12673 0.48726 0.82221 0.50139 -1.9379 0.72026 -0.37955 -0.495 0.34951 0.66889 -0.68662 0.11414 -1.2349 0.22213 -0.2297 0.15476 -0.17321 -0.60092 -0.017238 0.47837 0.43835 0.16417 0.61078 -0.23801 -0.010105 0.26188 0.026778 0.066763 0.0472 -0.22181 0.35996 0.05134 -0.36798 -0.23308 0.79197 0.47495 -0.30923 -0.90511 0.47537 0.21341 0.29356 0.35028 0.23157 0.26869 0.32051 0.1808 0.22137 0.035786 0.19367 -0.3393 0.57718 -0.38291 0.42859 0.58116 0.12496 -0.20631 0.85871 0.45578 -0.11994 -0.17691 0.32338 -0.77389 0.71008 -0.73524 -0.45951 0.3219 -0.021977 0.026478 -0.5645 -0.091984 -0.37409 -0.56826 -0.75031 0.57204 -0.21399 -0.45206 -0.20413 -0.0076801 0.0074498 -0.69608 0.67943 0.38083 0.12946 -0.04726 0.002267 0.056961 0.5363 0.88029 -0.023987 -0.095144 1.0133 -0.1293 0.55434 -0.10827 0.037237 -0.44121 -0.47931 1.3709 0.69518 1.1115 -0.7465 -0.46341 -0.66649 -0.69444 -0.24789 0.28449 0.69868 -0.2427 -0.28545 -0.64839 -0.27201 0.13202 -0.39473 0.19795 0.27789 -0.056575 0.66644 0.31584 -0.093792 0.1442 0.32516 0.23482 -0.2018 0.032366 -0.14857 -0.33154 -0.34933 -0.41206 -0.54331 0.30155 0.027722 0.12675 -0.13888 0.40342 0.56256 0.84704 0.28345 -0.44124 -0.61595 -0.048675 -0.087138 -0.023379 0.13385 -0.48799 0.51629 -0.43842 0.19563 -0.024355 -0.86441 0.85808 -0.29594 0.23654 0.3707 -0.30753 -0.018206 -0.12515 0.30848 -0.62345 -0.051889 -0.052858 0.80543 0.034491 0.0069439 -0.022118 -0.37413 -0.53361 -0.49071 -0.33606 0.31964 -0.39602 0.1184 0.50845 0.21146 -0.33791 -0.549 -0.48376 -0.93785 -0.17847 -0.039492 -0.11503 -0.045672 0.64136 -0.47145 -0.15466 0.50534 0.20336 0.28348 0.10029 -0.87944 -0.073061 0.24769 0.013109 0.68273 0.23282 -0.69101 0.681 0.88302 -0.17674 -0.37351 -0.49158 -0.19943 -0.4236 -0.333 0.23945 0.12128 -0.072998 -0.041993 0.16644 0.57852 -0.24456 -0.63109 -0.3524 -0.16968 0.59181 0.19876 0.62796 0.25166 0.31302 -0.11986 -0.017336 0.52602 -0.27057 -0.53799 0.36375 -1.2288 0.60708 -0.59947 -0.68421 0.53348 -0.0020498 0.77269 -0.24738 -0.43666 0.21939 -0.62168 -0.37482 -0.85113 -0.63637 0.13595 -0.47186 -0.08178 -0.26752 0.01695 0.24243 -0.4713 0.19523 -1.2071 -0.084382 -0.12438 -0.38713 -0.47604 0.031147 0.16437 -0.45448 -0.06788 -0.93444 -0.15297 -0.28869 -0.5434 -0.38146 -0.07477 0.16058 0.39733 -1.386 0.20177 -0.10906 0.76448 -0.46751 0.86581 0.069785 -0.18979 0.012399 -0.12854 0.19727 -0.69917 0.25915 -0.60703 -0.46447 -0.0048521 0.21721 0.42731 -0.41399 0.14067 -1.0235 0.55793 0.084185 -0.36199 -0.46994 0.56172 -0.13519 -0.083838 0.57952 -0.44792 0.67775 -0.38054
administrative 0.66072 -0.26911 -0.033133 -0.58998 -0.078102 -0.037719 0.29774 0.087682 0.19294 -1.4175 -0.40512 0.10775 0.5576 0.14872 0.59736 -0.44096 0.47649 -0.1259 0.35299 0.19938 0.08761 0.20756 0.014063 -0.051212 0.37354 -0.070787 -0.29826 -0.2576 0.07282 -0.54988 0.07928 0.34677 0.46135 0.15698 0.9822 -0.42846 -0.12528 -0.49116 -0.75271 -0.17856 -0.10276 0.038102 0.86119 0.36641 -0.3735 -0.31829 -0.26437 -0.4427 -0.11215 0.22988 0.57389 -0.18881 0.37388 -0.0010489 -0.88197 -0.12329 0.55456 0.054792 0.30038 -0.38786 0.04821 -0.39291 0.58029 0.64233 0.6138 0.052958 0.70585 0.095713 -0.026176 0.18918 -0.19255 -0.39239 0.0028711 -0.26581 0.52407 0.53464 0.095124 0.16338 -0.029096 -0.34051 -0.16527 -0.21889 -0.045692 0.15562 -0.48845 0.35033 -0.10089 -1.6851 0.14559 0.055152 0.03494 0.071966 0.87964 -0.27478 0.012187 0.10938 -0.19397 -0.69029 -0.14947 0.0004799 -0.36808 0.3171 -0.18036 -0.060308 -0.436 0.041063 -0.13113 -0.62209 0.45321 -0.16996 0.431 0.15975 0.037711 0.022038 0.64395 -0.1113 -0.36456 -0.45919 -0.076495 -0.67568 0.018966 -0.082718 -0.51424 -0.23088 -0.15208 -0.39578 -0.61981 0.42198 -0.18268 0.15895 0.65771 -0.4785 -0.58402 -0.055405 -0.36693 0.46072 -1.0473 -0.1852 -0.12187 0.15427 2.201 0.41123 -0.7147 -0.26656 -0.13604 0.60736 -0.24823 -0.1613 0.2902 -0.99814 0.18418 -0.87796 -0.2299 0.26501 0.044874 -0.26342 -0.65598 -0.17173 0.60185 0.10299 -0.27654 0.24023 0.45264 -0.19798 -0.23736 0.38372 -0.58848 -0.45236 0.091005 0.42553 -0.23864 -0.31197 0.9702 -0.3598 0.037997 0.17655 -0.58534 0.02136 0.15607 -0.083076 0.41422 -0.24022 0.34333 0.071455 -0.1664 -0.29521 -0.14899 -0.20785 0.62435 -0.18785 -0.61631 -0.39956 0.46067 0.084523 -0.1869 -0.095194 0.34029 -0.032157 -0.31295 -0.027109 0.16877 -0.058055 -0.0083457 -0.30773 -0.10792 0.20976 0.39324 0.49241 0.34713 0.59909 -0.093342 0.30495 0.13921 0.99938 0.11233 0.89184 0.021393 -1.0604 -0.011023 0.10325 0.25936 0.17478 0.18281 0.057018 -0.13078 0.075971 -0.12525 0.93275 0.62037 -0.50196 0.080082 -0.15346 -0.29205 0.57475 0.25905 0.18403 -0.28764 -0.11927 0.64888 -0.30577 0.10835 -0.45226 0.12605 0.35818 0.49989 0.30504 0.0741 0.49549 0.19082 0.13575 0.1871 0.41756 -0.27966 0.44983 -0.0038538 0.052499 -0.64999 -0.080037 -0.39886 0.56284 -0.3478 0.25821 0.55963 -0.28116 0.089976 0.14692 -0.36542 -0.45477 0.3803 -0.66634 -0.79985 0.12927 -0.43426 -0.47689 0.33494 0.14795 0.0076069 0.29794 0.22704 -0.18743 0.46748 0.41845 0.19816 0.43568 0.007443 -0.34595 -0.36358 -0.020649 0.007003 -0.22029 0.84546 -0.39968 0.12805 -0.40698 -0.11584 0.59206 0.047067 -0.18054 0.11557 -0.70729
arrondissement -0.29979 -0.33972 -0.1246 0.2947 0.0036089 0.50085 0.14315 -0.71044 -0.87269 -1.8356 -0.17535 0.11669 -0.20964 0.729 -0.099787 1.1957 0.02799 -1.0369 -0.40535 -0.58574 1.1714 0.17769 -0.28529 -0.034393 0.38037 0.44684 0.21519 -0.32658 -1.494 -0.72094 0.45961 -0.12878 0.84478 0.3926 0.10606 0.044223 1.2921 -1.2504 0.84479 0.23107 -0.40895 -0.37471 -0.13581 0.10708 -0.013283 -0.41362 0.48827 -0.012323 -0.24739 0.11861 -0.45912 -0.92207 -0.10772 -0.17818 -0.66588 -1.2813 0.20176 -0.011128 1.121 -0.15309 0.22933 0.01137 -0.36725 0.07926 0.33192 0.032132 0.65275 0.45051 -0.71561 -0.46407 -0.061211 0.30804 -0.68851 0.51438 -0.64352 -0.70401 -0.31929 0.47574 0.40464 -1.9521 0.55564 0.69892 0.32651 -0.22997 0.35421 0.099441 1.1528 -0.01733 -0.014768 -0.015848 -0.018974 0.13937 0.30209 -1.0539 0.23425 0.43647 0.29499 -0.00092759 1.2775 0.66371 -0.54366 0.11582 0.38866 0.78293 0.20883 -0.9392 -0.031707 1.3099 -0.15819 0.46398 -0.22919 -0.53379 -0.16467 -0.26192 0.046715 -0.19031 1.8032 -0.98454 -0.27007 -0.24354 0.45234 -0.22065 0.014603 -0.95806 -0.10528 -0.37759 -0.32465 0.48557 -0.62945 -0.1261 -0.92514 -0.44382 0.58974 -0.74285 -0.44354 -0.97195 -0.89996 0.38324 -0.032745 -0.2864 0.84022 -0.80639 -0.27518 -0.43573 0.39563 0.36298 0.58059 0.5466 0.45595 2.0513 0.06129 0.81347 -1.0698 -0.97132 1.1394 -0.33744 -0.1491 -0.75445 0.088817 -0.21933 0.19935 -0.36797 -0.63963 -0.076258 1.2025 0.71444 0.30832 0.39539 -0.73443 1.7191 -0.36751 -0.14143 0.24629 -0.033962 0.39695 -0.52433 -0.36099 0.13856 -0.15445 0.73971 0.3319 -0.19653 -0.54575 -0.66119 1.0002 0.42858 -0.29132 -0.49995 0.87426 0.098348 1.0355 -0.046823 -0.32457 -0.18293 -0.0098233 -0.12321 -0.59707 0.13659 1.6675 -0.37783 0.36143 0.29406 -0.92238 1.2346 -0.82488 -0.53625 0.56984 -0.0032672 0.13491 -0.23163 1.0482 -0.59542 0.34533 -0.25019 -0.51937 -0.67187 -0.67797 -1.0057 0.45904 0.60572 0.49465 -0.54515 -0.00076391 0.13405 0.29003 0.57943 1.4269 0.77779 -0.084205 0.1902 -0.55999 0.39083 -0.82729 -0.97541 0.9309 0.93891 -0.34367 -0.58316 0.20762 0.83642 -0.16306 0.30107 -0.4505 0.52048 -0.36647 1.904 -0.044005 0.51276 -0.090432 0.11164 0.32585 0.63046 -0.47714 0.28534 -0.23221 -0.72042 -0.0019253 -0.027709 0.24566 0.85669 0.099529 -0.74461 0.21327 -0.85878 -0.55452 0.92399 0.43187 -0.23533 -0.0077848 -0.057483 -0.97954 0.12718 0.43046 -0.28988 0.38104 0.17825 -0.39962 -0.40124 -0.12806 -0.33156 0.39407 -0.79319 -0.90771 0.51095 1.0808 -0.060579 -0.23349 1.0554 -0.034524 -0.15003 0.73176 0.43052 -1.0783 0.66092 -0.49099 0.73449 -0.24036 -1.2785 0.25384 -1.0152
county 0.36106 -0.15068 0.47769 -0.12022 -0.10561 0.44254 -0.20072 0.017787 0.70128 -0.56191 0.26745 0.37177 -0.3226 0.41936 -0.55104 -0.42094 0.62002 -1.4993 1.5539 0.27384 -0.0051562 -0.092247 -0.52528 0.0053208 -0.39983 -0.63883 0.23636 0.14906 -0.22954 -0.39181 0.32363 0.23778 0.12694 -0.21416 0.29445 0.043133 -0.23781 0.81931 0.073204 0.18605 -0.52954 0.25576 0.50802 -0.11529 0.078196 0.34243 0.5343 -0.70536 0.28515 -0.34476 0.29931 -0.2984 -0.72336 -0.41847 -0.084857 -0.30451 -0.14751 0.31335 -0.084067 0.24291 0.38907 0.24598 0.3404 -0.1858 -0.098633 -0.39672 -0.34427 -0.25158 -0.08127 -0.82312 -0.046023 0.30097 0.13707 0.082509 -0.15418 -0.30715 -0.63747 0.11163 0.15261 -0.2046 0.28394 0.45375 0.13805 -0.23587 0.34851 0.59882 -0.014643 -0.10206 -0.32913 -1.0307 0.40087 -0.66088 0.20009 0.16648 0.21212 0.46543 -0.078802 0.6485 -0.11968 0.55395 0.1073 -0.18051 -0.20348 0.28965 0.15501 0.16387 -0.28406 -0.44126 -0.088165 0.018696 -0.7066 0.34015 -0.37813 0.15484 0.1108 -0.037921 0.054801 -0.23439 -0.16117 -1.0056 -0.22835 0.039268 0.22082 0.21629 0.17379 0.045311 -0.2384 -0.32794 0.29706 0.042632 -0.57457 -0.56666 -0.48291 -0.32935 0.20823 -0.056511 -0.54956 -0.25719 -0.51772 0.10129 0.77924 0.79617 0.22863 0.74561 0.51148 -0.52906 -0.38705 0.6506 0.046368 0.11782 0.056318 -0.085184 0.43109 0.049802 0.22453 0.17437 0.36853 -0.78104 0.047761 -0.29254 -0.054782 -0.019486 0.24259 0.49072 0.29471 0.10174 -0.85873 0.27407 -0.30045 0.57202 0.54713 -0.30091 -0.19335 0.33312 0.20851 0.41231 -0.95457 0.62815 -0.47085 0.1045 0.057863 -0.18452 -0.5496 -0.0064075 0.72957 -0.22899 -0.18786 -0.051499 -0.10048 0.29818 0.20178 0.17122 -0.0034169 -0.4916 0.3584 -0.28621 -0.82035 0.24776 -0.24731 -0.87461 -0.054881 0.70008 0.25422 -0.36629 -0.65375 -0.12712 -0.29263 0.59814 0.049887 -0.10699 -0.32175 0.25606 -0.26629 0.11296 -0.10588 -0.27814 0.32763 0.61886 0.52599 0.24973 -0.041028 -0.14952 -0.38577 -0.31051 -0.98696 0.67408 -0.76029 0.045225 0.28042 -0.4663 0.045738 -0.46772 -0.20117 0.22319 0.34974 0.33452 0.22455 0.062665 0.91737 -0.31431 0.10082 0.10404 -0.28987 -0.84467 -0.94082 0.29852 0.78769 0.12981 0.32089 -0.070503 -0.011465 -0.28947 0.0076702 0.44198 0.69535 -0.56165 -0.049301 0.22033 0.42651 -0.022881 0.6276 -0.094448 -0.10247 0.12468 0.078 0.47606 -0.4219 0.21819 -0.54711 -0.30699 0.34968 -0.078867 0.35976 0.46154 -0.4798 0.20167 -0.16009 0.3177 0.090035 -0.67775 -0.27251 -0.69452 -0.66907 0.34373 -0.20845 -0.17284 0.48871 0.30838 0.31489 0.18877 0.075895 -0.056818 -0.23607 -0.21375 -0.22599 0.71057 0.083235 -0.32884 -0.18519 0.17306
affiliation 0.49146 0.37507 -0.48667 -0.61706 0.015178 0.049686 0.45487 0.018758 0.26217 -1.4865 -0.19955 0.087958 -0.32166 0.51068 0.466 -0.38604 0.55329 -0.35247 -0.062726 0.9402 -0.02766 -0.075066 0.073615 0.27197 -0.35461 -0.4711 -0.64802 0.10721 0.38677 0.2148 1.0174 0.2928 0.20059 0.21516 -0.14141 0.71328 -0.2924 0.023695 0.18375 1.1391 0.33001 0.99102 0.43143 0.71003 0.69124 -0.60362 0.47481 -0.14732 -0.031956 -0.13335 0.55748 -0.018544 0.14813 -0.51242 -0.38227 -0.50944 0.23402 0.2652 0.041079 0.078744 -0.094157 0.49833 0.52742 -0.31142 -0.60389 0.49623 0.3605 -0.73612 -0.80915 -0.029052 -0.35373 0.6835 -0.23912 0.23027 0.1647 0.39786 -0.58953 -0.059925 -0.5442 -0.42419 -0.10591 -0.70182 -0.57264 0.050472 -0.75873 0.32798 0.011126 -1.1934 -0.26951 0.33569 -0.32706 0.35012 -0.074918 0.45293 -0.6001 -0.51244 -0.13928 -0.010226 -0.7471 0.34818 -0.63887 0.13756 0.70642 -0.14005 0.24207 0.073757 -0.43534 0.012706 0.39155 -0.71259 0.17591 0.19655 -0.36387 -0.11069 0.11597 -0.23157 -0.16233 -0.18987 0.16679 0.040982 -0.5084 0.66665 0.44475 -0.045785 0.35518 -0.10596 0.46075 -0.23551 -0.045391 0.71677 0.71175 -0.18041 -0.054873 0.19737 0.15432 0.32393 -0.90666 -0.43972 -0.24206 -1.0167 1.2665 0.71471 0.19766 -0.10861 0.17863 -0.11528 0.33448 -0.17097 -0.33041 0.10358 -0.61441 0.095799 -0.61955 0.19431 -0.34799 0.33168 -0.71948 -0.45004 0.4362 0.36251 0.25514 0.28117 0.73511 0.32488 -0.14392 -0.083333 -0.053761 -0.35058 -0.46947 -0.025017 -0.27288 0.23635 0.68641 -0.73272 0.37822 0.27061 0.093637 -0.031587 0.65094 0.62267 0.22094 0.30266 0.021183 0.22674 -0.15383 0.7442 -0.26788 -0.58839 0.21022 -0.1358 -0.048289 -0.029105 0.037496 -0.26245 -0.58647 -0.25078 -0.28051 0.34919 0.089512 0.25887 -0.10753 -0.041349 -0.14668 -0.32282 -0.23139 0.43487 -0.28647 -0.83087 0.67895 -0.2602 -0.33015 0.18851 0.10099 0.57758 -0.51082 0.023601 0.43826 -0.2028 0.48388 0.72859 -0.19089 -0.0083986 0.0018781 -0.43671 -0.86868 -0.0020442 -0.27754 -0.097895 -0.093399 -0.26137 0.44439 -0.25537 -0.44033 0.11686 -0.48459 0.51418 -0.66869 0.74664 0.89156 0.33672 -0.25676 -0.49307 -0.43447 -0.42864 0.12482 0.0092266 -0.15463 0.14845 0.4376 -0.28582 0.097491 0.013613 0.22032 0.34455 -0.082438 -0.35244 -0.29528 -0.11153 0.083749 0.72716 -0.91979 -0.47134 -0.25886 -0.30974 0.51338 0.75253 -0.44137 -0.71277 0.18387 -0.32215 -0.39741 0.24374 0.0018287 -0.18014 0.047792 0.10845 0.30502 0.085692 0.079385 -0.32572 -0.028546 -0.14621 -0.10905 -0.078188 -0.05939 0.14234 -0.57582 0.79307 0.11848 0.070299 1.2444 -0.6832 0.45659 -0.85222 0.5667 0.4211 -0.039476 0.76419 -0.33373 0.08449
affiliations -0.044882 -0.28235 0.98772 -0.44823 0.15564 0.14235 0.0030749 0.76505 0.36995 -1.2224 0.38246 -0.41804 -0.20136 -0.021354 0.47284 0.29046 -0.095587 -1.1194 -0.46028 0.33012 0.41363 -0.090512 0.49809 0.25368 0.5013 -0.10656 0.53757 -0.043788 0.21172 -0.0059169 0.82488 0.77515 -0.034742 0.0040682 -0.56598 0.32943 0.1014 -0.15717 0.39526 1.0904 0.37092 -0.1801 0.74226 0.72279 0.11518 -0.41655 0.76691 0.042211 0.38042 0.20504 0.34155 0.13605 -0.41767 -0.52063 -0.74802 -0.52748 -0.47556 0.31687 -0.14249 0.55986 -0.62615 -0.31467 0.13593 -0.024434 -0.26403 0.4645 0.23803 -0.2376 -0.3875 -0.5832 -0.44187 -0.26107 -0.52012 0.43079 0.48417 0.22918 -0.21285 -0.64443 -0.090366 -0.53075 -1.0262 -0.20998 -0.047326 -0.35768 -0.65561 0.72522 -0.031753 -0.39447 -0.47685 -0.16622 0.38017 0.37152 -0.12701 -0.65755 -0.26662 0.11109 -0.4446 0.43017 -0.39152 0.12547 -0.7579 -0.26734 0.28502 -0.46886 -0.33054 -0.048516 -0.11103 -0.2203 0.03008 -0.83132 -0.03339 0.79586 -0.59128 -1.1111 0.36855 0.060924 0.029316 -0.42169 0.072771 0.19783 -0.39574 -0.059153 0.71487 0.24779 0.42092 -0.18345 0.56149 0.045853 0.21347 0.16944 -0.51158 -0.35896 -0.52062 1.5695 0.03648 0.28444 -0.3731 -0.0098818 -0.19379 -0.11014 1.3861 0.092175 0.31444 0.17726 -0.27127 0.63993 0.12255 0.4971 -0.35471 -0.14262 -0.13128 -0.32359 -0.42281 1.5165 -0.118 0.23644 -1.1291 -0.14758 0.60584 -0.41137 0.30444 -0.56287 0.61692 0.021859 0.28862 -0.11075 -0.78185 -0.36187 -0.41635 -0.49275 -0.21192 -0.013022 0.27947 0.43715 0.20478 0.12355 0.071014 -0.095247 -0.31973 0.18598 0.67639 -0.12241 -0.41914 0.07653 -0.065531 0.21849 0.16009 -0.91415 0.13483 -0.070025 -0.38253 -0.29515 0.25344 -0.1055 0.18041 -0.43478 0.49678 0.41238 -0.059167 -0.065845 -0.5733 0.955 -0.64854 -0.60659 -0.52352 0.27672 0.69972 -0.10669 0.10469 -0.51071 -0.37946 -0.020514 -0.2348 1.2802 -0.72118 0.10967 0.45915 -0.8455 0.058132 0.19443 -0.59868 -0.10637 -0.34055 0.096145 -0.38687 0.39977 0.29278 -0.51168 -0.088367 -0.49636 0.25002 -0.46828 -0.19208 0.33942 -0.58343 0.7272 -0.57799 -0.10817 0.77669 0.094254 -0.13793 -0.5251 0.28765 0.27035 -0.4624 0.69631 -0.45571 0.6624 0.22626 0.0017703 0.64331 0.10124 -0.21874 0.13356 -0.10776 -0.38521 0.11134 -0.4067 0.15407 0.41629 -0.75936 -0.39337 0.38262 0.061367 -0.23881 0.34868 -0.90188 0.0055679 0.27207 0.64038 -0.36899 -0.45132 0.90084 0.71209 -0.041655 -0.14479 0.082521 0.090038 0.076543 -0.048311 0.41781 -0.12303 0.19808 0.060069 0.18442 -0.50198 -0.67046 0.24011 -0.28408 0.72881 0.94797 -0.39329 0.013063 -0.72413 -0.14313 0.29722 -0.15268 0.60035 0.34413 -0.23521
aircraft 0.52504 -0.42919 0.10394 -0.046954 -0.59099 -0.065243 -0.60815 0.2519 -0.49151 -1.8926 0.72895 -0.41029 0.56122 0.37925 -0.31597 -0.28631 0.055063 -0.66621 -0.0028436 0.91477 -0.29972 -0.031708 0.12464 0.26526 -0.20035 -0.40347 0.024234 -0.17845 -0.67263 -0.27841 -0.3783 -0.38091 -0.11172 0.40114 -0.88962 -0.10736 -0.071801 -0.37288 0.52515 -0.30811 0.051333 0.28593 0.18631 0.22687 0.5114 0.16364 -0.13525 -0.050052 0.68191 0.15306 0.69808 -0.45462 -0.19092 0.20058 -0.67314 -0.77234 -0.16127 0.41155 0.22775 -0.15835 0.17148 0.056477 -0.056367 -1.3409 -0.45573 0.65434 0.62712 -0.19771 0.70148 0.66166 -0.39788 -0.1027 -0.4366 0.064174 0.62043 -0.050795 -0.31029 0.028237 0.51769 0.54174 -0.25309 0.20125 -0.08669 0.80299 0.16549 -0.45359 -0.28194 0.37977 -0.97357 -1.0344 -0.47302 0.21901 0.40348 -0.36111 -1.0022 0.38271 -0.46061 0.043533 -0.5717 0.16708 -0.16548 0.31071 0.20589 0.34148 0.34506 0.14359 -0.38098 0.47545 -0.1893 -0.54011 -0.49467 0.76844 -0.54511 -0.096713 0.64533 -0.019165 -0.14545 -0.16285 0.63659 -0.33487 -0.43406 0.083209 -0.32284 -0.11024 -0.07039 0.61547 -0.1168 0.41681 0.060546 -0.75737 0.022916 -0.80021 -0.12522 -0.080383 -0.18441 1.3034 -0.39329 0.68555 -0.30655 -0.15267 0.9746 -0.75457 -0.88941 -0.40169 -0.3336 0.084505 0.87431 -0.010467 0.83562 -0.11679 -0.13587 0.07861 -1.0824 0.25867 0.077194 -0.37059 0.64486 -0.1655 0.14564 -0.34909 0.15406 0.62786 -0.20253 -0.17355 1.0533 0.090603 -0.27748 -0.24561 -0.08995 -0.52653 -0.25635 0.19525 0.42958 -0.20261 0.95932 -0.60341 -0.59816 0.15309 -0.6919 -0.05864 -0.40672 0.2112 -0.10899 0.14928 0.55377 -0.31258 -0.1308 0.23372 -0.38573 0.3942 -0.37635 -0.53434 -0.07164 -0.044381 -0.49292 -0.59163 0.45081 -0.0083235 0.1841 -0.72216 -0.23069 -0.21599 0.19836 -0.5281 -0.39023 -0.40885 0.118 -0.0431 0.23001 -0.04889 -0.082313 0.69852 0.37957 -0.64666 -0.51531 -0.0088586 -0.3319 -0.67648 -0.21132 0.37698 0.47517 -0.3441 0.54224 -0.87361 0.40181 -0.16887 -0.77705 0.1125 -0.012354 -0.43126 0.46929 -0.084302 0.082992 0.2559 0.18204 0.1207 0.47025 0.60434 0.2504 -0.90738 -0.51568 0.39639 0.25586 -0.33378 -1.1854 0.30762 -0.051906 0.41244 0.089489 0.65007 -0.1373 0.23656 0.094417 0.27386 -0.29345 -1.0153 -0.17436 0.40396 0.063513 0.10657 0.19292 -0.18699 0.9607 -0.88663 0.32335 0.16221 -0.15163 -0.4673 0.502 0.49784 0.9772 -0.83044 1.0112 -0.24467 -0.84802 0.23375 0.36273 -0.16381 0.62872 -0.41379 -0.48214 0.072748 -0.22074 0.093802 0.44935 0.16912 0.15717 0.1927 0.0028034 0.65794 0.10116 -0.36193 -0.51703 -0.28028 -0.44735 0.57335 0.87441 -0.14807 -0.87742 0.13621
fighter 0.75443 -0.94311 -0.45043 0.14986 0.074033 0.029683 0.23015 -0.058922 -0.30861 -1.6102 0.75048 -1.033 0.041837 0.51849 0.84953 0.36746 0.49201 -1.3851 0.70949 0.4309 -0.47352 -0.2623 0.34596 0.29119 0.30365 0.03831 0.15885 -0.38981 0.49936 0.22776 -0.47845 0.29698 -0.49354 -0.13407 -0.5378 0.13435 -0.27418 0.060763 0.11475 0.2433 0.66048 -0.47061 -0.27936 -0.14749 0.44508 0.14609 -0.097736 0.016958 -0.17691 -0.0295 0.17935 -0.5164 0.25259 -0.047652 -0.19748 0.26809 0.54797 -0.23907 -0.21791 1.3104 0.30485 -0.020253 -0.3684 -0.69392 -0.39017 -0.27769 0.35907 -0.16205 -0.15996 -0.44962 0.42314 0.30876 -0.11736 0.22496 -0.18209 0.25255 -0.075576 0.37094 -0.30815 1.4342 -0.27185 -0.21732 0.76694 0.15573 -0.60916 0.6012 -0.088589 0.054452 -0.95442 0.23205 0.96683 -0.070731 0.3358 0.10773 0.15552 0.1116 -0.30537 0.39488 0.2697 -0.47144 0.05459 -0.98634 -0.28973 0.10634 -0.075345 0.085408 -0.65658 0.13046 -1.1673 0.10257 0.05266 0.24985 -0.05005 0.60771 0.51222 -0.1967 -0.0091732 -0.049765 0.027283 -0.84736 -0.9004 0.62893 -0.11677 0.47897 -0.15292 -0.054267 -0.068923 -0.26526 -0.013214 -0.047858 -0.49036 0.092259 0.94207 -0.58259 -0.14663 0.083146 -0.009404 -0.71549 -0.22812 -0.80768 0.76497 0.48021 -0.59173 -0.1018 0.65582 -0.4938 0.24794 0.21274 1.0136 -0.91232 -0.21273 -0.30432 -0.050243 -0.81423 0.045025 -0.51229 0.10732 -0.097272 -0.094971 -0.0053135 0.45296 -0.26322 -0.20053 0.17357 0.34474 -0.50848 -0.30917 0.65285 -0.63906 0.42233 -0.77268 -0.16077 0.99943 -0.1301 0.32127 0.32776 -0.62304 0.52143 -0.39971 0.43454 -0.011677 -0.4028 -0.01983 0.27943 0.4754 -0.1521 0.01488 -0.79473 -0.43032 -0.10822 0.2476 0.11224 0.033983 -1.0062 0.38352 -0.13508 -0.040116 0.11961 -0.80879 -0.42099 -0.031902 -0.40505 1.0897 -0.27464 -0.35618 0.01307 0.2357 0.53747 0.12701 0.30055 -0.35461 0.6687 -0.74353 0.82088 -0.4197 -0.56179 0.32511 -0.8114 0.69233 -0.2023 0.080408 0.76209 0.12892 -0.1549 -0.34763 0.23455 -1.0806 -0.13112 0.14838 -0.81042 -0.058819 -0.3189 0.39407 -0.19166 -0.41675 -0.032941 0.24435 0.46012 0.79042 0.35621 -0.48191 0.1442 0.84148 -0.067976 -0.16035 -0.56058 -0.045733 -0.21768 0.37892 0.11861 0.3468 -0.39958 0.082487 0.25708 -0.10011 -0.67825 0.28985 -0.34062 0.16876 0.016767 0.34763 -0.2636 -0.62839 -0.45495 0.20314 0.44203 -0.35544 -0.20805 -0.59374 0.18604 1.2011 0.40475 0.050608 0.90637 -0.54229 -0.37828 -0.21143 0.23228 0.046109 0.2861 -0.30277 -0.97528 -0.1147 -0.028628 0.41448 0.19418 -1.2874 -0.051865 -0.25474 -0.038981 0.90961 -0.19529 0.23186 0.50824 -0.092081 0.21292 0.45204 -0.04337 0.43018 0.27289
helicopter 0.46854 -0.25245 0.47271 0.20203 0.074184 0.23262 -0.36612 0.32796 0.43298 -1.9211 -0.21263 0.42219 -0.321 0.19927 0.018502 -0.32986 -0.11213 -0.11656 -0.21209 -0.20673 0.17915 -0.23211 -0.29625 -0.26913 0.43443 0.012837 -0.22126 0.32893 -0.3153 -0.38642 -0.12699 0.31558 -0.59509 0.44068 -0.05864 0.069066 0.079206 -0.05771 0.036829 0.35032 0.61263 0.053584 0.080161 0.33398 0.062474 0.44039 -0.019571 -0.74417 0.61538 0.39523 -0.10029 -0.24961 -0.063223 0.1303 -0.69944 0.24599 0.36513 -0.1506 0.35635 -0.061514 -0.49236 0.22718 0.023861 0.39205 0.55453 0.75439 0.039218 -0.27386 -0.40874 -0.15921 0.068202 -0.29994 -0.56492 0.29595 -0.035586 -0.70733 0.29065 0.041294 -0.28198 0.38803 0.27713 0.1099 0.088808 0.07819 0.97169 0.21922 0.33862 -1.5378 -0.29221 0.11417 0.30851 0.3532 -0.14055 -0.57242 -0.50964 0.71234 -0.51607 -0.26786 0.055734 0.40217 -0.27346 0.4049 -0.22659 -0.43462 -0.29345 0.19971 -0.34662 -0.42253 -0.18775 -0.062381 -0.26274 0.25044 0.25514 0.36145 0.80794 -0.27114 -0.15348 0.42652 0.10786 -0.39028 -0.11241 -0.13997 0.54485 -0.017521 0.62882 -0.30309 -0.21637 -0.52087 -0.21535 -0.044069 0.39334 -0.20637 -0.32019 -0.46176 -0.35642 -0.39025 -0.32005 -0.16827 0.025047 0.38739 0.18728 0.49852 0.070235 0.30786 0.40945 0.24105 -0.031487 0.59081 0.88615 -0.27807 -0.43911 0.59455 -0.3641 0.4759 0.30821 -0.16911 0.46164 0.9571 0.033488 -0.04635 -0.60418 -0.03023 -0.023471 -0.68933 -0.48928 0.28788 -0.66508 -0.11017 0.58424 0.50155 0.033216 0.093078 0.066213 -0.090074 1.2833 0.29642 0.34152 -0.067059 0.43147 0.1123 -0.032424 0.36515 -0.13723 -0.11479 0.1007 -0.0050775 -0.30624 0.19286 0.28155 -0.034941 0.18723 0.50397 0.60113 -0.18493 -0.7422 -1.1473 0.26945 -0.13347 -0.14014 -0.24024 -0.40322 0.19639 0.012889 -0.55126 0.062493 0.19419 -0.065327 -0.2092 1.2325 0.42494 0.17114 0.24436 0.0012899 0.40945 0.53925 0.31463 0.18205 -1.0895 -0.1888 -0.044468 0.32187 -0.32651 0.30972 -0.30719 0.10267 -0.18456 -0.54722 0.66796 -0.44454 0.30082 1.0176 0.11869 0.12 -0.076157 0.55915 0.49695 -0.50181 0.85073 -0.054753 0.31797 -0.33876 0.28239 0.25631 -0.80743 -0.37062 0.29301 -0.3147 0.39665 -0.0010568 0.010411 0.31648 0.69479 -0.19124 0.37313 0.18396 -0.28362 0.31454 -0.22503 -0.041924 -0.19156 0.019512 -0.61741 0.5125 -0.60085 0.62442 -0.094708 -0.12735 0.0068548 -0.053383 0.52715 -0.033295 0.22304 0.24315 0.15301 0.2009 0.2106 0.70654 -0.29138 0.23856 -0.26949 -0.43403 -0.26149 0.056442 0.46602 0.68951 0.16795 -0.23048 0.14898 -0.19115 -0.2198 0.10877 0.19525 -0.26124 0.067014 -0.14887 -0.32668 -0.17246 0.3409 0.4416 -0.10101
alma 0.23578 -0.64516 0.42623 0.32804 0.0175 0.24247 -0.29751 0.32844 -0.13061 -0.68616 -0.045764 0.021604 -0.2627 -0.75116 -0.18232 -0.29225 -0.30707 -0.14546 0.2727 -0.079131 0.28873 -0.42779 0.21429 -0.051586 0.76451 0.71196 -0.40749 0.13646 -0.17335 -0.19826 0.72476 -0.26379 0.1105 0.23164 -0.092069 0.26201 0.28958 -0.21638 0.83748 0.53723 0.38256 -0.095612 -0.080168 1.0327 0.20286 -0.71268 0.082844 0.26947 -0.26034 0.22124 0.16482 -0.42453 0.4008 -0.36672 0.34987 0.3021 0.27211 0.36641 -0.46145 -0.18213 0.59819 0.17257 0.031054 0.58309 0.12589 -0.37109 -0.0089946 -0.43782 0.47511 0.12847 -0.13914 -0.57208 -0.41869 0.47472 -0.254 -0.055052 -0.12485 -0.44207 -0.044914 -0.28192 -0.49013 0.37882 0.020751 0.27055 -0.10869 -0.85914 -0.48469 -0.5989 -0.61751 0.012349 -0.14414 0.48881 -0.41297 0.060528 -0.82309 0.40986 0.041897 -0.18193 -0.09714 0.41045 0.0011931 -0.43225 0.1206 -0.23888 -0.32015 -0.06991 0.15378 -0.49149 0.41354 -0.089498 -0.2995 0.33347 0.12175 -0.28197 0.69038 0.28509 0.01429 0.48252 0.42292 -0.41314 -0.088138 -0.095766 0.28535 0.1897 0.83001 -0.095609 0.17025 0.80264 0.088491 0.38944 -0.066283 0.20724 0.37412 -0.0092106 0.6282 -0.55069 -0.12662 -0.092357 0.96768 -0.20655 0.97414 0.087589 0.093488 -0.31265 0.50376 0.32972 0.091601 -0.66559 0.2771 0.17295 0.24131 0.36868 0.092162 -0.56528 -0.032392 -0.03613 -0.34719 -0.68292 -0.18305 0.34045 -0.070367 -0.26219 -0.33786 0.18458 0.44087 0.57847 0.50754 0.4477 0.52494 0.55703 0.11856 0.47179 -0.054448 -0.3864 -0.011272 -0.18282 -0.27481 -0.17203 -0.59231 0.7537 0.082618 0.16255 -0.50205 -0.073912 0.35215 -0.015643 -0.28741 -0.21864 0.082451 0.28264 0.094581 0.12007 -0.30545 -0.1579 -0.36419 -0.22849 -0.88088 0.026666 -0.65836 0.64644 0.36881 0.15807 0.42753 0.7281 0.484 -0.60649 0.29915 -0.026298 -0.098911 -0.30445 -0.63417 0.12794 -0.1715 0.17069 -0.11671 0.22903 -0.60336 -1.3362 0.15553 -0.36771 0.097939 -0.2507 0.11255 -0.2511 0.6606 0.61469 0.12406 -0.25268 0.49998 0.038661 0.45701 -0.13848 0.35863 0.037265 0.40977 0.48387 0.0027889 -0.032279 0.33268 -0.24593 -0.11863 0.41151 0.087797 -0.079831 0.58839 -0.096649 0.013283 -0.32801 0.21595 0.74556 0.040813 -0.16733 -0.055674 -0.46146 -0.075182 -0.39849 0.7327 0.59813 0.065632 0.003403 0.16545 -0.14982 0.31138 0.40012 -0.22903 -0.26203 0.30332 -0.30871 -0.28562 0.36443 -0.5683 0.60885 0.029203 -0.46233 0.022857 -0.077264 0.1754 -0.56773 0.17996 -0.23111 0.061122 0.36132 -0.0027943 -0.49288 0.32847 0.022033 -0.58807 0.3129 0.1011 0.33324 0.48695 0.93305 0.37211 -0.03429 0.57862 -0.13092 0.61223 0.25092 -0.62305 -0.18912
mater 0.30309 -0.97075 0.36487 0.16349 0.38429 0.38317 0.20177 0.19915 0.50616 -1.9443 0.15853 0.052567 -0.40335 0.27646 0.4814 -0.34931 0.29644 -0.32023 -0.13632 -0.54206 -0.071995 0.34033 -0.13265 0.51725 0.29674 0.13627 -0.15171 0.028815 -0.035809 -0.10852 0.36249 -0.29736 -0.030318 0.77499 -0.44572 0.67294 -0.1036 0.34474 0.81039 1.1001 0.19758 -0.27723 -0.020083 0.78315 0.13858 -0.31996 0.48243 0.23447 -0.092183 -0.37772 0.58847 -0.74261 0.1793 -0.13404 0.017461 0.59655 -0.38597 0.18241 -0.25646 -0.030599 0.62144 0.97144 0.02959 -0.079088 -0.52819 -0.18729 -0.43664 -0.6411 0.1024 0.2071 -0.47906 0.0024988 -0.25696 0.37126 -0.68627 0.56918 -0.098575 0.12676 -0.71474 -0.76085 0.1132 -0.13285 0.22873 0.26068 0.53956 -0.31296 0.042886 -1.2994 -0.89828 -0.40178 -0.30294 -0.05312 -0.42591 -0.084824 -0.4167 0.46875 -0.13293 -0.39684 0.10163 0.14495 0.17559 0.33338 -0.88708 -0.41843 0.0063182 -0.14874 -0.28098 -0.18768 -0.29117 0.10098 0.69621 0.5608 0.46164 -0.26796 0.52152 0.58803 0.11137 -0.10035 -0.084184 -0.43539 0.59113 -0.33661 1.4441 -0.00052145 0.34156 0.065598 0.11393 0.79298 -0.80061 0.60017 0.43227 0.56125 -0.38579 0.13318 -0.32654 0.15692 -0.24006 -0.060019 0.016711 0.14243 0.70411 0.16491 0.32011 0.4407 0.17071 0.49826 -0.34136 0.078491 0.4716 0.40808 0.27787 0.43322 0.2754 -0.49963 0.58328 -0.5227 -0.54027 -0.77405 -0.50321 -0.059055 -0.8188 -0.029986 -0.28811 0.10384 0.68691 0.29019 0.33267 0.21787 0.43603 0.38285 0.1755 -0.10751 0.18206 -0.21397 0.65401 0.15191 0.074492 0.90434 -0.20115 0.0096948 -0.0025199 0.35371 -0.162 0.5175 -0.26326 -0.54887 -0.022298 0.40073 -0.059895 -0.00045989 -0.27279 -0.050383 0.37055 -0.19857 -0.47012 -1.0886 -0.21452 0.28095 -0.51211 -0.5111 -0.26894 0.42198 0.29038 -0.62663 0.52321 -0.022602 -0.09033 -0.35595 0.44879 0.35897 -0.46786 0.57602 0.29979 0.69031 0.34215 0.057075 0.22015 -0.10808 0.34142 -0.59596 0.015304 -0.31075 -0.077425 -0.64041 0.47109 0.001663 -0.092902 0.28656 -0.15373 -0.36086 -0.26611 0.1567 -0.42289 0.084878 0.12134 0.24425 0.25213 0.34892 -0.28037 -0.24759 0.034062 0.29706 -0.31818 -0.49573 0.37122 -0.42063 0.0045847 0.080928 0.29478 0.001473 -0.25971 0.29813 -0.67226 -0.17342 0.082928 -0.45665 -0.079429 0.31477 0.35139 -0.82468 0.38682 -0.12181 0.35751 0.24839 0.32638 0.29061 -0.30328 0.43796 -0.35731 0.10546 -0.036841 0.62562 -0.11997 -0.30822 0.50751 -0.56644 -0.22281 0.012675 -0.090006 -0.24047 0.38329 -0.61956 0.2714 -0.10666 0.087616 0.24993 -0.14553 0.25183 -0.21002 -0.10243 0.29719 -0.52123 0.40644 -0.3442 0.6488 -0.14651 0.1265 0.50809 0.1082 -0.48591
anthem -0.00388 -0.1358 0.56647 0.027349 0.18023 -0.049901 0.16638 0.42909 0.23492 -1.7047 -0.42185 0.28407 -0.21956 -0.055285 0.31551 0.26137 0.50369 -0.63184 -0.53789 -0.055435 -0.33122 0.39025 0.68845 0.11242 -0.093939 -0.12057 0.22116 0.54413 0.43239 0.23236 0.56135 0.34626 0.11985 0.4684 -0.82823 0.29713 0.032029 -0.69971 0.22084 0.46043 0.42716 0.11312 0.56088 0.20241 0.054503 -0.0019972 0.747 -0.15313 -0.049208 -0.28057 -0.1966 0.21422 -0.68206 0.13884 -0.010556 0.010572 0.11498 0.051433 0.169 -0.00022364 -0.25661 0.56622 -0.65719 0.57062 -0.16752 0.49796 0.32005 -0.19484 -0.095615 -0.041303 -0.27977 -0.12236 -0.025515 -0.04413 -0.52033 -0.69438 -0.1086 0.12057 -0.047794 -0.44043 0.035549 0.20549 0.1179 0.07127 0.61363 0.13793 -0.0059452 -2.0807 -0.13059 0.37075 0.028761 0.30667 -0.016349 0.030248 -0.78392 0.2386 -0.14831 0.27167 -0.4506 -0.46758 0.49269 -0.84881 0.21944 -0.16798 -0.15807 0.22375 -0.11961 -0.3817 0.49081 -0.25857 0.56241 -0.13876 0.18218 -0.068686 -0.21255 0.026772 0.42248 -0.055273 -0.30137 0.059301 -0.093473 0.16535 0.072286 -0.69436 0.52262 0.19267 0.29752 0.69346 0.024896 -0.14879 0.10976 -0.50176 0.010492 0.28349 0.093651 -0.17322 0.33343 0.043896 0.32216 -0.29278 0.51555 0.32693 0.15256 0.33521 -0.28789 0.005364 0.25943 0.10691 0.54683 -0.63021 -0.96252 0.28504 -0.72225 0.21723 0.13838 0.61072 0.10812 -0.49344 -0.19742 0.39801 -0.085882 0.47861 0.29388 0.022077 -0.25978 0.59843 0.034341 0.35262 -0.47863 -0.32904 -0.64557 -0.038066 -0.12865 -0.64445 0.57851 -0.18004 0.1231 0.11474 -0.10753 0.53679 -0.45532 0.17016 0.31108 -0.43567 0.0049165 0.4463 -0.66277 0.081005 0.21241 -0.10319 -0.20735 0.14985 0.78479 -0.63746 -0.18003 -0.069943 -0.57872 -0.64131 0.21966 0.66496 0.063101 0.32158 0.56697 0.032385 -0.5131 -0.045316 0.2753 -0.2345 0.079043 -0.11681 -0.23727 0.37345 0.095693 0.011418 -0.14337 0.36253 1.1091 -1.3151 -0.18496 0.40977 -0.31893 0.072481 -0.22351 -0.3473 0.38448 -0.099089 -0.16017 0.40035 -0.10608 -0.3131 0.46443 0.57791 0.34929 -0.48588 0.082258 0.52894 0.30685 -0.15432 0.36539 -0.14568 -0.52293 -0.19537 0.18813 -0.27234 -0.034736 -0.27792 0.55996 -0.059391 -0.0019392 -0.034896 -0.48536 -0.43328 -0.060597 -0.26784 -0.12225 -0.75553 0.17425 0.46036 -0.011305 0.067026 0.13086 0.34604 -0.047874 -0.35969 0.038279 0.51788 -0.031368 0.073538 -0.22965 0.47944 0.039945 0.53785 -0.52419 -0.16256 0.79198 -0.026604 -0.20214 -0.22319 0.12543 -0.67563 0.2066 -0.65547 -0.16793 -0.12668 -0.97147 0.17036 -0.33224 0.20653 0.069668 0.36367 0.27413 -0.30401 -0.050053 0.2659 -0.3765 0.25968 0.11064 -0.48971 -0.2374 0.23784
architect 0.51062 -0.56114 0.43571 -0.33823 0.14157 0.20052 0.010325 0.84687 -0.10279 -1.5118 -0.17327 -0.053309 -0.55339 0.17723 0.6926 0.50118 0.086813 0.46474 0.069464 0.23429 0.66 -0.32756 -0.16735 0.3328 -0.11569 -0.43034 0.28285 0.43243 0.66143 0.12792 0.005615 -0.057703 -0.08657 0.083784 -0.10529 -0.0043694 -0.0044874 -0.28977 -0.27858 0.59109 -0.012115 -0.52881 -0.32053 -0.16654 -0.64753 -0.26153 -0.13039 -1.2967 0.41654 0.65027 0.12553 0.1218 -0.13944 -0.038257 -0.24522 0.0415 0.27931 -0.080832 0.21376 -0.92502 0.030753 -0.02365 -0.084565 0.82404 0.61971 0.43402 0.07679 -0.89017 -0.51951 0.19248 -0.1716 -0.036383 -0.42389 0.20505 0.12588 0.159 -0.50601 -0.65736 -0.27222 -0.3992 -0.24152 0.47208 0.90152 -0.069966 -0.11906 -0.20257 -0.071541 -1.4007 -0.085871 -0.4335 0.20514 0.48793 0.053089 0.53722 -0.1928 -0.40361 -0.22969 0.20264 -0.39365 -0.18707 -0.032823 -0.25293 -0.10069 0.44624 0.52096 0.1395 -0.15889 0.4302 0.82418 -0.23078 0.22509 0.44718 0.49763 0.18316 0.77093 0.098435 0.0027658 0.64564 0.35792 -0.14998 0.15821 0.51402 -0.48306 -0.21831 0.86659 -0.28417 -0.37634 0.16464 -0.66674 0.3004 -0.14169 -0.31941 0.069495 0.02014 -0.28601 -0.015663 0.12072 -0.14869 0.48534 -0.8841 1.463 0.45032 -0.37874 -0.76577 -0.16964 0.36744 0.1243 -0.0026894 0.11383 -0.1894 0.45358 0.39118 -0.038522 0.22227 0.7607 -0.28792 -0.5437 -0.062314 0.12584 0.30859 -0.45552 0.34803 -0.17077 0.15891 0.16557 0.18533 0.32394 -0.7263 0.17751 0.11433 -0.32824 0.067476 0.121 -0.39788 -0.48728 -0.087954 -0.48019 0.024455 -0.20229 -0.13737 0.083621 -0.21757 -0.29878 0.2949 0.44071 0.005454 0.80347 -0.023889 0.18451 -0.16381 -0.3096 -0.05373 -0.40324 0.10853 0.13123 -0.51036 0.11123 0.51261 -0.087874 -0.11639 -0.052773 0.20544 0.22077 -0.52407 -0.10778 0.22621 -0.05341 -0.28095 0.0087997 0.040194 -0.428 -0.23236 0.25929 0.50692 0.21533 0.13374 0.80752 -1.1641 0.60102 -0.37065 0.018011 0.95022 0.11705 0.04923 0.067753 -0.30101 -0.0031039 0.15171 -0.39758 -0.35763 -0.23209 0.21002 -0.36881 -0.044774 0.15113 -0.17438 -0.060566 -0.21069 0.03884 -0.36648 0.40873 -0.34424 0.18571 -0.028918 0.063774 0.37955 0.49466 0.41733 -0.39087 -0.015609 -0.22714 0.14345 -0.093209 0.026646 0.095256 -1.5085 0.039365 -0.56932 -0.13727 0.1551 0.20854 0.13296 0.4655 -0.10258 0.11134 -0.072349 -0.17867 -0.15665 0.20235 0.322 -0.57695 0.15644 0.13766 0.16599 0.15159 -0.30345 -0.25721 0.12413 -0.18198 -0.11207 0.57276 0.15692 -0.12736 0.21361 0.26167 -0.5211 -0.10708 0.1003 -0.092266 0.034127 0.49567 -0.4249 -0.19884 -0.43376 0.26085 0.14331 -0.18628 0.17373 0.04126 -0.42599
architectural 0.34686 0.18028 0.54296 0.19461 -0.27696 0.063106 0.24477 0.79835 -0.41235 -1.6712 0.013981 0.16885 -0.30009 0.40892 1.1732 0.24099 0.096081 0.40565 0.098713 0.14581 0.12461 0.12946 -0.14133 -0.34914 0.21863 -0.68862 0.42398 -0.097803 0.050054 0.18517 0.0032608 0.7632 -0.18258 0.39187 -0.35598 -0.50066 -0.29505 -0.036038 -0.2121 0.29558 -0.43017 0.24836 0.65648 -0.28928 -0.36445 -0.099877 -0.38643 -1.0413 0.3894 0.5551 -0.30627 -0.61302 -0.12006 -0.51776 -0.67757 0.071377 0.26099 0.38028 0.50096 0.15202 0.09277 -0.2584 -0.096047 0.55961 -0.065514 -0.096774 0.061557 -0.76147 0.10734 0.59444 -0.14951 -0.088571 -0.52542 -0.098493 0.56918 0.33978 -0.16564 -0.25247 -0.29775 -0.52211 0.32719 0.53442 0.86763 0.086112 -0.12686 0.33144 -0.21319 -1.54 -0.034644 -0.36815 0.08525 0.23304 0.36704 0.079265 0.98764 -0.018636 -0.059178 0.36592 -0.15694 0.016563 0.079036 0.33634 0.1115 0.11204 0.33532 0.023252 -0.31941 -0.03639 -0.031347 -0.080071 0.023465 0.53227 0.80535 -0.025311 0.62229 0.58172 -0.23643 0.1662 0.51927 -0.85042 0.10824 0.23124 -0.10641 0.058122 0.90978 0.27098 -0.35873 0.40191 -0.1926 0.97953 -0.13684 -0.069142 0.010511 -0.12377 -0.68815 -0.00096792 -0.35153 0.56565 0.33126 -0.25871 1.2613 0.030307 -0.60606 -0.62593 -0.20009 0.12365 -0.33724 0.088463 0.69528 0.48668 0.3559 0.16605 -0.4564 0.41039 0.64583 -0.10353 -0.099966 0.14312 1.0674 0.61197 -0.19871 0.066525 -1.0199 0.19012 0.36996 -0.22644 0.11813 -1.0264 0.22325 0.23332 -0.68919 -0.28655 0.56694 0.054289 0.022804 -0.19998 0.0074982 -0.04802 0.12717 0.11023 0.28793 0.35914 0.25791 0.40199 0.334 -0.10647 0.64974 -0.3375 0.62936 -0.37054 0.31323 -0.19979 0.13346 0.29609 0.20786 -0.36204 0.028741 -0.13532 0.34539 0.53591 -0.058506 0.57643 0.40285 -0.16277 -0.2133 0.34362 -0.12721 -0.057024 0.60678 0.16143 -0.19979 0.52741 0.11898 0.14845 -0.26682 0.29458 0.70172 -1.2282 0.44349 -0.30618 -0.016704 0.60023 0.034866 0.20803 -0.16426 -0.22197 -0.63104 0.64249 -0.122 -0.15533 0.40316 0.47263 -0.24825 -0.4435 0.23315 0.16879 -0.21515 0.081172 0.43839 -0.30672 0.2699 -0.28828 0.21868 -0.32413 -0.32089 0.53767 -0.16149 0.43135 0.35551 0.096538 0.050594 0.07549 -0.54893 0.089451 -0.19841 -0.71871 -0.18215 -0.25316 -0.43536 0.39141 -0.41917 0.12182 0.69394 0.18812 0.228 -0.37842 -0.27678 -0.45557 -0.18941 -0.011952 -0.88612 0.085804 0.33852 0.02566 0.26509 0.022125 -0.40492 0.16126 -0.49809 -0.010177 0.49121 -0.33287 0.00079269 0.3217 -0.39917 -0.71405 -0.26 -0.043695 -0.36153 -0.27538 -0.40262 -0.55945 -0.67831 0.14519 -0.38081 -0.52753 0.20058 0.091952 -0.30643 -0.27079
style 0.13643 -0.19482 0.34616 -0.4561 0.021746 0.19037 0.23969 0.51172 -0.42719 -1.9451 0.41805 0.086466 0.1853 0.09544 0.27918 -0.15293 0.26545 -1.4752 0.39196 1.1148 0.079492 0.2529 0.22628 -0.11706 0.2177 0.14452 0.10205 0.36483 -0.39127 -0.16438 -0.17142 0.061542 0.011256 -0.55275 -0.1821 0.18679 -0.4611 0.088958 0.31271 0.77761 -0.20053 0.0056016 -0.21916 0.48235 -0.10299 0.07495 0.54519 -0.27104 -0.10128 -0.19471 -0.80237 0.31055 -0.1893 0.17963 -0.17593 -0.43034 0.27995 0.15693 0.44476 -0.32867 -0.68339 0.2003 0.22062 -0.085669 -0.2172 0.27596 0.07437 -0.14862 -0.050144 -0.80423 0.048756 -0.47862 -0.46456 -0.16756 -0.23482 0.05054 -0.54838 0.25829 -0.1004 -0.27794 -0.32787 0.0067587 0.23185 0.1706 -0.21906 0.23959 0.10278 0.26807 -0.46093 0.30105 -0.42898 -0.28528 0.15398 -0.1661 -0.17208 0.57289 -0.11896 0.42097 -0.18631 0.16779 -0.38507 -0.15444 0.084842 0.43842 -0.17369 -0.031641 -0.25676 -0.094077 -0.67675 -0.90558 0.087726 0.27189 -0.068867 0.18869 -0.4944 -0.28089 -0.42777 0.19267 -0.29717 0.18343 -0.24921 0.84051 -0.24121 0.12223 0.24955 -0.28617 -0.10515 0.53471 0.092901 -0.28414 -0.24041 0.43143 0.19268 0.17458 -0.4291 -5.2763e-05 -0.096871 -0.14681 -0.13465 0.062084 0.62035 0.09087 -0.38992 -0.026441 -0.16491 0.01351 -0.3106 0.035525 -0.25554 0.065906 -0.51599 0.14919 0.25583 -0.19597 0.71417 0.50903 0.27642 -0.41227 0.16271 -0.253 0.15755 0.35646 0.084867 0.06571 0.47435 -0.27583 0.070203 0.14315 -0.68508 -0.28736 -0.21017 -0.5348 -0.17278 0.1711 0.58242 -0.086405 -0.25285 0.27377 -0.53775 0.49929 -0.14168 -0.37624 -0.69531 -0.2967 0.57602 0.40371 0.2781 -0.53211 -0.56508 0.29675 -0.37917 0.10519 -0.32603 -0.24923 -0.10329 -0.050305 -0.060138 0.37991 0.44418 -0.42456 -0.73699 0.83396 0.21901 -0.024474 -0.86553 -0.057482 -0.29481 0.53623 0.12154 -0.12026 0.21225 0.33565 0.11548 0.038171 0.27282 -0.19706 0.43003 -0.41228 0.31741 0.79904 0.28374 -0.35826 0.29862 -0.59701 0.37188 0.22377 -0.39318 0.15136 -0.06195 -0.69252 0.18371 0.50114 0.24457 0.51856 0.54475 0.29656 0.84866 0.08295 0.60632 -0.72509 -0.33467 0.029134 0.0097431 -0.48344 -0.052491 -0.011474 0.41884 0.39921 0.044979 -0.2341 -0.40675 -0.18195 0.18227 -0.37001 -0.1158 -0.90984 0.11447 0.19691 0.075512 -0.8304 -0.14111 -0.33873 -0.35192 0.34617 -0.20357 0.33832 -0.049133 0.27616 -1.0657 -0.052535 0.151 0.00887 -0.36606 0.44791 -0.2155 -0.15288 -0.40614 -0.51747 0.082035 -0.56118 -0.34935 0.085305 0.20465 -0.29354 0.035286 -0.026686 0.061716 0.78051 -0.62215 0.47622 0.1501 -0.41433 0.052718 0.017417 -0.20194 -0.49635 -0.2165 0.39939 -0.23903 0.026522
area -0.17621 -0.43375 0.29564 0.027187 0.59552 0.15424 -0.16457 -0.65722 -0.21796 -1.2247 0.32573 -0.16117 0.14698 0.13383 0.26841 0.25761 0.40129 -1.2181 0.33656 -0.096237 0.46414 -0.56315 -0.17186 0.036647 -0.57378 0.2151 -0.27563 0.45582 0.27396 0.56607 -0.0096569 -0.44635 -0.020212 0.028361 -0.1556 0.5651 0.20471 -0.52983 -0.47017 0.43212 -0.4685 -0.16609 -0.58183 -0.16665 0.30332 0.22341 0.41126 -0.072094 -0.90973 -0.23617 -0.44451 0.10918 0.46011 -0.26266 0.10432 -0.75232 0.88828 0.075394 -0.17057 -0.17787 -0.30686 0.18058 -0.0073137 -0.34065 0.33431 0.43881 -0.29381 0.16611 0.0060819 -0.45115 -0.533 -0.013905 0.051996 0.70081 0.44929 -0.86588 0.02024 0.069909 -0.2269 0.064814 0.41337 0.36336 -0.023317 0.30225 0.13391 -0.084705 0.37431 -0.2956 -0.33303 -0.64241 -0.25639 0.052822 0.12352 0.1415 0.11244 0.56746 0.20373 -0.069445 -0.23205 0.62344 0.30868 0.49825 -0.2468 -0.044762 0.051646 -1.3322 0.46378 -0.75733 -0.053543 0.06228 -0.077932 0.7751 0.19444 0.36366 -0.24317 0.22865 -0.094232 1.0161 -0.046188 -0.20039 -0.15064 -0.44492 0.12724 0.18583 -0.18322 -0.39038 -0.29399 -0.14418 -0.65702 0.22845 0.17328 0.36642 0.75921 0.66802 0.18792 0.058089 -0.27212 -0.54623 -0.53431 0.27129 0.92455 0.10041 -0.38668 -0.15885 0.31553 0.04691 -0.47198 0.11352 0.029517 0.58259 -0.33905 -0.19428 -0.090953 -0.2645 -0.099874 0.15716 -0.10685 -0.2547 -0.36164 -0.39006 -0.23532 -0.37077 -0.22752 0.67668 0.61454 0.18705 0.52777 -0.27311 0.56338 0.42046 0.066155 0.24298 0.55271 -0.082193 0.048871 0.16578 0.36558 0.32684 -0.05685 -0.64564 0.20715 0.05886 0.50378 0.006063 0.60293 0.079189 0.70439 -0.33021 -0.098601 0.78341 0.19827 0.68242 0.44982 -0.33194 -0.20746 -0.26149 -0.064443 0.63846 0.76306 0.22832 0.22041 0.86991 0.15962 -0.17741 -0.52702 -0.50809 0.07882 0.68476 -0.2576 0.27927 -0.050357 -0.19378 -0.26715 0.6261 -0.6192 0.0051679 -0.12137 -0.29778 0.50454 -0.54356 -0.068615 -0.14954 0.56501 -0.17401 -0.08696 -0.59086 -0.01068 -0.032563 -0.50506 -0.46152 0.050399 0.65766 -0.96741 -0.74621 -0.068786 0.14915 0.65476 0.44635 -0.44121 0.3162 -0.35715 0.54986 -0.45923 0.0080272 -1.313 0.41358 -0.00941 -0.069249 -0.12686 -0.16955 -0.3097 -0.27467 0.14646 -0.12534 0.02983 -0.89677 0.18041 0.15886 0.44067 0.29943 -0.76219 -0.63567 0.4936 0.041106 0.33425 0.49218 -0.67482 0.26889 -0.73392 0.44569 -0.79411 -0.039346 -0.18812 -0.08082 -0.094564 0.2872 -0.14311 0.24304 0.11768 -0.7858 0.041817 -0.1211 -0.045855 0.36085 -0.33761 0.24201 0.46363 0.39126 -0.11182 -0.058905 0.31586 0.024988 -0.11522 -0.14804 -0.019547 0.31907 -0.1907 0.30049 -0.13099 -0.27257
code -0.098156 -0.12645 0.45547 -0.02513 -0.66295 -0.18253 0.29497 0.016465 -0.20931 -1.9032 -0.05243 0.57589 -0.23156 0.32467 0.50665 0.3688 0.5977 -1.5736 0.73319 -0.1423 0.0025469 0.34102 -0.127 0.11943 -0.27454 0.10759 0.35259 -0.41115 -0.03678 -0.17257 0.34294 0.46415 0.15905 0.042285 -0.40955 -0.021822 -0.21155 0.041836 0.02629 0.28832 -0.027658 -0.030132 -0.14416 -0.31867 -0.45979 0.58817 -0.51628 3.7498e-05 -0.68652 0.38749 0.20735 -0.046987 -0.44814 -0.23272 0.59311 -0.2722 0.15746 -0.061055 0.20401 0.64648 -0.64058 0.73577 0.080511 -0.20063 -0.12662 -0.044755 -0.37117 -0.18125 -0.41188 -0.033584 -0.38976 -0.20867 -0.31555 -0.12425 -0.27362 -0.045786 -0.289 0.31349 0.33875 -0.16879 0.32141 0.13707 0.58719 -0.5558 0.30479 0.23813 0.6366 0.26044 -0.25968 -0.37517 0.10154 0.30171 -0.18828 0.21676 -0.3464 0.68061 0.071354 -0.15593 0.2381 -0.25186 -0.27564 -0.4156 -0.21317 -0.081623 -0.065327 -0.17024 -0.44092 -0.38155 0.23643 -0.16504 -0.067456 0.23319 -0.52791 0.32143 -0.17692 0.41522 0.062762 0.49612 -0.4049 -0.39184 -0.13115 -0.14596 -0.53012 0.33869 -0.15108 0.16456 -0.36717 0.17544 -0.059511 0.47592 -0.053252 0.52806 -0.076062 -0.12841 0.57249 0.22155 0.42806 -0.56418 0.13147 -0.011231 0.72015 0.28099 0.18221 -0.11688 -0.066926 -0.027967 0.37599 0.83929 0.17678 0.059121 -0.37304 0.44183 -0.23102 -0.28694 -0.043882 0.16997 0.30577 0.0354 0.1035 0.44086 -0.0085034 0.5553 -0.39058 0.92851 0.41297 0.30102 -0.22013 0.12242 0.092853 0.28578 0.37729 0.79743 1.1528 -0.076796 0.20229 -0.2204 -0.47937 -0.40568 -0.28767 0.27967 -0.047724 -0.036072 0.27954 0.018902 0.49947 0.47907 -0.22286 -0.16306 0.51571 0.0015986 0.46058 0.048247 -0.36111 -0.096251 0.21017 -0.080999 0.40933 0.12759 0.10366 -0.46949 -0.34148 0.46166 -0.53808 -0.059589 -0.52956 -0.21124 0.029044 0.40295 0.17815 0.1696 0.53869 0.091834 -0.00016864 0.44687 0.18061 -0.235 0.032359 0.019958 0.2838 0.25241 0.16122 0.29242 0.0074568 0.60263 -0.35724 -0.042465 0.40836 -0.47922 0.040632 -0.30566 0.27877 -0.10186 0.14384 0.18473 -0.21981 -0.46332 -0.35927 0.49192 0.0063443 -0.50021 -0.32116 -0.52202 -0.1027 -0.26883 0.082963 -0.11769 -0.15167 0.39061 0.61182 -0.33462 -0.0035111 -0.33033 -0.023453 0.45157 0.089079 -0.58582 0.12291 0.51321 0.20013 0.15608 -0.071076 -0.922 -0.18067 -0.25246 0.016702 0.54045 -0.065496 0.1625 0.18082 0.053081 0.10244 0.23441 -0.0701 0.50574 0.29387 -0.5203 0.22216 -0.23641 0.21175 0.16349 -0.64646 0.030328 0.56311 -0.079454 0.1148 0.15518 0.041809 0.04174 -0.54955 -0.053218 0.25164 -0.37144 0.037763 0.22865 -0.1387 0.25085 0.47627 0.41684 -0.0053843 -0.18225
attack -0.13801 0.19396 -0.0013715 -0.064052 0.16378 -0.12288 -0.79238 0.23771 0.21895 -1.1587 0.22575 -0.14924 -0.65919 0.33086 -0.05061 0.040187 -0.087288 -0.054504 -0.64879 -0.27918 0.18181 -0.030398 -0.088105 -0.23958 0.2679 -0.50928 0.022827 0.067947 -0.41522 -0.38624 0.053736 0.14087 -0.32361 -0.41797 0.068228 0.25313 -0.26829 -0.17806 0.37488 0.99645 0.44948 0.066737 0.51552 -0.62551 0.49182 0.28943 0.12789 -0.072748 0.35902 -0.022282 0.017277 -0.27434 0.11125 0.21347 -0.51579 0.052208 -0.70565 0.31464 0.19548 0.18263 -0.33131 0.85816 0.31104 0.13277 0.20168 0.058136 0.39749 -0.14617 0.045672 0.14639 -0.28475 0.09888 -0.092014 -0.4644 0.14767 -0.86529 -0.21108 -0.78446 -0.31506 0.57751 0.19334 -0.82834 0.3982 0.054356 0.50359 0.43738 -0.1861 -2.0843 -0.26537 0.2661 0.78102 0.46568 0.052832 -0.16101 -0.49886 -0.45406 0.39901 0.13998 0.29136 -0.32436 -0.18537 0.44395 0.032534 0.034105 0.24623 0.60101 0.035628 -0.0027758 -0.53075 0.016718 0.38141 0.13197 0.1674 0.15236 0.11785 0.026035 0.40296 0.18742 -0.12266 0.22395 0.033892 0.34874 0.14144 -0.025065 0.40996 -0.36002 -0.24067 0.49151 -0.70935 -0.038592 0.060155 -0.46267 -0.44267 -0.088542 -0.15938 -0.70175 -0.63478 -0.61005 0.034038 -0.0053355 -0.44434 0.48383 0.31679 0.42942 0.3395 0.13889 -0.25121 0.22544 0.44058 -0.33607 -0.55597 0.40965 -0.20413 0.50407 -0.18585 -0.3203 -0.55054 -0.0072066 0.15804 0.31473 -0.54848 0.032295 0.086811 -0.90831 -0.5299 0.46577 -0.14159 -0.54546 -0.54443 0.78523 -0.21749 -0.5929 0.23441 -0.016827 0.38446 0.10254 -0.11032 0.53306 -0.18877 0.080054 -0.37501 0.43996 0.043088 0.091918 0.12714 -0.30982 0.29097 0.40854 -0.28377 0.25376 -0.17574 -0.19888 0.073555 -0.27667 -0.8983 -0.60801 -0.0019316 -0.6851 -0.030551 0.41856 0.27415 0.60637 0.40644 -0.57942 1.1201 -0.16882 0.065987 -0.057777 0.60729 -0.093383 0.39579 -0.13562 0.082417 0.54283 -0.078793 -0.063817 0.42133 -0.91583 -0.42575 -0.27586 0.1352 -0.11078 -0.37487 -0.33833 0.28766 -0.37332 -0.21142 0.91584 -0.21131 -0.54132 0.46159 -0.17428 0.12442 -0.0085002 -0.3168 0.0244 -0.16809 0.60897 -0.073937 0.27133 -0.00058347 0.18143 -0.38851 -0.053009 -0.26467 -0.20208 0.42866 0.76477 0.54568 0.097377 0.14102 0.5099 0.10823 0.22287 -0.1008 -0.095943 0.015375 0.22098 0.67934 0.075666 -0.37928 -0.24917 0.52953 -0.012584 0.51735 0.22335 0.11509 -0.1468 0.22516 0.32122 -0.24982 0.15924 -0.42305 -0.29885 0.1352 0.039713 0.17007 0.35901 0.28675 0.027506 0.25307 0.01409 -0.59544 -0.018177 -0.4039 0.051411 0.26028 -0.079804 0.30785 0.15286 0.5931 0.47079 -0.70717 0.029474 -0.13351 0.042161 -0.33418 -0.31056 0.13236 -0.018575
author 0.073809 -0.33494 -0.27965 0.041365 -0.35872 0.021895 0.24181 0.037664 0.046894 -0.18109 -0.52664 -0.043182 -0.16229 0.26035 0.48912 0.17884 -0.26801 0.20456 0.092754 -0.1411 -0.13991 -0.11913 -0.087118 -0.27492 0.018341 -0.10921 -0.53989 0.1641 0.13482 0.36215 0.57185 0.56487 -0.2535 -0.12076 0.28211 0.14943 0.17847 0.20025 0.063714 0.24149 0.72908 0.16896 0.24008 -0.20119 0.075438 -0.19999 0.25801 -0.52484 0.20152 0.40402 0.3521 0.015765 -0.015067 0.12249 -0.31732 -0.4274 0.4822 0.12185 -0.22077 -0.21771 -0.014709 -0.2363 0.33932 0.308 0.015132 0.24773 -0.10167 -0.41868 -0.16133 -0.10012 -0.14375 -0.34355 0.062425 0.4661 0.21763 0.12362 -0.39946 -0.38694 -0.21272 -0.29857 -0.20338 0.11374 0.38659 -0.16059 -0.39741 -0.65137 0.12395 -2.0154 0.05816 0.11034 -0.047933 0.13635 -0.16327 0.074301 -0.053549 -0.79464 0.45495 0.25293 0.41387 -0.10793 0.05227 -0.63441 -0.32831 -0.33715 0.073194 1.3654 0.13039 -0.226 -0.11495 -0.49468 0.16694 0.31361 0.29201 -0.26184 -0.071225 -0.21756 -0.68497 -0.099101 0.17679 -0.32374 -0.21285 0.33782 0.54493 -0.12157 0.32804 -0.13934 0.12243 0.20858 -0.082511 0.48519 -0.03023 -0.051632 -0.26277 0.018387 -0.62436 0.1149 -0.66213 -0.23137 0.31018 -0.20923 0.52316 -0.059873 -0.33644 0.033887 -0.061545 -0.15596 0.038417 -0.48058 -0.41177 -0.11383 0.047534 0.23857 -0.46203 0.43705 -0.091775 0.91833 -0.088358 -0.0079743 0.13873 0.44275 -0.24046 -0.08943 0.53481 0.27207 -0.63763 0.2763 0.11054 -0.43861 0.019043 0.23729 -0.21889 -0.084656 0.49982 -0.46398 0.072933 0.30802 0.65022 -0.24752 -0.19024 0.00032979 0.25905 0.035751 0.32941 -0.42715 0.21041 -0.074409 0.17741 -0.26557 -0.0040042 -0.16334 0.11492 -0.083127 -0.21441 0.23193 -0.011651 -0.49708 -0.2384 0.1767 0.41191 -0.17681 -0.30706 -0.28638 -0.51781 -0.26323 -0.78225 0.0069406 0.19762 -0.22841 0.20528 0.24716 0.29061 -0.43987 0.25112 0.71087 0.4423 -0.29042 0.17195 -0.60305 -0.22015 0.15329 0.1702 0.52804 0.49841 0.29745 0.07756 -0.45375 -0.29481 -0.36537 -0.086745 -0.0020071 -0.14602 -0.32163 -0.17431 -0.035663 -0.21455 0.08861 0.16012 0.26229 0.0064992 0.06155 0.64851 -0.50742 0.028534 -0.036387 0.14413 0.2756 -0.17885 -0.038372 0.010134 -0.23833 -0.043943 -0.031854 -0.30203 -0.017932 -0.24405 -0.23617 0.0349 -0.0021482 -0.19026 0.29691 -0.20644 -0.61046 0.11161 -0.0071084 0.10654 -0.17552 0.11216 0.1048 0.302 -0.75159 -1.1481 -0.17497 0.22439 -0.038664 0.11742 -0.29758 -0.020753 -0.026902 -0.017713 0.026621 -0.45597 -0.3304 0.2178 -0.23327 -0.16605 0.13475 -0.20763 0.64151 -0.10403 0.17356 0.55699 -0.22419 -0.90052 -0.58138 0.17136 -0.2777 0.22639 -0.15746 -0.03578 -0.44361
