none 0.78731 -0.59619 -0.31542 -0.26816 -0.35467 -0.24358 0.3415 -0.22354 -0.28928 -1.4192 0.016135 -0.21811 0.8459 0.40879 0.85525 -0.12933 -0.046191 -0.8445 0.17585 0.34628 -0.77717 0.99212 -0.093253 -0.13469 0.35203 -0.22478 -0.14368 -0.10699 -0.31347 0.28624 -0.14243 -0.44733 0.58862 0.59688 0.17625 -0.031589 -0.38481 -0.10837 0.3035 0.25004 -0.575 -0.078982 -0.2851 -0.026088 -0.064075 0.27026 0.1318 -0.68443 0.18826 0.12421 -0.29745 -0.038689 0.36706 0.11712 -0.24967 0.067926 0.75923 -0.026049 1.2235 0.091981 0.36547 -0.44332 -0.25144 0.071082 0.03499 0.57397 0.093456 -0.079187 0.010642 -0.13129 -0.30446 -0.55417 -0.31142 -0.43651 0.18511 -0.40374 -0.49561 0.12838 -0.098388 -0.19282 0.38468 0.73445 -0.29601 0.40034 -0.2557 1.1038 0.484 -0.4923 -0.056861 0.15318 -0.25899 0.34623 0.10402 0.28616 -0.39328 0.94461 -0.067153 -0.36536 0.089398 0.087374 -0.41887 0.29816 0.091789 0.30139 0.34427 -0.77755 0.65469 -0.078288 -0.63977 0.48133 0.67057 -0.10398 -0.75478 -0.32275 -0.28798 0.97855 -0.39222 0.33754 0.019581 -0.2717 -0.51291 -1.2294 -0.15491 0.052774 -0.10745 -0.20128 -1.0052 -0.57298 -0.29974 0.08148 0.53275 -0.22154 -0.39984 -0.66106 -0.36435 0.82175 -0.45808 0.060452 0.29276 -0.38152 0.30626 0.57266 0.28082 -0.17065 0.16139 0.20238 0.32402 0.2545 -0.75311 -0.21564 0.38365 -0.36765 0.20024 0.13876 0.025557 0.09084 0.026443 0.18157 0.084063 -0.13523 0.038098 0.059121 -0.19412 0.16781 0.4338 0.11966 -0.16393 -0.43959 0.046439 -0.26317 0.61825 0.039254 0.14695 0.10218 0.14419 0.23875 -0.15074 0.3685 -0.68755 -0.16087 -0.23091 -0.011 0.27501 0.56618 0.4035 0.21146 0.39846 -0.094572 0.42591 -0.013931 -0.29285 0.30204 -0.022752 0.24097 0.35306 -0.46253 0.54942 0.14211 0.3758 -0.62114 0.20401 0.20614 -0.6824 -0.52562 -0.23582 0.13513 0.059437 0.10717 -0.62713 0.21908 -0.83806 0.26753 -0.30405 -0.56242 -0.24649 -0.34156 -0.48058 -0.11356 0.080696 -0.60196 0.44822 -0.29509 0.0748 0.17986 -0.1168 -0.70421 -0.61596 -0.38766 -0.18474 -0.19328 -0.13132 -0.50727 -0.046896 0.44927 -0.31671 0.34371 0.14012 0.35217 0.081308 -0.19088 0.31608 0.65292 -0.47243 0.28764 0.085174 0.3836 0.076211 0.11555 0.60249 -0.2102 -0.30556 0.3309 0.13694 -0.34141 -0.40283 -0.36087 -0.13606 -0.28574 -0.55424 0.41282 -0.23942 -0.46332 -0.58714 -1.071 -0.35293 0.34694 0.081159 -0.033488 -0.76349 -0.05505 -0.066226 0.10024 0.34512 -0.59013 -0.10207 0.32227 -0.032831 -0.21514 0.18923 -0.3663 -0.0055576 -0.10856 -0.98273 0.15316 -0.10994 0.052251 0.47362 0.40951 0.066476 -0.010249 0.54367 -0.44459 -0.16451 -0.40983 0.35174 -0.019923 0.028182 0.041666 0.62726 -0.10967
organization 0.38879 -0.27588 -0.048872 -0.62465 -0.32043 0.20374 -0.18826 0.38713 0.73718 -1.2186 -0.59438 0.56472 0.087102 -0.086607 0.63669 -0.10611 -0.27859 0.33297 -0.52166 0.24266 0.44844 0.62069 0.35223 0.37895 0.20381 -0.21016 -0.33238 -0.18458 0.26168 -0.32989 0.19868 0.35017 0.47066 0.0086231 0.46833 -0.033256 -0.37623 -0.51312 -0.43063 0.38445 -0.26408 0.07669 0.84614 0.21848 -0.22154 -0.65184 0.29875 -0.37235 -0.24494 0.61561 0.30524 0.21984 0.22936 -0.22965 -0.75287 -0.34759 0.62617 0.035161 0.15673 0.23866 -0.034492 0.18804 0.11076 0.22873 -0.16257 0.25467 -0.12141 0.57073 0.1678 0.26865 -0.5617 0.056754 0.15631 -0.13183 0.057957 0.6504 0.018863 -0.42542 -0.0067245 -0.11519 -0.52571 0.076529 0.34289 0.06066 -0.18985 0.3393 -0.55465 -2.0961 0.36175 0.17815 0.35906 0.33915 0.022417 -0.58985 0.26025 0.019439 -0.2681 0.011754 -0.018954 -0.044662 -0.21056 -0.2693 -0.24959 -0.34562 -0.30932 -0.10085 0.1769 0.11158 0.1386 -0.18869 0.67406 0.35408 -0.54638 -0.16122 0.37148 0.097376 -0.13732 -0.2526 0.23803 -0.46844 -0.79247 0.63118 0.25976 -0.013403 0.48387 -0.024416 0.063143 -0.15133 -0.47517 0.14295 0.42495 -0.48356 -0.72682 0.34824 -0.33531 0.33539 -0.41592 -0.46023 0.22953 -0.33754 1.4798 0.69747 -0.48219 0.2294 0.071044 -0.22234 0.56998 -0.30288 0.12509 -0.0344 -0.36995 0.18466 -0.36988 0.24268 -0.020556 0.39144 -0.83465 -0.044679 -0.29979 0.72886 -0.27695 0.061441 0.55302 0.00082933 -0.25814 -0.06496 -0.41987 -0.16186 -0.13084 0.56642 -0.59748 -0.37697 0.83464 -0.34711 0.42984 0.31398 -0.19875 0.32302 0.049991 0.54625 0.43888 0.24443 -0.32948 0.021073 0.11967 0.13096 -0.19983 -0.15685 0.28399 -0.19254 -0.3499 0.18007 0.33403 0.18254 -0.15733 -0.37927 0.42592 0.10473 -0.0023226 0.49133 0.60883 0.7215 -0.23574 0.12748 0.17279 0.36035 0.52966 -0.70939 0.57589 -0.46161 -0.54362 0.33474 0.0027805 0.80294 0.037525 0.050421 0.17245 -1.3348 -0.65997 -0.28398 0.2031 0.21341 0.021736 -0.09743 -0.31721 -0.075534 -0.1723 0.67715 -0.29127 -0.37597 0.084632 0.056741 -0.30457 0.07383 0.1389 0.33914 -0.82118 0.17982 0.18046 0.32315 0.054715 -0.52951 0.43525 0.33299 -0.13978 0.14945 0.1506 0.35668 -0.015009 -0.30648 0.53631 0.74479 -0.5012 0.35993 0.03269 -0.29755 0.11013 -0.34565 -0.27743 0.62981 -0.53595 -0.2403 -0.040573 0.050541 0.27601 0.20025 -0.42065 -0.36671 -0.0044353 0.18963 -0.68038 -0.38346 0.0094066 -0.28948 0.066296 -0.18545 -0.10777 0.12128 0.22492 0.031293 0.36075 -0.29237 -0.14443 -0.15498 -0.35968 -0.22955 -0.13031 -0.57265 0.18704 -0.095241 0.47494 0.16769 -0.0012816 -0.66658 -0.0021549 -0.047017 -0.18055 0.15804 -0.24406 0.13847
person 0.33778 -0.50838 -0.62333 -0.30826 0.006637 0.075378 0.10463 -0.5684 -0.21327 -0.54149 -0.81415 0.9029 -0.12107 0.42146 0.39297 0.19954 -0.32081 0.3404 0.31516 -0.10632 0.22547 0.24251 -0.27325 0.52188 0.47636 0.054945 -0.082906 -0.21223 0.11591 -0.61496 0.077678 0.31057 0.076975 0.14047 0.70439 0.14601 -0.13381 -0.89872 -0.16498 0.57527 0.71982 0.094097 0.36265 0.17659 -0.022014 -0.2963 0.14222 -0.59112 0.3138 0.076206 0.16694 -0.49524 0.19548 0.12965 -0.10331 -0.24163 0.26533 0.066831 0.34685 0.1535 0.22658 0.21799 -0.073708 0.35611 0.13154 0.00061652 -0.027064 0.098297 -0.44554 0.34527 -0.33161 0.20791 0.061729 -0.027201 -0.12484 0.39224 -0.24416 -0.86953 0.067156 0.3349 -0.028951 -0.13539 0.55654 0.11701 0.53453 -0.28018 0.33149 -2.3442 0.86031 -0.54464 -0.0052676 -0.083998 -0.42955 -0.29752 -0.34375 -0.58973 -0.37497 -0.23765 0.43786 0.069322 0.11212 0.20523 0.00072484 -0.38188 0.16475 0.36203 0.2574 -0.75824 -0.45116 -0.1298 0.38206 0.2164 -0.13219 -0.38683 0.045364 -0.21874 -0.18144 -0.22309 0.64164 0.067911 -0.4814 0.13274 0.49266 -0.33125 0.90725 -0.23516 -0.60366 0.34948 -0.55041 -0.036111 0.61163 -0.0051441 -0.37976 -0.16503 -0.26842 -0.080266 -0.23037 -0.42272 0.43995 0.17787 0.059127 0.522 0.27722 0.60787 -0.32834 0.084764 -0.19295 -0.41337 -0.035157 -0.56705 -0.5283 0.13407 -0.31171 0.50615 0.33449 0.47793 -0.44868 -0.24021 -0.25754 -0.016586 -0.49477 -0.14258 0.31522 -0.27478 0.31433 0.031238 -0.23176 0.11736 -0.31143 0.37292 -0.017655 -0.16673 0.4922 -0.47514 -0.022228 -0.00017918 -0.6561 0.063556 -0.27433 -0.38367 -0.37712 0.45172 -0.014483 -0.13002 0.20574 0.56862 -0.23713 0.029733 0.24902 -0.45998 -0.2893 0.70867 0.22684 0.49685 0.48328 -0.013913 -0.82183 0.17193 0.13889 -0.0456 0.37426 0.45977 -0.26862 0.18641 -0.20248 0.46686 -0.19092 0.20076 0.99838 0.26545 -5.605e-05 -0.19538 -0.19039 0.72686 0.93372 0.20715 -0.10383 -1.5496 -0.56645 0.10114 0.6473 0.67067 0.40253 -0.22193 0.01565 -0.59243 -0.27502 0.90619 -0.77091 -0.66668 0.019731 -0.00727 -0.11552 0.22082 -0.15772 -0.16658 -0.07561 0.45742 -0.23116 0.53493 -0.044031 -0.2527 -0.039218 0.49453 0.14747 0.45497 -0.032617 0.3125 -0.048765 0.16119 0.14844 0.19279 -0.18231 0.32782 -0.55459 0.4787 0.40949 -0.4855 -0.046895 -0.011217 -0.28157 -0.09049 0.30982 -0.17669 -0.21916 0.15934 -0.63036 0.044562 0.43294 -0.10895 -0.61781 -0.15788 0.21962 -0.2467 0.041002 0.46093 0.2312 0.42073 -0.0071092 0.037247 0.27978 0.13245 -0.10652 0.24758 0.093448 0.28379 0.071883 0.33509 0.36913 0.80233 0.59322 0.1384 -0.40305 -0.84575 0.063096 0.064388 -0.21568 -0.10569 -0.083416 -0.27244
location 0.8358 0.073 0.15069 0.25919 -0.092036 -0.25065 -0.28864 0.10956 -0.053699 -0.30686 -0.67127 0.63667 -0.2226 0.52049 0.36248 0.45974 -0.15993 1.3905 0.021249 -0.033308 -0.17304 0.15795 0.16043 -0.11425 0.17174 -0.23589 -0.35723 0.20671 -0.82587 -0.56516 0.57718 -0.22229 0.40229 0.40535 0.053487 0.056341 0.23008 -0.11661 -0.56039 0.53954 0.40277 0.47647 0.39869 0.32148 0.24216 0.11 0.85539 -0.95786 -0.030588 0.043187 0.3415 0.0022129 0.14397 0.10449 -0.086913 -0.31568 -0.63068 0.30892 0.59449 0.41966 0.29658 -0.38672 0.054276 0.30746 -0.015876 -0.091133 0.10534 -0.39469 -0.17317 0.77183 -0.18668 -0.12274 -0.09557 0.49696 -0.077154 0.078803 -0.49547 -0.67549 0.024024 -0.70891 -0.11736 0.61158 0.43693 -0.097723 0.38726 0.35289 -0.040781 -1.554 0.048469 -0.32819 -0.17684 0.31087 0.30225 -0.16835 0.72558 -0.22546 -0.23476 -0.11759 -0.027182 0.43196 -0.66059 -0.19776 0.14197 0.057893 0.77483 1.4085 0.29538 0.1127 -0.74402 -0.16887 0.1601 0.20128 0.072679 0.1883 0.20594 -0.1343 0.23963 -0.40068 -0.20513 -0.5054 -0.32401 -0.092404 0.14909 -0.21305 0.22985 -0.29648 -0.52177 0.25775 0.40729 0.26013 -0.0034833 0.090829 -0.35184 0.13215 -0.47117 0.17682 -0.30748 -0.50349 0.29442 -0.58659 1.6542 0.47647 -0.10244 -0.23868 -0.51452 -0.023531 -0.16876 0.17693 0.9073 -0.11641 -0.60853 0.37226 -0.52443 0.11582 0.2228 -0.041738 -0.026211 -0.48142 0.54863 0.046883 -0.48191 -0.18631 0.74654 0.22967 0.27701 0.14278 -0.39738 -0.16661 0.27257 0.13922 0.094228 0.057205 -0.49392 -0.37065 0.034686 -0.02591 -0.48639 -0.12363 -0.18892 0.38236 -0.27509 -0.31056 -0.052401 -0.16098 0.1545 0.029748 -0.33952 -0.45088 0.37485 -0.056823 -0.52526 0.26956 -0.34621 0.10343 -0.11883 -0.20175 -0.12663 0.16609 0.102 0.44534 0.04157 0.41309 0.17335 -0.11443 0.033325 0.31004 -0.24558 -0.36473 0.61775 -0.47348 0.13156 -0.31189 0.50358 0.44084 -0.14242 -0.28055 -0.083319 -1.4071 -0.14034 0.46786 0.43698 0.33922 0.14691 -0.1323 -0.26694 -0.13677 -0.12999 0.41615 -0.38031 0.17105 0.67593 -0.40452 -0.0026592 -0.4481 -0.13935 1.0258 -0.076053 -0.037208 0.21444 0.53644 -0.022096 -0.47884 -0.073007 0.55904 0.27346 0.42129 -0.68053 0.2553 0.19003 0.27282 -0.35412 0.089934 0.018207 0.45155 -0.18436 0.66035 -0.026688 -0.12498 -0.05575 -0.072226 0.50814 -0.034799 0.19096 -0.72446 -0.09342 -0.49065 0.287 -0.12702 -0.20003 -0.45909 -1.1447 0.37895 0.086581 -0.54196 -0.45779 0.29297 0.10199 0.41986 -0.25479 0.56162 0.60976 -0.0027902 -0.22236 0.63551 0.001942 0.057074 -0.36303 0.023381 -0.47944 -0.063714 0.73047 0.15266 -0.22371 -0.66564 0.27078 0.41449 -0.71767 -0.064415 -0.30969 0.017207
people 0.49445 -0.38635 0.091653 -0.32555 -0.552 0.17627 0.31957 -0.2958 0.51519 -1.6225 -0.12465 -0.3809 0.36209 0.57782 0.61569 -0.040517 0.12377 -1.8509 0.22699 -0.296 0.30765 0.014417 0.28897 0.061044 -0.4386 -0.10935 0.39828 -0.058242 0.1675 -0.18821 0.182 0.00431 -0.42662 -0.6201 -0.095144 -0.40083 -0.076257 -0.4115 0.18661 0.19967 -0.077463 -0.36674 -0.62971 -0.1778 0.22795 -0.32781 -0.34576 -0.51693 0.10519 0.81826 -0.66107 0.061146 -0.1809 0.26151 0.091178 -0.55377 -0.17575 -0.18844 -0.25084 -0.40404 -0.67091 -0.4983 -0.78314 -0.11365 -0.34642 0.12011 -0.10553 0.2874 0.12999 0.034857 0.14285 -0.26342 -0.15775 -0.15949 -0.24281 -0.80996 -0.42414 0.52351 0.42427 0.13273 -0.13367 0.87895 0.56378 0.15026 -0.10784 0.61923 0.53376 0.23812 -0.27543 -0.27141 -0.21305 0.0098997 0.034668 0.020737 -0.36192 0.11843 0.13673 -0.83988 -0.34319 -0.10076 -0.07072 0.10401 -0.010906 0.065252 0.11002 -0.55189 0.35419 -0.33328 -0.84386 0.41264 -0.79596 0.13777 0.19457 -0.81652 0.1041 0.055285 -0.39967 -0.062316 0.17234 -0.26095 -0.016646 -0.01236 -0.60363 0.48328 0.55749 -0.16556 -0.14147 0.047988 0.20866 0.24398 0.41756 0.094467 -0.5092 0.32035 0.17497 -0.051608 -0.49197 -0.33428 0.13975 0.021669 0.93305 -0.16385 -0.58344 0.53674 0.53572 0.70643 -0.14454 0.78147 -0.053169 -0.1612 -0.38648 0.010014 -0.053328 -0.24388 0.14591 0.22898 0.2426 0.019804 -0.25446 -0.35406 0.018372 0.61502 -0.60306 0.67403 0.604 0.45246 -0.59991 -0.16747 -0.10083 0.19104 0.50424 -0.062775 0.3707 -0.38136 0.63419 -0.19653 -0.052839 0.093417 -0.18087 0.096168 -0.0079318 -0.013941 -0.40651 -0.50843 0.54419 -0.38898 -0.15175 -0.30794 0.3535 -0.066649 0.92193 -0.28424 0.047534 -0.36975 -0.33031 -0.41567 0.21584 0.40032 0.66032 -0.7101 0.37763 0.29993 0.61107 -0.35612 0.28564 -0.076677 -0.44572 0.13289 0.16135 0.19498 0.70185 0.28478 -0.17005 0.64567 0.071707 -0.070995 0.014345 -0.073317 0.41884 -0.67905 0.18533 -0.5292 1.0228 -0.60883 0.18661 0.25791 -0.099586 0.20656 -0.8552 0.16275 -0.098988 -0.2197 -0.016741 0.35645 -0.012816 0.65838 0.13495 -0.16277 0.015213 0.40294 -0.074754 0.12937 -0.23705 -0.13048 0.34766 0.13479 -0.63834 0.34347 0.34724 -0.13112 0.27892 0.073459 -0.22685 0.6639 -0.82146 -0.48233 0.044952 0.41347 -0.26108 -0.40675 -0.18641 -0.5998 -0.28173 -0.48974 -0.38343 0.56003 0.44827 -0.19612 -0.1548 0.088536 -0.043644 -0.16939 -0.028751 0.1401 -0.11759 -0.50361 -0.20015 -0.30607 0.16852 -0.36011 -0.022579 -0.20869 0.37284 0.17656 0.7343 0.45786 0.53446 0.45145 -0.60186 0.030492 0.41561 -0.32899 -0.24707 -0.0039005 0.23186 -0.087147 0.26383 0.45954 0.049122 -0.076855
ethnicity 0.15894 -0.059119 -0.49028 0.27066 0.31141 0.38933 -0.43253 -0.08178 -0.30813 -1.8909 0.62193 0.61813 -0.55236 1.07 0.50386 -0.27375 0.007263 -1.2045 -0.38124 -0.25917 -0.53403 -0.26511 0.32069 0.18554 0.83111 -0.49196 0.40102 0.5304 -0.40994 0.1754 0.57085 -0.52777 1.022 -0.20122 -0.029477 0.11921 -0.0039055 -0.47894 0.05097 0.66283 -0.00033926 0.57496 0.50008 0.53103 0.45429 -0.84837 0.74923 -0.32063 0.68059 0.064684 -0.25721 -0.23588 -0.3359 -0.30138 -0.51031 0.57806 -0.44284 0.51706 0.29824 -0.57951 0.077075 -0.40227 -0.36551 0.8277 -0.32408 0.11222 0.13298 -0.56987 0.27128 -0.36125 -0.23738 -0.17437 0.49776 0.27962 -0.32607 0.61388 -0.31009 -0.75006 0.14657 -0.23909 -0.54805 -0.42171 0.49036 -0.58985 0.41342 0.55066 0.17185 -0.88752 0.070225 -0.0085149 -0.25382 -0.042397 0.49496 -0.49456 -0.53211 0.050822 -0.32047 0.67222 -0.16872 0.42212 0.010175 -0.42879 0.34646 -0.48095 -0.21114 -0.53123 -0.79992 -0.52248 0.13074 0.2291 0.23698 0.062774 -0.092435 0.031296 -0.17536 -0.050002 -0.18879 -0.48702 0.20431 -0.2898 -0.88443 0.001734 0.66597 -0.26333 0.75223 0.2219 -0.15194 -0.36537 0.083344 -0.49081 0.011681 0.080831 0.035368 0.33556 -0.032955 -0.14172 0.132 -0.36993 -0.32764 0.36741 1.0476 0.99852 0.15957 0.79598 -0.086735 -0.065648 -0.14684 -0.18866 -0.18695 0.029233 0.46823 -0.042623 -0.021939 0.40898 0.95179 0.47639 -0.15595 -0.6897 -0.1612 0.42092 -0.88734 -0.53818 1.0297 0.36854 -0.30757 -0.093873 -0.69809 -0.21346 -0.55706 0.017645 -0.2095 0.10591 0.24471 -0.12209 -0.51749 0.41405 0.31002 0.54533 0.33897 -0.038038 -0.13863 0.2575 -0.1719 0.51226 0.6149 0.35303 -0.14746 0.30139 0.3497 -0.19502 -0.049336 0.61637 0.18753 -0.72302 0.42195 -0.95128 0.36671 0.48887 0.38775 0.33453 0.28241 0.70322 -0.14005 0.56245 -0.14262 -0.13522 -0.29559 -0.93426 0.42457 0.41891 -0.18238 -0.37752 -0.29198 0.076722 -0.019029 -0.37554 0.13541 -0.35506 0.31765 0.047004 0.22988 -0.55397 -0.36327 -0.31503 -0.55457 0.218 0.40168 0.27364 0.29286 0.059229 0.069373 0.037704 -0.37371 0.57962 -0.47684 0.26796 -0.18375 0.14522 -0.0092762 0.50727 -0.29889 0.18941 -0.30556 -0.33417 0.35744 -0.083628 0.47868 0.67295 0.21777 0.11789 0.36977 0.12712 -0.47076 -0.14269 -0.4165 -0.22388 -0.089516 0.15045 -0.49728 0.49368 -0.89983 -0.22208 0.059333 0.14027 0.4884 0.053876 -0.69285 -0.63133 -0.69516 0.58003 -1.0521 -0.41236 0.16323 -0.22152 0.75917 -0.49557 -0.14028 0.31498 -0.078286 -0.14447 -0.15862 -0.074225 0.25082 0.19079 -0.012945 0.20095 -0.063776 -0.074095 0.15859 -0.15217 0.57929 -0.25396 -0.46631 -0.86818 0.36351 0.25958 -0.32424 0.22909 -0.68539 -0.048021
profession 0.56682 -0.10436 0.20406 -0.45244 0.43662 -0.088178 -0.014701 0.38203 -0.11544 -1.4748 -0.15958 0.61602 -0.1437 0.32129 0.47409 -0.089141 -0.16547 -0.91779 0.44873 0.41171 -0.16718 -0.20118 0.28291 0.13858 0.4402 -0.32927 0.11725 -0.07712 -0.41469 -0.32432 0.20076 0.82971 0.54595 0.030738 0.6325 -0.15041 0.063105 -0.73105 -0.2229 0.68254 0.10174 0.4687 0.60032 -0.11567 0.16232 -0.052696 0.019456 -0.99876 0.17569 0.065376 0.051674 -0.26028 -0.074381 -0.064424 -0.52756 0.27893 0.71336 0.096417 0.32138 -0.50795 0.58718 -0.68361 0.20098 0.29579 -0.3501 -0.28169 -0.17669 -0.4009 0.074292 -0.43353 -0.21937 -0.14029 0.088949 0.28118 0.26384 0.49242 0.29607 -0.058184 -0.19261 -0.36723 -0.42235 -0.18196 0.25434 0.02856 0.13331 0.51542 0.092266 -1.2357 -0.6901 -0.37922 0.027407 0.62244 0.36452 -0.092761 -0.48541 0.15268 0.20054 0.28055 -0.20158 -0.35556 -0.40259 -0.51655 0.32419 0.078441 -0.3659 -0.22568 -0.16652 -0.49886 0.18506 0.36136 0.20001 0.54047 0.12489 0.43663 -0.12958 0.63006 -0.39336 -0.99756 0.26308 -0.48003 -0.079847 0.57146 -0.15076 0.30051 0.361 -0.50569 -0.048378 0.62324 0.29069 0.31229 -0.10869 -0.078915 0.30692 0.28142 -0.048627 -0.29385 -0.53784 0.025575 0.4055 0.19189 0.89372 0.56792 -0.073289 -0.11603 0.065129 0.11969 0.42589 0.16597 0.3321 0.14 -0.17433 0.3635 0.36901 0.18128 0.34325 0.10932 -0.60528 -0.049712 0.13452 0.12488 -0.12576 -0.11248 0.75162 -0.13451 0.17071 -0.25644 -0.18526 -0.46436 -0.054596 0.50473 -0.42282 -0.50302 0.49463 -0.82341 0.29876 0.0086289 -0.86196 0.14634 0.1234 -0.19606 0.36603 0.098082 -0.13262 0.79244 0.46763 0.10599 -0.029939 -0.70334 0.16107 -0.63787 -0.41173 0.59012 -0.070105 -0.04119 0.60068 -0.35157 0.0067738 0.51187 0.14257 0.037702 0.037679 0.56918 -0.27645 -0.35984 -0.30773 0.35584 0.71852 -0.47895 -0.023282 0.26805 -0.66199 -0.15539 -0.14018 1.1477 -0.33062 -0.13831 0.62314 -0.70013 -0.041377 0.59013 -0.11427 -0.40942 -0.41053 -0.21971 -0.3663 0.17562 0.09784 0.32243 -0.56278 -0.76076 -0.45729 -0.086948 -0.45333 -0.37404 -0.58737 -0.34689 0.4513 0.40568 0.97347 0.1208 0.5321 -1.1352 0.44719 -0.3828 0.010338 0.45727 -0.06584 0.21811 -0.07215 0.1731 -0.22957 0.026074 -0.67543 -0.1855 0.34809 -0.60304 0.10474 0.13803 0.060518 0.46618 -0.36321 -0.13182 0.73787 0.23088 -0.66015 0.33734 -0.30367 0.066494 0.064736 0.21561 -0.96066 -0.29528 0.32727 0.36143 -0.23361 -0.13691 -0.38315 0.65141 0.38894 0.39409 0.59209 0.46951 0.47585 -0.0013192 0.04312 -0.46169 -0.20043 -0.25517 -0.073193 0.073559 0.78525 -0.74639 -0.49225 -0.90321 0.16391 -0.1251 0.21979 0.29822 0.073398 -0.37578
business 0.15397 -0.39325 0.004085 0.28099 -0.23417 0.72633 -0.28354 -0.3635 0.60131 -1.8081 -0.24072 -0.12673 0.01013 0.28996 0.81251 0.021175 0.075122 -1.2623 1.523 0.79871 -0.612 -0.18277 0.27223 -0.19474 -0.41224 -0.55561 -0.268 0.43311 -0.58518 0.30289 -0.37207 -0.31994 0.12202 0.1473 0.04863 0.44023 -0.079015 -0.25145 0.26009 0.97125 -0.39033 0.12915 -0.3739 -0.096252 -0.35335 0.10163 0.65464 -0.87176 0.22725 -0.10476 0.084335 -0.12972 -0.041572 -0.11078 0.12689 0.15665 -0.042028 0.59905 -0.41935 -0.26896 0.034879 0.06826 -0.17706 -0.43731 -0.59009 0.20622 -0.41314 -0.39853 0.0361 0.25009 -0.30201 -0.75072 -0.53799 0.1375 -0.39087 -0.21516 0.24292 -0.72773 -0.033889 0.28582 -0.29336 0.075066 0.34512 -0.16565 0.2905 -0.0042581 0.02174 0.6944 0.14942 0.25329 -0.32864 -0.54037 -0.096049 -0.40153 -0.25272 0.47403 -0.10717 -0.78379 -0.25419 -0.18073 0.37693 -0.22842 -0.25625 0.30679 0.19413 -0.27917 -0.043502 -0.070596 0.26418 -0.053086 -0.42121 0.32113 -0.31887 -0.39704 0.018228 0.31685 0.024257 0.028326 0.23398 -0.036503 -0.14755 0.04107 0.10214 0.28368 0.11213 -0.11881 -0.0033667 0.18142 -0.44388 0.083861 -0.25062 0.88324 -0.03507 0.37659 -0.10717 -0.51075 -0.48207 0.16258 0.094833 0.28675 0.91315 0.63676 -0.37071 -0.58938 -0.21364 -0.3503 -0.068615 0.072657 0.090753 0.26314 0.43062 -0.31171 0.82854 -0.32607 0.19815 0.13066 -0.23378 -0.21282 0.085404 -0.027484 0.20509 -0.38181 -0.30855 0.28326 0.015855 -0.27308 -0.41175 0.214 -0.44843 0.027512 -0.17792 0.17458 0.46948 -0.42548 0.52998 0.11155 -0.71083 0.11824 -0.76826 -0.065428 0.26776 0.016979 -0.24917 0.067512 -0.12997 0.52266 0.1695 0.2206 0.2062 -0.15476 0.51719 0.10638 -0.017088 -0.23607 -0.024622 -0.083617 0.4069 0.16458 -0.020034 -0.35868 0.09159 0.23673 0.34915 -0.22455 -0.74188 -0.32399 -0.99584 0.11371 0.33376 -0.19961 -0.24329 0.64655 0.23895 1.233 0.36544 -0.82173 0.063845 0.25312 0.74803 -0.012649 0.096275 -0.036588 0.0011335 -0.19007 -0.82036 0.0020272 -0.3182 -0.10897 -0.16123 0.018396 0.47999 0.35504 -0.42845 -0.40101 -0.017846 0.43862 0.6094 -0.27693 0.25458 -0.49252 -0.0021539 -0.39081 -0.37521 -0.13559 -0.22621 -0.59894 0.46735 -0.18675 0.34885 -0.3102 0.17463 -0.37075 -0.25992 0.44156 0.10236 -0.37675 -0.41444 -0.38342 0.15843 -0.20244 -0.086413 -0.74604 0.24851 0.032191 -0.20513 0.27175 -0.66622 -0.14054 -0.092343 0.48686 0.30715 0.41909 0.31453 0.41949 0.098174 0.076599 -0.23665 -1.0483 -0.1167 -0.31952 -0.43639 -0.32676 -0.52899 -0.157 0.74628 0.71287 0.19493 -0.25014 -0.20896 -0.3339 0.19647 -0.5253 0.87408 -0.096801 0.11717 0.45249 0.057281 -0.17304 -0.24601 -0.35534
company -0.55463 -0.37535 -0.41527 -0.59703 0.035898 0.10719 0.31111 -0.1374 -0.22067 -1.4409 0.14579 -0.051496 -0.16904 -0.14379 1.1459 0.90517 -0.23452 -1.438 -0.016918 -0.11078 -0.31551 -0.33154 -0.26818 0.21747 -0.41081 -0.50502 0.11878 0.28107 -0.020046 -1.0115 0.21906 -0.057192 0.033803 0.29583 0.31637 0.13755 -0.23157 0.2614 0.16971 0.37051 0.1132 -0.1324 -0.7361 -0.43937 0.18323 -0.23844 0.38093 -0.27386 0.15497 0.12179 0.25052 0.52337 -0.15549 0.148 -0.071693 0.27158 0.38305 -0.21781 0.20695 -0.010729 0.32107 0.34041 -0.29094 -0.36212 -0.36085 0.088191 0.31871 -0.26721 -0.12712 -0.16238 -0.44696 0.064856 -0.15833 -0.071014 -0.33128 0.2178 0.41504 -0.058638 -0.13509 -0.1518 -0.25508 0.31496 0.85636 -0.14013 0.47442 0.44926 0.036044 0.27806 -0.26045 -0.1622 0.052837 -0.47266 -0.49645 -0.29044 -0.49472 0.1887 -0.17742 -0.22696 0.10976 0.056164 -0.11548 -0.21231 -0.032196 0.4584 -0.40491 -0.30317 0.11366 0.10873 -0.4272 -0.48804 -0.4078 0.62667 -0.705 0.017156 -0.43622 -0.10041 0.0028178 0.23628 -0.25338 -0.29372 0.017696 0.33052 0.63777 0.6351 -0.50423 -0.033949 0.08015 -0.25919 0.14169 0.049364 0.027681 0.070632 -0.070835 0.19574 -0.26832 -0.37348 -0.39003 -0.42759 -0.075233 0.16877 0.96666 0.32386 -0.42855 -0.12068 -0.19656 0.35676 0.099988 0.56846 0.32405 0.15598 -0.28336 0.21351 -0.04614 0.25008 0.2417 -0.12603 0.26101 -0.36762 0.19631 0.09216 -0.04409 -0.011033 0.63198 0.36145 -0.10422 -0.12117 -0.98355 -0.023461 -0.14568 0.020892 -0.68902 -0.24754 0.14934 -0.2927 0.24954 -0.074997 -0.33508 0.28319 -0.25213 0.27162 0.0041534 0.063395 -0.61358 -0.12608 0.15656 0.27371 -0.02679 -0.17504 -0.2784 0.4214 0.65369 -0.101 0.25725 0.22264 0.071925 -0.049901 0.65885 -0.054178 0.20506 -0.3049 -0.6169 0.50962 -0.11121 -0.061298 -0.31288 0.33016 0.69486 -0.65193 0.24179 0.22082 -0.16453 0.40047 -0.13613 0.23327 -0.706 -0.080005 0.40079 -0.68925 0.2376 0.33099 0.023159 0.23173 0.60001 -0.10365 0.1609 -0.47542 -0.37767 -0.33056 -0.63395 -0.38856 -0.028274 -0.064622 0.40882 -0.20239 0.15276 0.077872 -0.092844 0.0020449 0.16971 -0.17363 -0.33614 0.17547 0.20689 0.069442 -0.2383 -0.19429 -0.25759 -0.44324 0.20138 -0.62547 -0.2107 -0.7358 -0.01869 -0.186 -0.050113 -0.96096 -0.02444 0.3143 0.17861 -0.12876 0.12301 -0.25059 -0.12907 0.55174 0.10714 0.36461 0.11691 0.36595 -0.3703 0.58292 -0.043279 0.17225 0.012201 0.84876 0.089339 0.14328 0.029601 -0.13711 0.79008 -0.37425 -0.48243 -0.52524 0.21721 0.04283 -0.081584 0.45107 -0.32318 0.58163 0.2157 0.22625 0.025567 -0.88321 0.39924 -0.09222 -0.29708 -0.053857 0.013738 -0.067175 -0.45227 0.075724
founders 0.461 -0.1312 0.31138 -0.21508 -0.27895 -0.11093 0.31627 0.586 0.62325 -1.7357 0.22541 0.39319 0.15492 0.16397 0.33774 -0.16989 -0.52925 -0.66579 0.05163 0.0554 -0.031588 0.59081 1.0525 -0.079561 -0.32427 -0.69902 -0.067713 0.21074 -0.18332 0.05942 0.37115 0.39035 -0.097248 0.4555 -0.37159 0.77974 -0.11928 0.58666 0.025426 0.69069 -0.28321 0.20365 0.44677 0.11075 0.36607 -0.38005 0.76705 -0.81871 0.14575 0.43034 -0.28088 -0.50402 -0.21648 0.35083 -0.2084 -0.015437 0.037447 0.64734 0.070569 0.00108 -0.26652 -0.049038 0.30786 -0.049925 -0.045533 0.34592 0.016486 0.24896 -0.22138 -0.077061 0.39102 -0.26065 0.27607 0.34337 0.11707 -0.18334 -0.29814 0.094065 -0.17218 0.12658 -0.50693 0.2232 0.61055 -0.50478 0.37093 0.13674 0.31452 -1.0789 -0.45665 0.087779 -0.37337 0.53722 0.080697 0.44762 -0.46096 0.58477 -0.13142 -0.50344 -0.091397 -0.17252 -0.85941 -0.24616 0.014613 -0.97486 -0.44469 -0.14367 -0.25569 -0.03131 0.32367 0.32692 -0.33528 0.86902 -0.21086 0.21922 -0.15385 0.0047479 0.14994 -0.33477 -0.15052 -0.28395 -0.024615 -0.34506 -0.19666 0.18787 0.41265 0.3368 0.079783 -0.25093 -0.41636 0.22025 0.26873 0.087562 -0.39609 0.1051 0.22921 -0.39789 0.2722 0.13786 0.4208 -0.081132 1.3098 0.079071 0.20845 0.037827 0.53026 -0.35187 0.017335 0.030972 -0.053168 -0.087037 0.10335 -0.17856 -0.53249 0.44276 -0.020849 0.64184 -0.43857 -0.070991 0.1853 0.47164 0.1895 0.06133 0.14062 0.22885 0.61862 0.08705 -0.04398 -0.066157 -0.41708 -0.19723 0.13772 0.03326 0.62954 -0.46278 0.29636 -0.70726 0.22882 0.32831 0.15824 -0.2658 -0.17306 0.35107 0.020975 0.23674 0.35591 0.075128 0.42476 0.30714 -0.39488 0.12338 0.14515 -0.2432 0.14295 -0.39548 0.37069 -0.23314 -0.46374 -0.31598 -0.01045 -0.24669 0.1257 0.66628 -0.003169 -0.46952 -0.17255 0.10263 -0.064419 -0.31432 0.46365 0.16882 -0.054672 0.40637 0.017669 0.4764 -0.22319 -0.044329 0.7526 -1.7079 0.083548 0.46085 -0.1536 0.81491 0.10168 -0.025901 0.20257 -0.39068 -0.55814 0.16998 0.065381 -0.5829 0.56053 -0.21644 0.054383 0.32086 -0.26935 0.096869 -0.43099 0.11513 -0.032823 0.035694 0.051654 0.11798 0.11132 0.31357 0.26795 0.28973 -0.55341 0.20443 -0.08535 -0.17147 0.15433 -0.45555 0.42746 -0.10125 -0.63069 -0.69468 0.61589 0.49887 -0.17065 0.16104 0.22544 -0.21683 0.090672 0.093425 -0.46216 0.087629 -0.51172 0.27268 -0.43693 0.40658 -0.11494 0.03551 0.24876 0.24502 -0.024468 -0.10851 -0.1661 -0.39707 -0.023507 0.11894 -0.32229 -0.084123 0.03553 -0.20701 0.028041 -0.1987 0.013904 0.265 -0.32332 0.67233 0.44296 -0.47299 -0.12326 -0.59742 0.35403 0.29235 0.066397 0.73576 -0.98608 -0.20708
shareholder 0.27123 -0.23431 -0.39488 0.064579 -0.76116 -0.10649 -0.031711 -0.3079 -0.26272 -1.659 -0.0089227 -0.46086 -0.19283 -0.31066 0.41409 0.077417 -0.087119 -1.3608 -0.56514 0.37123 -0.023635 0.79873 -0.21523 -0.057235 0.28433 -0.2659 -0.27319 0.44767 0.46336 0.060922 0.31845 0.23323 0.38286 0.35043 0.43063 -0.63098 0.14105 0.4731 -0.37913 0.78443 -0.25467 0.5246 0.68402 1.0085 0.0927 -0.03402 0.55677 -0.34905 0.28212 0.26398 -0.22557 -0.99258 0.45591 -0.43259 -0.3172 0.28904 0.15493 0.7253 -0.26946 0.51351 -0.93914 -0.12429 1.59 -0.039339 -0.04586 -0.71062 -0.29281 0.05762 -0.61917 -0.32978 0.54413 0.12056 0.30345 0.10929 -0.94177 -0.67255 -0.71745 0.00090459 -0.17547 0.28669 -0.84617 -0.5001 0.60816 0.64462 -0.83429 -0.022255 -0.053648 -1.1831 0.024284 0.24123 0.11565 0.043193 0.16797 -0.76457 -0.62065 0.3772 -0.35002 0.18136 -0.23428 0.058617 0.037862 0.10762 -0.0034723 0.48154 -0.79249 -0.29389 0.24694 0.20071 0.0034936 -0.74852 0.38753 0.65879 -0.18456 0.78348 -0.01757 -0.013921 -0.25959 -0.44334 0.32217 0.40988 -0.45073 0.24643 -0.13359 0.40375 0.97561 -0.30683 0.06696 0.25524 -0.73569 -0.38871 -0.25801 -0.1001 0.086309 0.25492 -1.1943 0.030019 0.282 -0.40954 0.21578 0.039243 1.3739 -0.20839 -0.84787 0.19148 0.52916 0.50181 -0.4926 -0.21613 1.1719 0.15414 -0.050932 -0.34441 0.087878 -0.28483 0.79432 -0.61899 -0.225 0.36042 -0.16276 0.53827 -0.30722 0.043115 -0.32391 -0.36994 -0.19697 -0.22804 -0.079206 0.38227 -0.48383 0.15377 0.55426 -0.70626 1.2587 -0.34072 -0.12782 0.081237 0.35243 -0.31262 -0.34006 -0.3897 0.66832 0.093021 0.92132 0.022314 -0.11127 -0.26607 0.49401 -0.10644 -0.4822 -0.1377 -0.59389 -0.73475 0.66453 -0.74692 0.3922 -0.3073 0.50926 1.2448 -0.40392 -0.061051 0.53525 -0.55751 0.0025446 0.070307 -0.86088 0.48565 0.13571 -0.012582 -0.22458 -0.25601 0.53544 0.27635 -0.32694 0.75541 0.68964 -0.95796 0.75493 -0.18986 0.4313 -1.2616 -0.58097 0.99922 1.0158 0.37221 0.13983 0.57121 0.028653 0.56544 0.092026 -1.9475 1.0449 0.069822 -0.59752 0.64541 -0.063917 0.37202 0.15102 -0.10018 0.22903 -0.1745 0.42581 0.14378 -0.17627 0.33739 0.28546 0.043966 -0.059946 -0.099431 1.7348 0.28504 -0.60299 0.39686 0.025208 0.52289 -0.73212 0.30548 0.36355 -0.22481 -0.4737 0.34352 -0.061966 0.017606 0.66838 0.14747 0.55174 0.15529 -0.35912 -0.43434 0.095479 -0.22005 -0.79543 0.054614 -0.25108 -0.035162 0.60527 0.12545 -0.50499 0.45955 -0.31277 0.056243 0.073306 -0.64172 -0.21749 0.17953 -0.14538 0.40366 0.019098 0.26849 0.34565 0.38098 -0.34118 -0.20375 -0.49452 -0.81732 -0.33676 0.32523 -0.37814 0.22949 -0.080859 0.2979
major 0.14115 -0.32214 -0.11567 0.27158 0.16216 -0.61544 -0.36802 0.45729 0.29559 -0.42969 -0.56169 0.41887 0.21852 -0.054124 0.61502 -0.12226 -0.47267 0.58148 -0.11318 0.63127 0.27434 -0.15115 -0.23462 -0.13797 0.54966 -0.53811 0.1097 0.24021 -0.20316 0.13862 0.33937 0.63406 0.010019 -0.17516 0.1731 0.090587 0.27921 0.30301 0.52635 0.28558 0.35271 0.35574 0.4125 0.64844 -0.35941 0.0054715 0.55652 0.1545 -0.24682 0.26139 0.38819 0.016515 0.46162 0.4426 -0.40001 0.17354 0.33062 0.49403 -0.095532 -0.37684 0.35454 0.025543 -0.11667 0.44668 0.3998 -0.15282 0.21692 -0.34574 0.077609 0.79713 0.32488 -0.080885 0.19518 -0.22039 0.35414 -0.019241 -0.091432 -0.29343 -0.47647 -0.042724 -0.036696 0.22824 -0.31515 0.047745 -0.027416 -0.076593 -0.26979 -1.7239 0.40711 -0.1597 0.24044 0.19305 -0.70052 -0.77083 0.1808 -0.69821 0.25052 -0.24299 -0.34578 0.19614 -0.9699 0.13123 0.056417 -0.86184 0.039232 0.017193 0.052842 -0.31652 -0.22018 -0.67062 -0.25718 0.31747 -0.27395 -0.066599 0.20687 -0.21631 -0.14657 -0.14015 -0.076369 -1.0032 -0.14482 0.1844 0.051661 -0.20614 0.66515 -0.61899 -0.5417 0.41972 -0.049339 0.15166 0.071806 -0.726 0.18511 0.065785 0.0085078 -0.084244 -0.66519 -0.20341 0.04597 0.054347 -0.28311 0.71947 0.47596 0.028061 -0.11487 0.3347 -0.2376 -0.029388 0.31057 0.045528 -0.47242 0.86107 -0.22961 0.083969 0.41078 -0.17489 0.20068 0.11486 0.33499 0.31774 -0.49786 -0.15077 -0.33614 -0.26218 -0.77282 0.28451 -0.57158 -0.31165 -0.06422 0.38391 -0.42726 -0.2882 0.11599 -0.19297 0.30328 -0.14375 -0.10446 0.40179 0.30716 0.27506 0.20309 -0.16971 -0.084666 0.5105 -0.2295 -0.19426 0.14689 -0.28422 0.08365 0.072203 0.33919 -0.25541 -0.24811 -0.41807 0.00025148 -0.729 0.32705 0.21812 0.27645 0.31296 -0.19131 -0.013171 -0.29593 -0.19263 -0.3761 0.096433 -0.13493 0.42739 0.3779 0.062487 -0.48494 0.46282 -0.53268 0.72877 0.0075608 0.1468 -0.12744 -1.7228 -0.36611 -0.19977 0.34751 -0.39192 -0.0066156 -0.096115 0.052082 -0.53482 -0.19605 0.1317 -0.44154 -0.55005 0.52803 -0.029624 0.21126 0.20413 -0.39961 0.34584 -0.062817 0.062371 0.00034818 0.56452 0.38455 -0.66306 -0.19503 0.60929 -0.14044 0.56126 0.27662 0.46045 0.42931 0.58354 -0.20958 0.14025 0.12762 0.40088 -0.19788 -0.65648 -0.18426 0.14051 -0.12543 0.39965 -0.36907 0.14019 0.079566 0.085122 0.21994 -0.11748 0.077528 -0.012488 0.40512 -0.43798 -0.10273 0.12874 0.11673 -0.71242 0.0865 -0.23111 0.092318 0.18876 -0.069866 0.22033 0.034708 0.0086258 -0.15455 -0.071712 -0.35159 0.071051 -0.64878 -0.48848 -0.0095707 -0.037736 -0.25705 0.20087 -0.49628 -0.36174 0.12231 0.48241 -0.31084 -0.40343 -0.27103 -0.057055
of 0.16628 -0.19296 0.64964 -0.40508 -0.25778 -0.34557 0.31775 0.030079 0.018213 -1.3113 0.11606 -0.21524 0.28631 0.11576 0.29761 -0.45632 -0.65164 -0.022683 -0.37832 0.7549 0.24041 -0.4221 -0.40429 -0.092545 0.35167 -0.85104 -0.014724 -0.06053 -0.70181 0.30356 0.47915 -0.0022926 0.14936 -0.55504 0.34549 -0.25598 -0.094891 0.49264 -0.041048 0.73392 0.095826 0.093093 -0.079776 -0.31558 0.32926 -0.68644 -0.37033 -0.46536 0.1817 0.20552 -0.095099 0.39181 0.060269 0.34579 0.037228 0.45528 -0.11256 -0.61322 0.68645 -0.73966 0.41184 -0.024632 -0.012617 -0.30323 -0.65725 0.25486 -0.39889 0.37104 -0.57593 -0.18133 -0.099712 0.071867 -0.05957 0.06181 0.31986 0.52357 0.4003 -0.060513 0.79225 -0.032798 0.19328 0.22646 0.47483 0.21495 -0.32135 0.1313 -0.29971 -1.1026 -0.16964 0.2316 -0.038557 -0.19335 -0.51324 -0.032264 -0.14389 0.73845 0.7882 0.078677 -0.67259 0.61039 -0.028819 0.073145 0.17321 0.49792 0.066392 0.024398 0.10288 -0.39537 -0.34356 -0.30747 -0.0081813 -0.2502 0.093372 -0.39664 -0.46579 0.59955 -0.479 -0.15154 0.4537 -0.16197 0.49648 0.10997 -0.31965 -0.5247 0.53518 -0.096094 0.1121 -0.21369 -0.13746 -0.23026 -0.32862 -0.247 -0.02074 0.18733 -0.27492 0.42316 -0.19618 -0.010806 0.77306 0.04099 0.12854 0.4649 0.067543 0.17034 0.028764 -0.099587 0.25334 0.48685 -0.61596 -0.06304 -0.34405 0.66307 -0.55462 -0.21679 -0.38333 0.1892 -0.18609 0.73477 -0.030677 -0.61533 0.44963 0.077492 -0.064175 0.10684 0.38615 0.42847 -0.76593 -0.30242 0.02429 -0.76296 -0.15209 -0.076584 0.34538 -0.59132 0.00068595 0.060122 0.87009 -0.27466 -0.60515 -0.40398 -0.08225 -0.21439 -0.32542 0.28281 -0.19675 0.76482 -0.14431 -0.87744 0.97988 0.17282 0.064928 -0.39418 0.19708 -0.39538 0.78931 0.87321 0.38594 -0.75142 -0.28636 -0.4287 0.68202 0.11037 0.15491 -0.30686 0.031211 -0.091414 0.52577 0.37495 0.20819 0.020057 0.033077 -0.12287 -0.48262 0.10569 -0.81 0.41545 0.73377 -0.52316 -0.19824 0.37573 0.28567 -0.47738 0.0099884 -0.088447 -0.18569 0.76013 0.42257 -0.34196 -0.024966 -0.5498 -0.17976 -0.16226 0.12972 -0.2534 -0.1297 0.1291 0.21556 -0.15699 -0.81097 0.00020061 -0.017708 0.0046134 -0.35295 0.12863 -0.15346 0.36751 0.46742 0.58024 0.074536 -0.34149 -0.23795 -0.94156 0.12062 0.047137 -0.43877 0.27705 0.33322 -0.13374 0.047608 -0.51342 -0.5273 -0.20277 0.22699 -0.23149 -0.55915 0.15492 0.018904 0.062731 -0.11555 -0.63703 -0.34301 0.30482 0.0024368 -0.11909 -0.01388 0.32372 -0.15652 -0.13408 -0.099433 -0.2778 0.45534 -0.53379 -0.20581 0.35327 -0.40582 -0.071627 0.39018 0.0095691 -0.22953 -0.014281 0.57836 0.043078 -0.42519 -0.36451 -0.51471 0.076679 0.01919 0.11627 -0.2507 -0.14485
sports -0.085377 -0.66312 0.18214 -0.10405 -0.29649 0.12208 -0.43916 0.72423 -0.022086 -1.5681 0.2665 -0.16043 0.34363 -0.022499 0.047246 0.45978 0.29186 -1.8069 0.78915 0.14704 -0.19848 0.23803 -0.10506 -0.72641 -0.12634 -0.5412 0.46088 0.0039666 -0.14316 0.11428 -0.52562 0.4896 0.10426 -0.10417 -0.17208 0.26788 -0.20068 -0.44585 -0.30081 0.58295 0.47079 0.63294 0.16029 0.73861 0.20045 -0.37901 0.0055138 -0.33284 0.39808 -0.63049 -0.38793 0.34744 -0.22505 -0.026349 -0.13018 -0.45201 0.10935 0.3061 0.21275 0.2859 -0.074144 0.062332 -0.22122 -0.45315 -0.55108 -0.002258 0.1338 -0.70097 0.75331 -0.3923 -0.33642 0.16967 -0.34795 0.34967 -0.4887 -0.2251 0.031399 -0.12315 0.006132 0.36077 -0.36912 -0.25007 -0.11814 0.43499 0.5288 0.30597 0.07132 0.45334 -0.15457 0.49204 -0.040733 -0.28661 -0.61881 -0.12544 -0.098715 -0.21657 -0.3887 -0.29546 0.14805 0.52436 0.51882 0.050409 -0.11139 0.24611 -0.018437 -0.26311 0.31353 -0.8194 0.093923 -0.65458 -0.42577 0.1341 -0.080573 0.70233 -0.26811 -0.26922 -0.23594 0.8873 -0.037475 0.31572 0.31716 -0.095021 -0.4811 0.26604 -0.53431 0.35547 0.11285 0.043625 0.30828 -0.55479 0.57663 -0.41084 -0.75352 0.069933 0.1051 -0.026723 -0.32732 -0.64938 -0.34119 0.054221 0.84593 -0.14537 0.28802 -0.36624 0.025083 0.65344 0.77698 0.62204 0.16729 0.24103 -0.57392 -0.16576 0.42048 -0.022753 0.088534 -0.31673 -0.013572 -0.34204 -0.063385 0.26279 0.69665 -0.35603 0.35997 0.79824 0.68052 0.20717 -0.31347 0.17325 -0.43647 -0.014863 0.07471 -0.36704 0.34468 0.13992 0.4169 0.1678 -0.52797 0.4048 -0.44197 0.13537 0.042732 -0.026229 0.008996 -0.017563 0.63062 -0.16184 0.89204 -0.035696 0.082157 -0.3628 0.25074 0.039565 0.17259 -0.16329 -0.0036387 -0.47059 0.013337 0.17639 0.25211 -0.87165 -0.457 -0.066171 -0.19249 -0.24777 -0.78253 -0.39691 -0.5339 0.58915 0.47097 -0.37316 0.36775 0.045177 0.71849 0.86065 -0.21453 -0.4118 -0.19192 -0.52176 0.14731 0.55323 -0.29228 -0.49258 0.34446 -0.79014 -0.89455 -0.12519 -0.58019 -0.25771 0.18889 0.15997 -0.13232 0.3946 0.068853 0.63219 0.10387 0.060743 0.15448 0.17479 0.074911 -0.18328 -0.48053 0.30994 0.21254 -0.17259 -0.61812 0.28224 0.3646 0.23573 -0.31487 0.22347 0.33932 -1.2408 0.18594 -0.21584 -0.53497 -0.30514 -0.21868 -0.011888 0.24037 -0.67261 0.20971 -0.38855 0.22653 0.61917 0.048182 0.67151 -0.27128 -0.17112 -0.11218 0.050474 0.23504 0.17571 0.097331 0.047369 -0.40751 -0.20034 0.033841 -0.16944 -0.42122 -0.15182 -0.077381 0.059882 -0.28877 0.091311 0.29706 0.1751 -0.5122 0.45077 -0.71033 0.56002 0.14297 0.13208 -0.45327 -0.38346 0.35651 -0.39658 0.72611 -0.18376 0.093575 -0.075636
team -0.11642 -0.98323 -0.15665 0.14185 0.39633 0.47167 -0.23779 -0.35196 -0.27231 -1.7904 0.42483 -0.03107 -1.3159 -0.0017234 1.2633 -0.086122 0.41483 -1.3179 0.26838 0.97243 -0.13803 0.11815 0.52166 0.34622 -0.0085211 0.34623 0.39027 -0.98989 -0.15208 -0.43547 0.55441 -0.58867 0.34304 0.018665 -0.29693 0.081826 0.51681 -0.15987 0.066429 0.086245 0.1324 0.51246 -0.011928 0.067631 -0.38778 -0.40227 0.71572 -0.49415 0.080948 0.1592 0.47818 -0.30752 0.53465 -0.011542 -0.28432 -0.62368 0.47685 0.78596 0.42393 0.33387 -0.49512 0.27866 -0.22529 -0.83486 -0.55166 -0.27776 0.092651 0.078328 0.16214 0.093558 0.3908 0.40932 0.4641 0.37303 -0.45121 0.23323 -0.60835 1.0437 0.79381 -0.63473 0.82768 -1.0721 0.44738 -0.18528 0.31916 0.086911 -0.19153 -0.26595 -1.1964 0.74342 0.068785 0.1619 0.27262 0.43448 -0.57257 0.25742 0.53597 -0.6697 -0.63009 0.057373 0.54481 -0.66839 0.70098 -0.11865 0.025262 -0.46878 -0.023293 0.98851 0.6737 -0.0736 -0.99926 0.82398 -0.099714 0.11659 0.014227 0.27837 -0.56608 0.33927 0.67892 -0.62635 -0.33334 -0.31497 0.35942 0.038125 -0.38601 0.10099 -0.11591 0.51499 -0.15147 0.32152 -0.24898 -0.023785 -0.0070653 -0.59457 -0.29196 0.15838 -0.18543 0.14848 -0.094811 0.2963 0.43092 -0.72984 0.27727 0.46655 0.20296 -0.14251 -0.19741 -0.58863 -0.70119 0.41172 -0.18457 -0.064843 0.3244 0.62094 0.1588 0.26161 0.54409 -0.24098 -0.40412 0.44109 -0.16302 -0.070715 0.18247 0.57822 0.55637 0.24496 0.36587 -0.31071 -0.38156 0.29322 0.21937 -0.2974 0.17271 0.31162 0.57856 -0.3513 0.093116 0.20773 -0.78967 0.23781 0.59804 0.034436 -0.31632 0.00053613 0.76079 0.18438 -0.37874 -0.79337 0.34314 0.75481 0.2202 -0.84346 0.35346 0.6465 0.43585 -0.38006 0.22369 0.41753 0.016914 -0.59654 0.15303 0.3333 -0.18234 -0.53143 0.4428 -0.62422 -0.094649 -0.90865 -0.36785 0.23239 0.32704 -0.37191 0.68955 0.91923 -0.39307 -0.43957 0.045196 -0.19461 0.36488 -0.024281 0.073985 0.42511 0.91349 -0.47185 0.23224 0.44567 -0.53589 -0.30737 -0.38702 -0.56138 0.019815 -0.024127 -0.61609 -0.13383 -0.029927 1.0944 -0.34636 -0.06644 0.90145 -0.11337 -0.20207 -0.12248 0.31252 -0.18835 -0.72585 -0.00018877 0.12075 -0.38833 0.22882 -0.18199 -0.35424 0.71817 -0.34056 -0.099074 -0.32672 -0.66958 -0.027948 0.38166 -0.1613 -0.20984 0.44551 -0.25129 0.10927 0.10319 -0.52087 0.86237 -0.75104 0.9884 -0.80662 0.39185 0.099284 0.27973 -0.21934 0.062692 -0.42496 0.24172 0.56774 -0.96977 0.39232 0.60511 -0.14859 -0.13513 -0.13007 0.57604 -0.4551 0.27287 0.092024 0.36064 0.23857 0.17368 0.40027 -0.10752 -0.34792 -0.25101 0.2959 0.71155 -0.25759 0.36362 -0.60282 -0.62416
place 0.37879 -0.039377 0.0051613 -0.3939 -0.098496 0.20984 0.20041 0.026491 -0.091143 -1.3699 -0.4678 0.2075 -0.0086585 0.042296 0.32676 0.014487 0.13496 -1.1256 1.0052 -0.013554 -0.42529 -0.13973 0.34788 0.0106 0.074978 -0.18652 0.28216 0.016077 -0.5001 -0.18019 0.85853 0.038045 0.7084 -0.6206 0.38321 -0.28875 0.26429 0.51792 -0.20273 0.08972 -0.086702 0.62352 -0.16763 -0.34321 0.62147 0.19707 -0.17093 -0.33073 -0.1786 -0.58726 0.20046 0.17436 0.41052 0.1331 0.53942 -0.41638 0.29996 -0.088695 -0.0043861 0.052941 0.62775 -0.10535 0.068989 -0.37825 -0.19109 -0.26388 -0.049781 0.020194 -0.44967 -0.18424 0.014689 0.13467 -0.16084 0.27336 -0.34695 -0.31947 0.10535 -0.044092 -0.03617 -0.39286 -0.1797 -0.50384 0.67827 0.23122 -0.32577 0.46016 -0.046061 -0.12088 -0.19182 -0.086009 -0.15924 0.024169 -0.096835 -0.42034 0.22297 0.83353 0.13256 -0.091484 0.72722 0.35141 -0.063151 -0.47123 0.29928 0.972 0.021555 0.020242 -0.32229 -0.49667 0.17832 -0.22507 -0.3181 -0.075043 -0.15903 -0.16901 -0.27065 -0.062243 -0.77346 0.20277 -0.1621 -0.39514 -0.18702 -0.068836 -0.13572 0.70768 0.031526 -0.57063 -0.082567 -0.21426 0.19726 0.68133 0.46495 -0.21599 0.14847 -0.76671 -0.29622 -0.33775 -0.11211 0.10279 0.014394 0.49444 0.7399 0.13942 -0.51868 0.3505 0.06279 0.020914 -0.070459 0.27783 0.57057 -0.42496 0.43422 0.41883 0.30242 -0.60227 0.53622 0.0035464 -0.08544 -0.005255 -0.044923 -0.03565 0.0015102 0.088331 0.23091 0.35095 0.8219 0.16456 0.2533 0.67149 -0.11382 -0.098552 0.73715 -0.3075 -0.064902 -0.31589 0.32012 0.12747 -0.37075 0.17502 -0.67226 0.07222 0.21636 0.064286 0.20019 0.27247 0.32481 0.21098 0.37439 -0.65814 0.17659 -0.035163 0.43469 0.17472 0.090189 -0.048281 0.23229 0.25747 0.48678 -0.026603 0.0093396 -0.27702 -0.010451 -0.3011 -0.21401 -0.15223 -0.0028637 0.14783 -0.24204 -0.36982 0.41105 -0.63634 0.23978 -0.10371 -0.59769 -0.027608 -0.48497 -0.097699 0.22076 -0.27061 0.39589 -0.37566 0.020541 -0.37685 -0.048317 -0.31692 0.039107 0.1663 -0.16806 0.32706 -0.63208 -0.60788 0.23457 0.6033 0.53946 0.37828 -0.1506 0.18657 0.11044 0.0016631 0.31913 -0.88808 0.08546 0.26333 -0.3247 -0.34011 -0.34475 -0.32845 0.15309 0.13267 -0.1344 0.13736 -0.69748 -0.78306 0.45677 0.8631 0.0023652 -0.32068 0.11486 0.092708 -0.10735 -0.037789 -0.014162 -0.36393 0.1764 -0.4701 0.23393 0.48287 0.32111 0.0045597 -0.75094 0.32902 0.45957 0.32167 0.083719 0.48087 -0.50589 0.41853 -0.095181 -0.33573 -0.14972 0.066895 0.048321 -0.35219 -0.33185 0.029544 0.05054 0.59904 -0.20539 0.62959 -0.42352 -0.35096 0.6303 0.0093722 -0.26251 0.038042 0.37499 0.49653 0.16992 0.6557 0.057514 0.042283
lived 0.59093 -0.44222 -0.051429 -0.18393 -0.019657 0.16028 -0.33253 -0.11271 -0.18442 -0.91563 -0.39043 0.99817 -0.29111 0.83733 0.0041661 0.88729 0.012838 -0.76391 0.01306 -0.0077353 0.17387 -0.24946 0.68128 0.16773 0.043389 -0.53265 -0.037021 -0.20924 -0.29607 0.13369 0.55355 0.44695 -0.10734 -0.14787 0.33674 0.010778 0.48662 -0.43834 -0.58509 1.1126 0.050461 0.10018 -0.098199 -0.046861 0.35935 -0.031182 0.37871 -0.83903 0.43157 0.052387 -0.27963 -0.52726 -0.63768 -0.099233 0.35412 -0.032674 0.046284 -0.41546 0.72169 0.29352 0.046628 0.18731 0.049834 0.37167 0.0029638 0.19571 -0.23893 0.21696 -0.045383 0.24811 0.029731 0.065784 -0.34534 -0.17254 -0.35833 -0.096271 0.015783 -0.1598 0.35359 -0.48091 0.29204 0.1119 0.35316 -0.63013 0.30468 -0.28704 0.18957 -2.1414 0.077239 -0.0086931 -0.131 -0.081901 -0.8102 0.14565 -0.13774 -0.099193 0.50931 -0.199 0.28004 -0.2442 0.33388 0.43984 -0.011943 -0.44019 -0.39129 -0.34058 0.17906 -0.79191 -0.45501 -0.56994 0.11284 0.40537 -0.18157 -0.5521 0.30446 0.044249 0.25989 -0.16465 -0.42564 -0.076102 -0.3414 0.078641 0.50905 -0.020367 0.88771 -0.095314 -0.14206 0.18928 -0.02387 -0.13613 -0.16603 0.31653 -0.60419 0.0088543 0.11354 -0.22624 -0.6589 0.14094 -0.26873 0.32083 -0.026011 0.19827 0.19638 0.065053 -0.0135 -0.10653 -0.33098 0.26452 0.16266 0.25684 -0.8031 0.39705 0.10409 -0.47892 0.074265 -0.12614 0.040437 -0.11544 0.26674 0.12339 -0.44988 0.126 0.78669 0.22666 -0.038379 0.78044 0.047023 -0.51631 -0.21557 -0.14587 -0.34917 0.21345 0.37622 -0.090935 0.01781 -0.014762 -0.48488 -0.00070419 -0.30477 -0.83806 -0.24715 0.025752 -0.31795 0.26471 0.28798 -0.40001 -0.14159 0.0020121 0.67713 -0.046185 -0.44927 0.67122 0.16256 0.81999 -0.1443 -0.4686 -0.38124 -0.15905 0.42762 -0.10075 0.035899 -0.26742 -0.25957 -0.026388 -0.137 0.22444 0.071832 -0.36305 0.30201 -0.30482 -0.04042 -0.17866 -0.41866 0.47865 0.32634 -0.26934 0.62769 -1.5273 0.17547 0.2269 0.84754 0.040178 0.036754 -0.39289 -0.30566 -0.3341 0.1801 0.73388 -0.74656 -0.21767 0.42645 0.4011 0.24296 0.39495 -0.19707 -0.18411 0.48181 -0.029932 0.036071 0.0025143 -0.25353 -0.54135 -0.042954 0.85386 -0.12652 0.5311 0.11807 0.017659 0.13112 0.17218 0.35471 -0.648 0.46163 0.085774 -0.10577 -0.4503 0.12655 -0.0011475 -0.097887 0.18369 -0.17808 -0.15247 0.15752 0.22099 -0.4337 0.32892 -0.033432 -0.12691 -0.63825 0.65929 -0.84221 -0.14049 0.13711 -0.11651 -0.58558 -0.093006 -0.17478 0.60423 -0.24717 0.28606 0.17322 -0.09497 -0.49489 -0.22107 0.12384 -0.017881 0.13737 0.03753 -0.42553 0.7356 0.20118 -0.12873 -0.49107 0.22066 0.0095519 -0.1936 0.074155 0.3798 0.47434 -0.068302
birth 0.13445 -0.3458 -0.46509 0.26454 0.21674 -0.24897 -0.21263 -0.43015 0.2502 -0.17434 -0.51762 0.9358 -0.35653 1.16 0.020639 0.10553 -0.21757 0.1009 0.2417 -0.29289 0.40123 0.15071 -0.089792 -0.50281 0.047643 -0.012584 0.28782 -0.047349 -0.46289 -0.26341 0.18041 0.67112 0.81589 -0.25466 0.37093 0.35188 0.18103 -0.88977 0.30395 0.036456 0.38224 0.29226 0.05892 -0.32433 0.57276 -0.35544 0.10459 -0.40896 0.16707 -0.086407 0.33285 -0.11105 -0.50921 -0.24758 0.47346 -0.083638 1.0902 0.11152 -0.23903 -0.6592 0.67809 0.23364 0.077552 0.88969 -0.24716 0.87168 -0.2361 -0.14484 0.017593 -0.44579 -0.23271 0.068222 -0.71333 -0.1556 0.52048 0.46279 -0.50028 0.031438 0.53243 -0.61135 0.59941 0.23604 0.17597 0.28903 0.13803 -0.44179 0.062247 -2.7987 -0.10548 0.69268 -0.51719 0.038446 0.45471 -0.1114 0.25087 -0.40793 -0.050385 0.09606 0.073853 -0.18163 -0.51265 -0.0823 0.35932 -0.87124 0.10805 0.82908 -0.07231 -0.13281 0.049865 0.032171 -0.49234 0.37919 0.38065 -0.221 0.38689 -0.78533 0.35762 0.017829 -0.22365 0.50313 -0.01583 0.47688 -0.073825 -0.45055 0.71273 0.18982 0.67555 -0.14444 0.28232 -0.57462 0.44158 -0.1209 0.054112 -0.10647 -0.10803 -0.12162 -0.25274 0.33262 0.24291 0.62082 0.26959 0.63761 -0.01123 0.35143 -0.095858 -0.33666 -0.24499 0.24354 0.87602 0.020387 -0.19778 0.0406 0.21813 0.3678 -0.2832 0.10409 -0.5467 -0.97205 -0.1914 -0.12958 -0.25404 -0.4554 0.56108 -0.24844 -0.14574 0.66585 0.098079 0.26666 0.19902 0.00078951 -0.13485 -0.25156 0.1155 0.099593 0.017921 0.052296 -0.40858 -0.515 0.35649 0.13142 0.55765 0.04876 0.040626 0.052458 0.41959 -0.38422 -0.48118 0.087496 -0.53769 -0.056726 -0.65034 -0.072283 -0.46025 -0.24375 0.19376 -0.56017 -0.19208 0.63854 0.23661 -0.057837 0.61911 0.78193 -0.023984 -0.1444 -0.12513 0.00653 -0.35434 -0.77277 0.048296 -0.10687 -0.050812 -0.19503 0.26181 0.55662 -0.058378 -0.4868 -0.20948 -1.0615 -0.15106 -0.70688 0.5414 0.19578 0.35319 -0.59801 -0.1453 0.36498 0.16131 0.12275 0.1136 -0.32965 0.61054 -0.26592 -0.072402 -0.4531 0.25197 0.14389 -0.24684 0.99311 -0.27271 0.085973 0.24837 -0.28863 0.061764 0.66253 0.12841 0.61604 0.49699 0.80907 0.50818 -0.038842 0.1442 -0.78922 0.39202 0.12479 -0.44514 -0.14136 -0.44841 0.2345 0.11575 1.0632 -0.20033 -0.015611 0.44744 0.40275 -0.38462 0.4178 -0.39392 0.12049 -0.4488 -0.2052 -0.47121 0.57573 0.31155 0.82248 -0.22475 0.34188 0.42208 0.52072 -0.64097 -0.045445 -0.11118 -0.054908 -0.14401 0.085272 -0.12277 0.1075 -0.30689 -0.17854 -0.21433 -0.28476 0.68304 0.20546 -0.56047 -0.24475 0.2528 -0.12644 -0.015286 0.532 -0.045375 -0.35986
advisors 0.74182 -0.45822 -0.065082 0.0013745 -0.622 -0.043624 0.086323 -0.13306 0.5246 -1.1279 -0.22133 0.32345 0.41234 -0.080556 0.36002 0.35576 -0.21837 -0.96031 0.067274 -0.1526 0.19555 0.54629 0.38759 -0.17804 0.040193 -0.23755 -0.37075 0.061655 -0.039652 -0.082055 0.70635 0.2908 0.3 1.1526 0.18618 -0.019322 0.65954 -0.32668 0.29561 -0.016395 -0.40315 -0.49661 0.46499 0.55168 0.13232 -0.030947 0.38152 -0.61678 0.56136 -0.067397 -0.07179 0.33411 0.061419 -0.11624 -0.33034 0.28527 0.026224 0.43653 0.081189 0.74651 0.71421 -0.60012 0.37823 -0.046952 0.42492 0.090902 0.49528 0.35334 -0.21675 0.39929 -0.37019 0.10764 0.3254 -0.055942 -0.044726 -0.23117 -0.54314 -0.52018 0.086489 -0.11909 -0.65766 0.33222 0.42604 0.12706 0.15642 0.47983 -0.060399 -0.69749 0.36292 -0.97643 0.0048629 0.70755 0.28823 -0.27932 -0.43492 0.23577 -0.2829 -0.15681 -0.42085 0.069497 -0.25931 0.0047225 -0.48663 -0.030545 -0.73648 -0.037497 0.4698 0.4933 0.42579 -0.013581 -0.3045 0.22996 -0.046591 0.27287 0.14098 -0.43527 -0.81853 -0.69401 0.14139 -0.20364 0.36932 0.55737 0.21883 -0.10146 0.46816 -0.53972 -0.12338 -0.068804 -0.14383 -0.24771 0.32119 -0.34295 -0.46902 0.23358 0.041375 0.32362 -0.19192 -0.0068294 -0.28057 0.37408 1.3767 -0.39921 0.22887 0.080844 0.19145 0.24896 0.2537 -0.23371 0.55408 -0.16625 0.083535 -0.27956 -0.88895 -0.094047 -0.48763 0.14316 -0.054988 0.73608 -0.34141 0.52246 -0.036928 -0.15302 -0.46045 -0.21614 0.1967 0.48503 0.091296 -0.752 -0.51013 -0.16991 0.33592 -0.85547 0.86657 -0.17686 0.29186 0.60996 -0.017757 0.69738 -0.32369 -0.071653 0.59713 0.27876 0.020562 0.21426 0.0061841 -0.37714 0.22369 -0.44019 -0.5211 -0.34183 -0.081978 0.024104 0.25922 0.14786 -0.00096546 -0.32287 0.85992 0.05193 -0.0043627 -0.10849 -0.33123 0.46564 -0.38702 -0.18563 -0.60884 0.64867 1.1573 -0.80061 0.69592 -0.044832 -0.69273 0.29497 0.018147 1.0784 0.75168 -0.23901 0.59806 -1.5283 0.26557 -0.089803 -0.040117 0.61422 -0.17245 0.24145 -1.2298 -0.078981 -0.3879 0.9711 -0.155 -0.77589 -0.78716 0.62514 -0.71878 0.10098 -0.50697 0.31905 -0.24934 -0.6955 0.13784 -0.16064 0.028718 -0.46742 -0.41158 -0.17614 -0.5736 -0.77827 -0.35949 -0.48644 0.52446 0.18087 0.21136 0.50573 0.61921 0.13739 -0.26963 -0.62453 -0.23969 -0.015116 -0.53041 0.25295 0.0405 -0.39206 0.051675 -0.028197 0.43817 0.18405 -0.57673 0.29085 -0.072358 -0.10137 -0.51753 0.70583 0.20055 0.17885 0.019154 -0.38659 0.55734 -0.84259 0.09694 -0.45098 0.94319 0.15997 0.14786 0.61965 1.0276 0.045151 -0.26525 -0.33999 -0.38259 0.78057 0.25252 -0.64063 -0.22748 -0.53929 -0.58419 0.10438 -0.065245 -0.0052255 -0.072744 -0.47256
children -0.55015 -0.45846 -0.31607 0.45502 0.46818 -0.42702 -0.55295 0.60066 -0.39764 -1.0289 0.28106 -0.23215 -0.56808 0.73213 0.78791 -0.10681 -0.79411 -1.115 0.33688 -0.037754 -0.45852 0.23032 0.63542 -0.51174 -0.5372 -0.41691 -0.004403 -0.10446 0.16871 0.1936 -0.092788 -0.41072 0.47933 0.61061 0.33477 0.56649 -0.33832 0.2195 0.21572 1.5157 -0.038944 -0.24631 -0.6611 0.52729 0.56715 -0.28074 -0.056618 -0.54869 0.060924 0.60606 0.16618 -1.3623 0.72503 0.065924 0.22731 0.81511 0.78438 0.076957 0.1844 0.12031 -0.2803 -0.58686 -0.49895 -0.37775 0.43233 0.082756 -0.51729 -0.86494 -0.48985 -0.73086 -0.8538 -0.62705 0.15984 -0.26676 -0.49412 0.0972 -0.26442 0.37879 0.0007767 -0.56396 -1.1124 0.77577 0.48633 0.27661 -0.38148 0.44779 0.026487 0.079759 0.65089 -0.82807 0.53304 -0.72954 -0.015049 -0.49268 0.29595 -0.16672 0.42368 0.27127 1.5477 0.096162 -0.36929 -0.8697 0.50087 -0.20569 0.12682 -0.55722 -0.25629 -0.66167 0.37863 -0.23972 0.040382 1.3597 -0.078641 -0.13924 -0.089103 -0.065478 -0.023339 -0.021315 -0.99641 0.2717 -0.47146 -0.32696 0.46963 -0.10088 0.29812 0.24871 -0.016149 0.14355 0.38908 -0.3415 -0.041209 -0.62351 0.040083 -0.99185 0.56085 -0.060658 0.11004 0.4394 -0.72075 -0.19427 0.99113 0.11343 -0.76743 -0.58116 0.05218 0.97345 0.39134 -0.3279 0.025985 -0.46873 -0.61528 -0.065594 -0.8145 -0.28354 1.0567 0.079312 -0.09774 0.5963 0.32476 0.021995 -0.51107 0.35113 0.048294 -0.54686 0.87795 0.35163 0.21333 0.99969 0.11645 0.16715 0.3516 -0.53489 0.91173 0.32334 0.023215 -1.0116 0.21565 -0.25832 -0.59022 -0.13993 -0.59319 -0.31703 -0.56509 -0.12076 0.57973 -0.51142 0.30573 -0.7487 -0.97724 -0.88158 -0.55666 -2.0157 -0.077626 -0.2325 -0.30347 -0.4855 0.048283 -0.88935 -0.62067 -0.44844 0.33106 0.26181 0.91577 0.20158 0.031206 -0.24342 0.063098 0.058484 -0.0013079 0.045641 -0.27103 -0.064639 0.0048219 -0.089905 -0.041682 0.39023 -0.28036 -0.33324 0.21937 -0.76986 0.77246 -0.37869 0.098797 -0.25748 0.36232 0.04131 -0.38492 -0.65037 -0.67673 -0.067128 -0.75058 -0.59129 0.097218 -0.25226 -0.13577 -0.26812 0.41279 0.062635 0.26568 -0.33297 -0.83532 0.18271 -0.2912 -0.17115 -0.066015 -0.3467 -1.5521 0.47778 -0.22568 0.42963 -0.040726 0.68026 0.20192 -0.085301 -0.38948 0.094164 -0.36042 0.0050408 0.030785 -0.78798 -0.073085 -0.51512 -0.88749 0.31726 -0.51342 0.61342 0.030618 -0.42917 -0.92494 -0.085708 0.49324 -0.067364 -0.87462 0.60624 -0.11746 -0.21314 0.4223 0.14755 -0.24354 -0.73619 -0.18501 -0.079652 -0.28462 -0.12187 -1.0539 0.44233 -0.24887 -0.28346 0.23447 -0.65655 -0.023992 -0.41656 0.41976 0.30278 0.0435 -0.0061474 -0.002615 -0.1336 0.0010286 -0.97619
geographic 0.46516 -0.51496 0.48738 -0.22277 -0.18294 0.49643 -0.17756 0.36822 -0.076442 -1.6174 -0.41393 0.3001 -0.74316 0.091616 0.66354 0.57814 -0.29273 -0.42199 -0.019935 -0.017148 0.27689 0.14519 0.21947 -0.27259 0.78746 -0.59144 -0.21905 0.17288 -0.73 -0.4088 -0.30029 -0.44865 0.31547 -0.22531 -0.088961 -0.61398 0.32283 -0.06497 -0.24774 0.48648 0.25445 0.081334 0.75043 0.13481 0.40642 -0.33879 0.6408 0.078735 -0.16594 0.41936 0.30472 -0.79486 0.048702 -0.89603 -0.6555 -0.039937 -0.41843 0.30366 1.1185 -0.075456 0.13228 -0.37868 -0.12684 0.35821 0.08828 -0.20625 0.59067 -0.75599 -0.038109 0.088282 0.23738 -0.18841 -0.21465 0.10009 0.1941 0.12443 -0.56913 -0.26984 0.58384 -0.47022 0.10637 0.41614 0.32949 0.034398 0.62714 0.062278 -0.31299 -1.263 0.12584 -0.073841 0.041979 0.25114 -0.21606 -0.008178 0.74062 -0.22582 -0.87669 -0.013666 0.62229 0.5545 -0.34695 0.24002 -0.38571 -0.00031128 -0.15511 0.15968 -0.47279 -0.34403 0.34113 -0.51903 0.34117 0.77194 0.28202 -0.35875 -0.34697 -0.67727 -0.18471 -0.58853 -0.045824 -0.29435 -0.16326 0.35601 -0.057217 -0.67274 -0.11459 0.017815 -0.0010952 0.32848 -0.2176 0.016911 -0.022892 -0.40957 0.23712 -0.51322 0.16264 0.10767 -0.069281 -0.24301 -0.29393 -0.18689 1.3482 0.25356 -0.57904 -0.46817 -0.64139 0.20117 0.31255 -0.27033 0.1889 -0.63746 0.081522 -0.084833 -0.21281 -0.16714 -0.39657 -0.27783 -0.69366 0.32719 -0.1725 0.61535 -0.25126 0.00057404 0.15087 0.3359 -0.57949 0.84856 -0.14275 0.29072 0.12659 0.092507 -1.0183 -0.9207 -0.053126 -0.034833 0.72914 0.60045 -0.48783 -0.2662 -0.25558 0.39292 0.8146 0.043363 -0.1216 0.19981 0.090218 -0.50471 -0.63907 -0.44129 0.18596 -0.56641 0.26574 -0.074753 -0.32838 -0.33968 0.14927 -0.28534 0.50768 1.0453 0.41319 0.074114 0.24939 0.28948 -0.069294 -0.23873 -0.66444 0.22381 0.20461 -0.44532 -0.38386 0.32234 -0.32428 -0.12098 -0.22173 -0.4336 -0.18504 -0.067113 -0.31522 -1.1535 0.26306 0.016798 0.4068 0.32525 -0.20154 -0.54921 -0.17671 -0.69181 0.14411 0.87605 -0.07148 0.10074 -0.028381 -0.22988 0.47226 -0.13355 0.17714 0.49592 -0.1101 -0.34532 -0.050756 0.42099 -0.53407 -0.2401 0.32423 -0.13204 0.37696 0.25492 -0.048422 0.82836 -0.16671 -0.43674 -0.12483 0.071291 -0.66742 0.42071 0.54291 0.030103 -0.018685 0.63044 0.071904 0.77735 -0.4589 -0.3794 -0.51168 -0.16969 0.17602 0.014055 0.40353 0.31491 0.1452 0.50092 -0.71114 0.26503 0.2216 0.026542 0.15383 0.11893 -0.60682 0.10497 -0.22185 0.035249 0.058261 -0.077259 -0.7579 0.84067 -0.078763 -0.33993 -0.1709 -0.037332 -0.40063 0.61413 0.41928 0.061436 -1.0471 -0.45004 0.12271 0.15326 -0.76289 -0.022452 -0.51485 -0.95718
distribution 0.075213 -0.014463 0.36435 -0.29911 0.055873 -0.12035 0.010022 0.13731 -0.31362 -1.899 -0.42456 0.40734 0.053408 -0.37703 -0.025466 -0.13845 0.15379 0.63744 0.26169 0.18949 -0.34814 0.48304 -0.26319 0.72176 -0.34815 -0.61694 -0.22674 -0.03344 0.040695 -0.67313 -0.43484 -0.26165 0.28442 0.39599 -0.22028 0.24453 0.2283 -0.4341 -0.1796 0.31892 0.11425 0.70121 0.95045 -0.027713 0.28314 0.081539 0.42698 0.13453 -0.14844 0.11006 0.25044 -0.0030466 -0.0078133 -0.13851 0.22317 -0.18434 0.25462 0.078409 0.23976 0.005689 0.44837 -0.32571 0.59668 1.0114 0.069977 -0.27727 -0.026243 -0.5315 -0.0075425 0.50632 -0.36186 -0.0099145 0.012311 -0.12515 -0.10942 0.52158 -0.81684 -0.2101 0.2637 -0.64633 -0.14066 0.33345 0.64631 0.31105 0.28618 0.16582 -0.31889 -1.5227 0.28365 -0.21532 0.09225 0.017939 0.36783 -0.18213 0.29865 0.062221 -0.65921 -0.054025 -0.37402 0.15747 -0.54706 0.092092 -0.04976 0.086766 -0.4206 0.12837 0.22345 -0.43823 0.0537 0.091803 -0.25816 0.043265 -0.35932 -0.3123 0.34138 -0.28472 -0.098094 -0.36061 0.059202 0.08496 -0.29217 0.23579 0.30947 -0.44751 0.75904 -0.35951 -0.20694 0.13308 -0.04802 0.27149 0.49209 -0.66428 0.26523 -0.22829 -0.2664 0.62437 -0.16136 -0.55413 -0.24829 -0.32235 1.1921 -0.14689 -0.27832 -0.39185 -0.86787 0.10879 0.34649 -0.46412 0.63216 -0.25175 -0.33247 0.31549 -0.18677 -0.10049 -0.18442 -0.36105 -0.48958 -0.028717 -0.11952 1.0346 -1.029 -0.04105 -0.14598 -0.077004 -1.1587 0.13227 -0.24088 0.27035 -0.14126 0.49408 0.053784 -0.81242 0.38358 -0.012512 0.36243 0.2991 -0.15893 -0.098977 0.27909 0.3879 1.0307 0.32924 0.20304 -0.056582 -0.22607 0.033146 -0.62371 -0.43126 0.29703 0.16933 -0.018072 -0.22576 0.41865 -0.12779 0.055623 -0.054586 0.087143 0.51889 0.41484 0.033018 0.34105 0.33363 0.37742 -0.51326 0.26415 0.16795 0.14637 -0.30845 0.35038 -0.53594 0.13396 -0.18741 -0.21691 1.1411 0.05533 0.13651 -0.00082386 -0.8774 0.41222 -0.041958 -0.039528 0.18794 -0.086354 -0.55255 -0.1429 -0.16671 0.28622 0.39592 -0.68311 -0.23355 0.64972 -0.23735 -0.46123 0.45756 0.11425 0.20856 -0.33478 -0.0097922 -0.19981 0.0051461 0.091631 0.034682 0.26799 -0.15159 -0.069807 0.17128 0.22112 0.4819 0.31284 -0.050251 -0.21173 0.68986 -0.087533 0.62419 -0.092966 -0.33244 -0.31346 -0.15468 -0.30935 -0.032679 -0.22313 -0.14186 -0.09328 0.1871 0.85111 -0.22253 0.45666 0.066838 0.70814 -0.56141 -0.86354 1.0491 0.20422 -0.31527 0.26001 -0.14638 0.075666 0.256 -0.0668 0.38146 0.072796 0.10813 -0.048926 0.50834 -0.15954 0.14383 -0.39195 -0.90308 0.015952 -0.20019 0.13896 -0.60083 -0.67714 -0.19556 -0.086511 0.096904 0.061614 -0.18099 -0.31919 -0.61446
founded 0.56569 0.13857 -0.35243 -0.91288 0.056147 -0.11517 -0.4329 0.41887 0.30683 -1.3705 0.04109 0.27147 0.14194 0.82109 0.29649 0.061439 -0.49368 -1.004 0.39237 0.27594 0.30472 -0.03044 0.98543 0.32419 -0.086763 -0.45152 -0.70431 0.48497 -0.40037 0.32142 0.31869 0.0041857 0.40973 -0.35804 0.20956 0.54343 -0.093317 -0.32055 0.34727 0.83282 0.30693 0.10978 0.49727 0.34725 0.34324 -0.35633 0.83208 -0.48929 -0.33399 0.25221 -0.20772 0.070463 -0.41537 0.075891 -0.093202 -0.15699 0.54241 -0.24046 0.59251 -0.086303 -0.16827 0.53517 0.41605 -0.12992 -0.44208 0.40208 -0.0097411 -0.071881 0.099573 -0.30978 -0.76998 -0.077248 -0.14852 -0.1535 0.13619 0.071701 -0.14161 -0.21278 -0.13067 -0.24746 -0.34819 -0.48333 0.72493 -0.5956 -0.17733 -0.069509 0.18292 -1.6108 0.050239 -0.042335 0.35805 0.50241 -0.152 -0.044532 0.095896 0.11269 -0.55776 -0.047437 0.29028 -0.25525 -0.35156 0.32573 -0.2597 -0.056624 -0.60331 -0.61761 -0.51192 0.093963 0.081541 -0.59747 -0.33949 0.27794 -0.0063208 -0.45344 0.084178 0.21 0.3966 -0.11127 -0.2853 0.10597 0.077632 0.53271 -0.0012111 0.67812 0.5888 -0.051437 -0.23763 -0.2029 -0.22819 0.16521 -0.078136 -0.19733 -0.76369 0.52609 -0.087572 -0.17017 -0.2436 -0.18075 0.25682 -0.35989 0.94322 0.34371 0.3121 0.40674 0.051429 -0.0062416 0.25751 -0.14317 0.24018 -0.20217 -0.32834 0.097744 -0.038093 -0.52982 -0.11522 0.82322 -0.58652 -0.22865 0.19443 0.80461 0.057549 0.10768 0.79894 0.12235 0.17419 0.7156 0.017332 -0.53259 -0.52531 0.28514 -0.12967 0.15521 0.23701 -0.55934 -0.31393 -0.093606 0.23736 0.21536 -0.042839 -0.39439 0.7504 0.064815 0.098795 -0.083579 0.33563 -0.24415 0.17156 0.37753 0.45302 -0.08519 -0.041356 -0.038893 0.38329 0.13337 -0.10945 -0.10095 0.22561 0.11952 0.32309 0.49547 -0.081005 0.29201 -0.10485 0.55934 0.11138 0.18861 0.15007 -0.82568 0.41171 -0.59165 -0.52373 0.37107 -0.42644 0.71108 0.19366 -0.030298 0.31479 -1.0213 0.0055567 -0.2592 0.14428 0.33564 -0.23914 0.057001 0.13935 -0.3727 -0.23701 0.082866 -0.066644 -0.30399 0.50011 0.25364 -0.42107 -0.2016 -0.076814 -0.61381 0.36809 -0.26349 0.12539 -0.3738 -0.12133 -0.39608 0.29011 0.35845 -0.23148 0.14404 0.28707 0.14709 0.66893 -0.14569 0.24881 -0.0072086 0.058746 0.26296 -0.078495 -1.2332 0.14617 0.31875 -0.080768 0.41442 -0.010326 -0.31449 0.035081 0.086319 -0.18511 -0.14042 0.1152 -0.2733 -0.52269 0.36096 -0.61225 -0.2046 0.26707 0.27146 0.0033784 -0.33212 -0.46299 0.35295 -0.31128 -0.18994 0.208 -0.32277 0.045051 -0.080979 0.26937 -0.19852 0.19678 0.52941 -0.1595 0.18715 0.40053 -0.57547 -0.16587 -0.49034 -0.1676 -0.37201 -0.20664 0.51198 -0.1209 -0.47781
teams 0.3876 -0.96518 0.13343 0.17218 -0.33696 -0.36742 0.15674 -0.22264 -0.16667 -1.7715 0.35812 -0.17276 0.31108 0.53412 0.72055 0.31312 0.30497 -1.5909 0.16656 -0.257 -0.34377 0.48192 0.34464 -0.074165 0.14563 -0.054354 0.26878 0.21798 0.27155 0.34034 0.29391 0.421 -0.49041 0.38515 -0.23696 0.038389 0.1984 -0.49989 0.2478 0.17563 -0.17815 0.04787 -0.32541 0.068495 0.28446 -0.45888 0.23909 -0.36738 -0.5413 -0.47176 0.79902 0.10405 -0.12107 -0.26404 -0.046125 -0.70007 1.1342 -0.39534 0.0782 1.0831 0.25868 0.30461 0.041401 -0.38313 0.16942 -0.49533 0.70709 0.23424 -0.070544 -0.51056 0.31848 0.28507 -0.17517 0.15467 -0.3501 0.051722 -0.89952 0.67509 -0.28914 -0.1508 -0.022478 0.073939 -0.013445 -0.042637 0.41008 -0.30711 0.29606 -0.030116 0.013355 0.1728 -0.27284 -0.2602 -0.18284 0.57235 -0.43321 -0.21943 -0.29673 0.28316 -0.02397 0.32108 -0.30918 0.091634 0.39111 0.19005 -0.33422 -1.0626 -0.47813 -0.27094 0.28123 -0.24214 0.0029663 0.31399 -0.37874 -0.21863 0.39964 0.33837 -0.095205 0.086948 -0.2154 0.28696 0.38817 -0.23078 0.24387 -0.36014 0.59292 -0.84829 0.080722 0.24159 -0.14915 0.17204 -0.075359 -0.32786 -0.24035 -0.090842 0.23887 1.1281 -0.044514 -0.27829 -0.24768 0.4237 1.1018 -0.35869 -0.67544 -0.24194 -0.04742 0.89607 -0.44408 -0.10669 0.28304 -0.074 -0.21772 0.024148 -0.38548 0.34556 -0.093736 0.079028 0.25604 -0.051974 -0.066771 0.58056 0.35961 -0.10055 -0.20864 0.12703 0.19682 0.3878 -0.56535 -0.056803 -0.7418 0.29834 0.044851 -0.056704 -0.030253 0.5262 0.58726 -0.5508 -0.29703 0.23495 -0.9593 0.40454 0.34056 -0.20454 0.17922 0.21685 0.40527 0.23543 -0.6039 -0.75893 -0.04692 0.1133 1.2897 -0.24793 -0.48361 -0.24725 -0.1889 0.26776 0.19288 -0.18556 0.80465 -0.19534 0.59063 0.26727 0.089562 -0.10779 -0.21675 -0.79912 -0.61711 -0.20522 -0.28612 -0.18184 0.21748 0.066182 0.22824 0.47081 0.025108 -0.27903 0.19167 -0.74014 0.1719 -0.77356 -0.40984 -1.0301 0.14419 -0.52568 0.26849 -0.23837 0.20955 0.41842 -0.32991 -0.87842 0.39599 -0.45654 0.49848 0.52233 0.3953 -0.12265 -0.19423 0.25395 -0.2032 -0.31855 -0.38127 -0.17693 0.21636 -0.31896 -0.41087 0.16932 -0.05856 0.05798 0.10572 -0.17957 -0.043163 0.55662 -0.057415 0.50595 -0.34693 -0.91238 0.16151 0.56197 0.25305 0.47308 0.32412 -0.65474 -0.14174 0.35963 1.1538 0.67684 -0.21969 0.052584 -0.074024 0.51889 0.34048 0.90356 0.13963 0.60315 0.28604 0.18612 0.20427 0.20111 -0.1101 -0.19014 -0.12695 -0.39073 -0.20354 0.20487 0.26373 -0.29324 -0.54839 0.20698 0.079097 -0.38498 0.10436 0.09319 0.52855 -0.36616 0.58756 0.50388 0.63488 0.48139 0.28113 -0.91572
industry 0.078983 0.11681 0.55439 -0.45426 0.34222 -0.19368 0.36115 -0.1577 -0.0084351 -1.2537 -0.72882 0.13588 -0.35888 0.22482 0.21164 -0.1837 -0.2921 0.56837 -0.55693 0.48911 0.20155 0.71086 0.37987 -0.053346 -0.26439 -0.020935 0.12973 0.3257 0.18062 -0.40492 -0.020694 -0.001475 -0.3264 0.24119 0.34559 0.096949 -0.063601 0.17705 0.011239 0.48709 -0.0042562 0.19485 0.5894 0.19461 -0.078359 -0.13 0.52112 -0.80488 -0.5064 0.26539 0.15996 0.0013841 -0.29951 -0.5146 -0.48679 0.011704 0.32893 0.10119 -0.21479 -0.79107 0.28943 -0.36352 0.38956 0.41884 0.69457 -0.087251 0.33252 0.012013 -0.36386 0.41515 -0.7367 -0.1199 -0.04359 -0.0041062 0.14705 0.483 0.039131 -0.10844 -0.088145 -0.53596 -0.14574 0.43857 0.38272 -0.31 -0.0067634 0.086127 -0.97933 -1.5448 0.41145 0.028363 -0.30615 -0.10154 -0.22621 -0.24369 0.47733 -0.15067 0.012104 -0.38905 -0.0047154 -0.002632 0.34437 -0.016373 0.022728 -0.05303 -0.11005 0.31928 0.056407 -0.48299 0.20892 0.0098583 0.29364 0.15668 -0.075673 0.27889 -0.050595 0.17241 -0.21971 -0.6346 0.25911 -0.49666 -0.59395 0.63845 0.16007 -0.45702 0.64827 0.018849 -0.11794 -0.42732 -0.054308 0.085187 0.23506 -0.4675 0.18615 0.29699 0.22539 -0.194 -0.45766 -0.22739 0.058561 -0.13279 1.2823 0.079845 0.44912 -0.35098 0.18268 0.1327 0.13467 -0.12743 0.84357 -0.24018 -0.017912 0.66798 -0.14877 0.14988 0.35579 0.42905 -0.21799 0.19164 0.20477 0.86094 -0.53261 -0.76068 -0.25032 -0.35312 -0.68673 0.21892 -0.15257 -0.20147 -0.50612 0.34307 -0.23702 -0.38514 0.13718 -0.16354 0.26526 0.015378 -0.10422 0.45998 -0.11644 0.47906 0.26286 0.35682 -0.046582 0.2874 0.092293 -0.21227 -0.22233 -0.1376 0.25212 -0.082677 0.69383 -0.55883 0.39013 -0.10308 -0.40983 -0.51976 0.79959 0.17992 -0.21259 -0.18685 0.21505 0.62484 -0.0085148 -0.079084 -0.062742 0.47695 0.90756 -0.21035 0.59006 -0.19339 -0.62582 -0.013814 -0.70541 1.1604 0.23583 -0.38065 0.2907 -1.569 -0.80415 -0.18291 -0.19267 0.45338 0.049614 0.14776 -0.12415 -0.52821 -0.09021 0.79367 -0.35774 -0.21836 0.094504 0.11576 -0.16155 0.25656 -0.49933 0.15686 -0.19043 0.46685 0.077846 -0.287 -0.17622 -0.73081 0.28696 -0.067527 -0.18096 0.41512 0.18282 -0.12719 0.043569 0.19415 -0.2155 0.10704 -0.12246 -0.099583 0.27298 -0.21667 0.076221 0.062943 -0.15659 0.37432 -0.44635 0.063326 -0.057767 0.36238 0.23641 -0.29302 -0.11106 -0.19481 0.60393 0.013288 -0.85745 -0.098823 0.60172 -0.028252 0.53641 0.81964 0.0070096 0.095595 0.22753 0.78858 0.14455 0.054644 -0.70138 0.74747 -0.20803 -0.5795 -0.21353 -0.44316 -0.15587 0.074745 -0.47174 -0.1118 -0.20193 -0.73004 -0.24048 0.065957 -0.21919 -0.25352 -0.37511 0.30772
country -0.11202 -0.25737 0.011826 -0.27116 0.092474 0.39286 0.031833 0.15252 -0.34527 -1.552 -0.028615 0.014355 -0.18672 0.38084 0.21454 0.14464 0.094661 -1.8475 0.88991 0.37608 -0.1979 0.17192 0.27864 -0.3121 -0.54287 0.081205 -0.22135 -0.22362 -0.14506 0.16167 0.13742 0.15962 -0.41256 -0.46355 -0.27493 0.48196 -0.26696 -0.032337 0.1229 0.26639 -0.10777 -0.30628 -0.090527 0.3627 -0.21814 0.10014 0.39462 -1.0805 0.15661 0.046542 0.12226 -0.1868 -0.2954 0.32534 -0.055961 -0.18196 -0.41741 -0.26457 0.12748 -0.18127 -0.092719 0.1316 0.062869 -0.05429 -0.16644 0.38282 0.053065 0.39201 -0.31491 0.19023 0.23288 0.20571 -0.19928 0.27656 -0.22157 -0.084463 0.23894 0.39594 0.020684 -0.13897 0.078135 -0.030314 0.13117 0.32313 0.52044 0.34027 -0.46074 0.50305 -0.015094 -0.10662 -0.46065 -0.11097 -0.24045 0.33702 0.012367 0.32525 0.55976 -0.18706 0.026133 0.35897 -0.43946 -0.10361 0.36656 -0.0092551 0.52343 -0.22198 -0.058319 -0.21809 -0.093581 -0.69494 0.20203 0.65535 -0.60751 -0.34643 0.5637 -0.43083 -0.22539 0.48289 -0.18547 -0.43716 0.16363 0.02593 -0.10829 0.74435 0.35734 -0.46441 -0.053997 -0.20317 0.44607 0.39438 -0.07283 -0.20964 0.13308 -0.15035 -0.099237 -0.70052 0.071364 -0.16258 -0.11923 0.28093 0.65853 0.0022689 0.30873 -0.23492 0.29224 -0.095725 0.38688 0.22743 -0.2342 0.59117 -0.35412 0.19008 0.28188 0.2736 0.36171 -0.33757 -0.25143 -0.38547 -0.18845 -0.0137 0.16606 0.34158 0.64993 1.1553 0.38668 0.31346 -0.48414 0.041877 -0.46661 0.063243 0.14599 -0.34939 0.020178 -0.26067 0.18777 -0.15708 -0.26353 0.14947 0.16382 -0.24931 -0.06423 -0.44034 0.60944 0.21334 0.12188 -0.18232 -0.079632 -0.72744 0.63778 -0.53882 0.071192 -0.60927 -0.27371 -0.46591 0.50116 -0.037214 -0.74621 -0.20172 0.63047 -0.2645 -0.0051101 0.61414 -0.59613 -0.24695 0.16579 -0.396 0.13478 0.51659 0.68452 -0.14716 0.21642 0.32297 0.27192 0.50483 -0.24763 -0.35667 -0.37231 0.03465 0.53078 0.58789 -0.16665 -0.20103 0.40413 -0.39851 -0.30778 0.12434 -0.30812 0.38261 -0.41196 0.213 0.091674 0.21668 0.063558 -0.10549 -0.11212 0.3342 -0.41907 0.11162 0.43981 -0.69848 -0.51845 -0.013121 0.11534 0.62005 -0.51231 0.2933 -0.052314 -0.14778 0.33539 -0.063066 0.44986 -0.5169 0.19092 0.52977 -0.33809 -0.26287 0.12222 -0.09761 0.25581 -0.23344 -0.44441 0.19889 0.041468 -0.55288 0.2072 0.76128 0.36984 0.22685 -0.50727 0.34238 -0.21711 0.19406 -0.029243 0.38948 0.036468 -0.0041125 -0.083457 -0.52895 -0.2292 -0.42704 -0.26997 0.23692 -0.13748 -0.011617 -0.073925 -0.44927 -0.56192 0.049777 0.038231 -0.048061 0.44842 -0.26439 0.086805 0.032755 -0.5345 0.18358 0.24318 0.14666 -0.16497 0.036034
capital 0.56459 -0.60932 -0.17137 -0.42263 -0.19134 -0.035135 0.093945 0.59581 -0.10454 -0.96761 -1.0614 0.41087 0.11689 -0.33695 -0.02593 -0.14989 -0.63087 0.31521 -0.30354 0.09883 -0.022012 0.7593 0.050912 -0.09955 -0.33371 -0.20248 -0.21924 0.32212 -0.23074 -0.52195 0.64866 0.29925 -0.38971 0.5335 -0.20702 0.58353 0.070355 -0.24474 0.063858 -0.49213 -0.033766 0.48082 0.79417 0.15953 0.2627 0.04781 1.1881 -0.64948 -0.008955 -0.084158 -0.49225 0.29321 0.33059 -0.13595 -0.044223 0.26633 0.48947 -0.16709 0.36033 0.21889 0.40826 0.053538 0.42739 0.8952 0.40441 0.011114 0.4152 0.55908 0.10921 0.57271 0.10092 -0.18382 0.065396 -0.090287 -0.45946 -0.1402 0.24797 -0.57593 -0.20032 -0.25187 -0.41114 0.10654 0.73255 -0.067223 0.22163 0.22944 -0.0070804 -1.8449 0.081154 -0.15571 0.71817 0.41321 0.41491 -0.45741 0.10211 -0.42321 -1.0031 0.21645 0.019803 0.11659 -0.29402 0.24183 -0.35508 -0.54627 -0.15609 0.11401 -0.041837 0.092448 0.078645 0.24916 -0.34983 0.14934 -0.062058 0.026934 -0.082619 0.041379 -0.74828 -0.16536 -0.034784 -0.45494 -0.22004 0.15679 0.18928 0.26311 0.51325 -0.20467 -0.23627 0.12065 -0.68798 -0.10392 0.22254 -0.57826 0.11492 0.063788 0.083686 -0.36155 -0.49452 -0.24276 -0.31519 -0.10974 1.2286 0.10273 0.46874 -0.61441 0.761 0.42681 0.27904 0.20939 0.73392 -0.088931 0.28784 0.38837 -0.27165 0.54154 0.070126 -0.60331 -0.1376 -0.41114 0.2624 0.50855 -0.35765 0.062117 -0.31709 -0.36196 -0.21958 0.21295 -0.079942 -0.16165 -0.49305 0.15027 -0.20746 -0.77163 0.44428 -0.79588 0.46747 -0.079876 0.034283 0.34834 0.37486 0.041158 0.46712 0.23253 0.6156 0.13994 -0.078863 0.025043 -0.47214 -0.39835 0.069868 -0.67002 -0.14336 0.35499 0.06269 -0.18879 -0.28207 -0.66447 0.45145 0.22922 -0.65394 0.5117 0.11807 0.37847 0.13732 0.21851 0.26394 -0.16494 0.73059 -0.48869 0.14302 0.01634 0.23129 0.34972 0.007025 0.59742 0.37149 -0.052423 0.72367 -1.6995 0.086359 0.23977 0.40449 0.38174 -0.50082 0.34373 -0.48385 -0.19523 0.018815 0.59013 0.073269 -0.67979 0.60055 0.10922 -0.10455 0.36048 -0.25435 0.25577 0.030151 -0.2204 -0.19949 0.0044224 -0.16836 -0.066032 0.16788 0.49946 0.41916 -0.43045 0.31108 -0.87221 0.30685 0.47455 0.0273 0.78228 0.12766 0.14225 -0.058471 -0.16915 -0.044314 -0.026977 -0.17035 0.34543 -0.37893 0.37322 0.17418 0.60001 0.2635 -0.20562 -0.42447 0.084175 0.6138 -0.4821 -0.43398 -0.2172 -0.22325 0.16783 0.097998 0.25545 0.62765 -0.56037 -0.0027377 -0.35936 0.5159 0.22206 0.028548 0.024742 -0.25757 0.14058 -0.54439 -0.11322 -0.66599 0.19734 -0.097055 0.023258 -0.98039 -0.32609 -0.25924 -0.29518 -0.69053 -0.65808 -0.29187 -0.15625
contains -0.027469 0.080411 -0.097759 0.20922 -0.36922 -0.3038 -0.56378 0.27294 -0.206 -2.2981 0.11712 0.22713 -0.39251 0.76427 0.59095 -0.62619 0.61611 0.33635 0.30811 -0.026305 -0.026731 0.54793 0.2121 0.091378 -0.12282 -0.29634 0.43575 0.2104 0.0040204 -0.47627 -0.020471 -0.2798 -0.4134 -0.10208 0.14361 0.59608 -0.11307 -0.46598 -0.075648 0.57449 0.53242 -0.35498 0.7245 0.33275 -0.64324 0.59902 0.038543 0.31072 0.33027 0.30465 -0.41004 0.11902 0.21444 0.090183 8.1265e-05 -0.14643 -0.41586 0.095655 0.18685 0.29256 0.41821 0.69841 0.2099 0.2743 -0.14699 0.13411 0.19133 0.013851 -0.020312 0.25571 0.18652 0.18394 0.082327 -0.066523 0.19631 0.12231 0.23143 -0.20764 0.41398 -0.41361 0.091614 -0.056275 -0.024002 0.011748 0.12976 -0.28877 0.27647 -1.6969 0.38132 -0.021772 -0.23796 -0.030822 -0.26834 -0.24232 0.40523 -0.33039 -0.78772 -0.19428 0.33875 -0.22377 0.084979 0.19536 0.32626 0.40521 -0.29603 -0.17418 0.28514 -0.43444 0.28529 -0.12972 -0.24458 0.23587 -0.052211 -0.33413 -0.42212 0.16122 -0.46888 0.17639 -0.32274 -0.6986 -0.10779 0.23604 0.0086486 -0.55918 0.15188 0.473 -0.46002 -0.04648 0.048371 0.12233 -0.18406 0.40428 -0.46139 0.075579 -0.34596 0.13042 0.012698 0.035396 0.71388 -0.40825 0.51052 0.77662 -0.36651 0.10591 -0.084882 -0.59105 -0.05759 -0.43527 0.33356 -0.2783 -0.19017 0.51993 -0.50943 0.49429 0.81813 0.16509 -0.57636 -0.58343 -0.26314 -0.048677 -1.0947 -0.073667 -0.40622 0.25943 -0.13624 0.077464 -1.282 -0.10811 -0.28507 0.51336 0.2342 0.27009 0.030186 0.26903 -0.22119 -0.32116 0.28107 -0.09755 0.028562 0.38408 -0.14524 -0.21962 0.6361 -0.20205 0.22288 -0.6647 0.018951 -0.43224 -0.44966 -0.035198 -0.075602 -0.41653 -0.29343 0.72407 0.1246 -0.30341 -0.35484 0.49486 0.51808 -0.079843 0.33057 0.16344 -0.12733 -0.29342 -0.19535 0.90316 0.31916 -0.34982 0.76262 0.099212 0.11563 -0.22634 0.47689 0.25821 0.36244 0.015039 -0.35398 -1.0061 -0.23488 -0.018527 0.0055239 0.18847 0.24623 0.2256 -0.37895 0.27988 0.21326 0.35512 -0.1303 0.10883 -0.37841 -0.42234 -0.1851 0.12122 -0.60713 0.6276 0.84133 0.21787 -0.64164 -0.72374 -0.040297 -0.065383 -0.035256 -0.49619 -0.090629 0.44146 -0.021455 0.10589 0.59446 0.37054 0.030573 -0.12882 0.23891 -0.62842 0.077463 0.32354 0.11547 0.16166 0.26425 -0.30859 0.10249 -0.95376 -0.11879 -0.038892 -0.31707 0.5869 -0.1702 -0.021065 0.60952 -0.9502 -1.0695 -0.024436 -0.068594 -0.43011 -0.037657 -0.062946 -0.032068 0.27399 0.26093 0.31888 0.032909 0.019566 0.21103 -0.17853 -0.11149 0.70429 0.16566 0.0049218 0.60084 -0.18296 0.061685 -0.24797 -0.43367 -0.62427 -0.00068576 0.51795 -0.92767 -0.32272 0.21849 -0.98694
neighborhood 0.70981 -0.22849 0.11733 -0.24415 -0.19787 0.43906 0.29877 0.1544 0.20363 -1.1558 -0.69477 0.33682 -0.18458 -0.11081 0.32665 -0.025516 0.093285 -0.30294 0.4241 -0.36685 -0.21257 0.105 0.38707 -0.094938 -0.0164 -0.044038 0.01852 0.036781 -0.4481 -0.49658 0.67648 0.15824 -0.033416 0.29395 0.39266 -0.40719 0.34276 -0.19116 -0.087295 0.67892 -0.61283 0.35125 0.3473 0.15734 -0.093636 -0.23929 0.53817 -0.90211 -0.68726 -0.4553 -0.21954 0.34584 -0.23698 0.14331 -0.12795 -0.1649 0.073313 0.54655 0.75781 0.26279 0.19586 -0.20472 -0.1243 0.11159 0.33084 -0.2673 0.50402 -0.09979 0.36499 0.83355 0.034552 -0.60969 -0.18352 0.43887 -0.15957 -0.64141 0.061615 -0.80582 0.040215 -0.091472 0.04626 0.24711 0.092948 -0.2982 0.061476 0.65721 0.059691 -1.6197 -0.00044896 0.20451 -0.064223 0.94466 0.53483 0.013253 -0.12186 -0.07612 0.092318 -0.29431 -0.081376 0.13087 -0.18194 0.19307 -0.042608 -0.63337 0.15525 0.52556 0.58209 0.011015 -0.081453 -0.23057 0.38582 0.18729 0.32968 -0.10301 0.37014 0.50373 0.43838 -0.87714 0.31445 -0.1032 -0.62708 -0.10214 -0.23507 0.16368 0.92763 0.4679 0.024039 -0.25785 -0.36715 0.51752 -0.0069807 -0.34686 -0.06433 0.6216 -0.22192 0.40501 0.20474 -0.75978 0.52708 0.079361 0.87969 0.57101 0.12589 0.07695 -0.018641 0.2101 -0.1615 0.24156 0.31548 0.33381 -1.1847 0.35707 -0.50673 0.2507 -0.12683 0.15044 -0.62868 -0.17771 0.53049 0.14072 -0.32584 0.15982 0.1494 -0.20547 -0.0064171 0.18664 0.13615 0.24281 -0.090691 -0.2982 0.13736 0.27946 -0.00086609 0.40453 -0.21755 -0.18015 -0.45745 0.46896 -0.010803 0.072483 -0.2389 0.18443 -0.013462 0.12894 -0.0079757 0.041903 -0.11478 0.19352 0.32863 -0.5356 -0.26581 -0.037259 -0.4075 0.030219 0.056974 -0.37822 0.46326 -0.018762 0.20704 0.51722 0.1799 0.66283 0.26791 -0.334 -0.01622 0.46432 -0.0059095 -0.20092 0.35242 -0.19096 -0.24296 0.58495 0.17073 0.44584 -0.41337 -0.4207 0.68682 -1.5431 0.061091 0.39764 0.093435 0.61689 0.15312 -0.23359 -0.052488 -0.1678 -0.13178 0.6616 -0.058155 0.10754 0.66247 -0.32173 0.23011 0.03725 0.24259 0.8158 0.42779 -0.26246 0.46061 -0.027183 -0.13833 -0.48718 -0.097269 -0.026658 -0.35101 0.60073 -0.21377 0.0041431 0.92021 -0.37244 -0.34732 -0.021261 0.061353 0.0095926 0.03299 -0.046445 -0.049128 -0.23463 0.12243 -0.044334 -0.41565 -0.26326 0.55573 -0.61198 -0.17661 -0.080652 -0.19714 -0.11446 -0.58279 0.05018 -0.78535 0.51167 -0.21706 -0.75278 0.024762 -0.38589 -0.48338 0.30705 -0.037689 0.12812 0.27501 -0.1925 -0.1971 0.17766 -0.66577 0.21037 -0.22843 -0.14405 -0.82935 -0.10228 0.20184 0.50864 -0.49086 0.21769 -0.3214 -0.64401 -0.6397 -0.62887 0.27307 0.26395
administrative 0.66072 -0.26911 -0.033133 -0.58998 -0.078102 -0.037719 0.29774 0.087682 0.19294 -1.4175 -0.40512 0.10775 0.5576 0.14872 0.59736 -0.44096 0.47649 -0.1259 0.35299 0.19938 0.08761 0.20756 0.014063 -0.051212 0.37354 -0.070787 -0.29826 -0.2576 0.07282 -0.54988 0.07928 0.34677 0.46135 0.15698 0.9822 -0.42846 -0.12528 -0.49116 -0.75271 -0.17856 -0.10276 0.038102 0.86119 0.36641 -0.3735 -0.31829 -0.26437 -0.4427 -0.11215 0.22988 0.57389 -0.18881 0.37388 -0.0010489 -0.88197 -0.12329 0.55456 0.054792 0.30038 -0.38786 0.04821 -0.39291 0.58029 0.64233 0.6138 0.052958 0.70585 0.095713 -0.026176 0.18918 -0.19255 -0.39239 0.0028711 -0.26581 0.52407 0.53464 0.095124 0.16338 -0.029096 -0.34051 -0.16527 -0.21889 -0.045692 0.15562 -0.48845 0.35033 -0.10089 -1.6851 0.14559 0.055152 0.03494 0.071966 0.87964 -0.27478 0.012187 0.10938 -0.19397 -0.69029 -0.14947 0.0004799 -0.36808 0.3171 -0.18036 -0.060308 -0.436 0.041063 -0.13113 -0.62209 0.45321 -0.16996 0.431 0.15975 0.037711 0.022038 0.64395 -0.1113 -0.36456 -0.45919 -0.076495 -0.67568 0.018966 -0.082718 -0.51424 -0.23088 -0.15208 -0.39578 -0.61981 0.42198 -0.18268 0.15895 0.65771 -0.4785 -0.58402 -0.055405 -0.36693 0.46072 -1.0473 -0.1852 -0.12187 0.15427 2.201 0.41123 -0.7147 -0.26656 -0.13604 0.60736 -0.24823 -0.1613 0.2902 -0.99814 0.18418 -0.87796 -0.2299 0.26501 0.044874 -0.26342 -0.65598 -0.17173 0.60185 0.10299 -0.27654 0.24023 0.45264 -0.19798 -0.23736 0.38372 -0.58848 -0.45236 0.091005 0.42553 -0.23864 -0.31197 0.9702 -0.3598 0.037997 0.17655 -0.58534 0.02136 0.15607 -0.083076 0.41422 -0.24022 0.34333 0.071455 -0.1664 -0.29521 -0.14899 -0.20785 0.62435 -0.18785 -0.61631 -0.39956 0.46067 0.084523 -0.1869 -0.095194 0.34029 -0.032157 -0.31295 -0.027109 0.16877 -0.058055 -0.0083457 -0.30773 -0.10792 0.20976 0.39324 0.49241 0.34713 0.59909 -0.093342 0.30495 0.13921 0.99938 0.11233 0.89184 0.021393 -1.0604 -0.011023 0.10325 0.25936 0.17478 0.18281 0.057018 -0.13078 0.075971 -0.12525 0.93275 0.62037 -0.50196 0.080082 -0.15346 -0.29205 0.57475 0.25905 0.18403 -0.28764 -0.11927 0.64888 -0.30577 0.10835 -0.45226 0.12605 0.35818 0.49989 0.30504 0.0741 0.49549 0.19082 0.13575 0.1871 0.41756 -0.27966 0.44983 -0.0038538 0.052499 -0.64999 -0.080037 -0.39886 0.56284 -0.3478 0.25821 0.55963 -0.28116 0.089976 0.14692 -0.36542 -0.45477 0.3803 -0.66634 -0.79985 0.12927 -0.43426 -0.47689 0.33494 0.14795 0.0076069 0.29794 0.22704 -0.18743 0.46748 0.41845 0.19816 0.43568 0.007443 -0.34595 -0.36358 -0.020649 0.007003 -0.22029 0.84546 -0.39968 0.12805 -0.40698 -0.11584 0.59206 0.047067 -0.18054 0.11557 -0.70729
division -0.037567 -0.37422 0.30248 -0.50646 0.0015036 0.27489 -0.077538 0.15817 -0.33845 -1.5436 0.62615 -0.49858 0.19338 -0.1139 0.90643 0.022947 0.07412 -0.96047 0.74334 0.027046 0.038083 -0.50588 0.78805 -0.012862 -0.074608 -0.38294 -0.33454 0.34343 -0.066313 0.19944 0.26883 -0.044269 0.39018 0.15335 -0.39702 -0.28498 0.30362 0.14759 0.39815 0.12853 -0.28219 0.31221 0.064479 0.65701 0.34472 -0.62126 0.3159 0.11759 0.16021 -0.21254 0.048787 -0.010816 0.37357 -0.54635 -0.21566 0.47781 0.15553 -0.61852 0.14076 0.35802 -0.022748 0.044831 -0.090853 -0.39951 -0.49022 0.1442 0.19899 -0.054904 0.27262 -0.049827 -0.58075 0.46825 -0.64422 0.56662 0.2715 0.30814 -0.38756 0.47499 0.10306 0.27576 -0.10457 -0.38292 0.04983 0.47077 -0.15441 0.055152 0.062591 0.45233 -0.83941 0.090268 -0.012675 0.024301 -0.12218 -0.65913 -0.057152 0.3398 0.12126 0.16294 -0.10802 0.39061 0.237 0.1594 0.28745 0.67362 0.1113 -0.21276 -0.71627 -0.47101 -0.27146 -0.40959 0.16972 0.6447 -0.020812 0.51753 -0.55866 -0.64568 -0.5529 -0.4066 0.38202 -0.39609 0.17732 -0.20247 0.27979 0.53252 0.84418 -0.30434 0.23714 0.058342 0.05477 0.27044 0.043515 -0.48517 0.39975 0.12099 -0.054655 0.16665 -0.20949 0.41582 0.12257 -0.25782 1.088 -0.41114 -0.21296 -0.46132 0.09694 0.29285 0.32535 0.28442 -0.60581 -0.2936 -0.36903 -0.93829 -0.20039 0.43143 -0.39484 -0.32791 -0.21391 -0.29047 -0.28069 0.55681 -0.022978 0.28522 0.0063739 0.41056 0.95578 0.47687 0.25323 0.51745 -0.27142 0.40775 0.69028 -0.49723 0.19479 0.26258 0.31018 -0.28609 -0.44566 -0.33113 -0.51146 -0.16673 -0.17243 0.016687 0.18582 0.64401 0.85643 0.020954 0.036536 0.35746 0.13204 0.029286 0.60406 -0.11411 0.23539 -0.10123 0.40244 -0.0078427 0.39686 -0.21742 -0.37963 -0.60899 -0.28553 0.13911 -0.57545 0.058049 -0.73636 -0.062332 -0.7531 0.32405 0.38631 0.24801 0.05461 0.41887 0.21645 0.70567 -0.46627 -0.11093 -0.23179 -0.73458 0.29974 -0.38138 -0.22046 -0.38406 0.55409 -0.047691 -0.6028 -0.41275 -0.04845 -0.050821 -0.15085 -0.14982 -0.021281 0.66034 -0.34136 0.53511 -0.021715 0.27807 0.40308 0.39794 -0.04659 -0.37563 0.11935 -0.14221 -0.12664 -0.27028 -0.51521 0.062791 0.052993 -0.30789 0.36843 -0.2858 -0.012648 -0.63014 0.15699 0.087549 -0.17989 -0.46068 -0.016902 0.28937 -0.35699 -0.79179 -0.075009 0.40285 -0.27569 -0.18799 0.16985 0.7287 0.3715 -0.30109 -0.41714 0.23197 0.6355 0.2989 -0.44309 0.12703 0.00038122 0.22233 0.51382 0.10574 0.47148 -0.32735 0.020608 -0.23907 -0.40501 -0.12189 -0.33024 -0.63902 0.075976 0.52217 -0.47523 -0.088408 -7.3075e-05 -0.43849 -0.62866 0.060328 0.16996 0.64564 0.68956 0.030637 -0.33121 -0.017637
nationality 1.0938 -0.36505 -0.6137 -0.28207 0.75905 0.14387 -0.026428 -0.73469 0.028412 -1.7868 0.61279 0.64096 -0.33281 0.87611 0.29664 -0.13791 -0.49496 -0.74154 0.39732 0.075557 -0.49753 -0.14089 0.39431 -0.046137 0.45171 -0.82799 0.46492 0.20816 -0.37809 -0.044884 0.43352 0.074231 1.3944 -0.094471 0.20408 0.4392 0.074426 -0.61207 0.020845 0.16562 -0.059925 0.036043 0.35626 0.52526 0.27337 -0.83661 0.18178 -0.64295 0.29568 0.60759 0.26974 -0.31905 -0.38873 -0.39603 -0.54762 0.57803 0.44047 0.29849 0.1399 -0.87801 0.44626 0.027059 0.23873 0.55533 -0.39083 0.22483 -0.14338 0.045999 0.089539 -0.49797 -0.24141 -0.17908 0.2856 0.20756 0.11906 0.44601 -0.51891 -0.41054 -0.0079547 -0.19287 0.0025568 -0.72562 0.1957 -0.47968 0.63426 0.39515 0.053576 -1.6822 -0.070542 0.2042 -0.6154 0.075877 0.50241 0.3309 -0.0079763 0.078791 -0.37386 0.1674 -0.61219 0.51436 0.056436 -0.49041 0.89364 -0.22626 0.44602 -0.32952 -0.14607 -0.59291 -0.19652 0.55049 -0.22986 0.6241 -0.074807 0.046992 -0.62371 -0.040345 0.29266 -0.10946 0.12748 0.1719 -0.60837 0.16288 0.6373 -0.38354 0.25894 0.28708 0.21093 0.31799 -0.081442 0.10851 0.27397 0.052252 -0.075138 0.71648 -0.57289 -0.38066 -0.048402 -0.033136 -0.30607 0.18958 0.97857 0.43428 0.34238 0.27336 -0.18018 0.12244 -0.23953 0.30925 -0.23517 0.0048004 0.12084 -0.19481 -0.17553 0.70138 0.29201 0.34173 -0.13764 -0.68203 -0.25437 0.85736 -0.34387 -0.36168 0.80622 0.017078 -0.017394 -0.089329 -0.14878 -0.57078 0.048826 0.027092 -0.40855 -0.040034 0.1934 0.32499 0.1293 0.22457 -0.31047 -0.062024 0.53307 -0.038501 -0.30527 0.15112 -0.4259 -0.041286 -0.11645 0.40912 -0.16626 0.22829 0.61652 0.096984 0.075141 0.59969 0.20822 -1.0796 0.69308 -1.0941 0.046188 0.40069 0.087845 -0.2899 0.26059 0.35992 0.37849 0.22165 -0.016633 0.3867 0.18783 -0.35362 0.042553 0.48535 0.18108 -0.046291 0.15403 0.73395 -0.3976 -0.166 -0.49316 -0.31154 -0.039529 0.55606 0.059263 -0.13522 0.36901 -0.25919 0.27374 -0.58901 0.0097893 -0.066533 0.17678 -0.10227 -0.20744 0.14883 -0.68631 -0.16976 -0.40617 -0.045041 -0.32238 0.35989 0.5774 0.21945 -0.46299 -0.27337 0.14331 0.04744 0.13403 -0.16887 0.0094428 0.76899 0.2138 0.057264 0.68378 0.11904 -0.51948 -0.34271 0.036997 0.11363 0.27379 0.65847 -0.057845 0.70301 -0.44573 -0.31677 0.41204 -0.24969 -0.20414 0.41383 -0.68953 -0.47415 -0.55645 0.44903 -0.32336 0.60127 0.16839 -0.11457 -0.029036 0.03298 -0.20044 0.55663 0.15471 -0.45128 0.4255 -0.092313 0.18818 -0.32803 -0.60444 0.12668 -0.21905 -0.09143 -0.30252 0.096009 1.3124 -0.43863 -0.67281 -1.2974 0.15903 0.70837 0.38231 0.28675 -0.23694 -0.40355
shareholders 0.25694 -0.83124 -0.10953 -0.076901 -0.55402 0.4733 0.26142 0.16805 0.05345 -1.8815 -0.31629 0.3764 0.75639 -0.032309 0.059711 0.33914 -0.43109 -1.3389 -0.68826 0.25264 0.14554 0.57979 0.10234 -0.10319 0.42007 -0.080743 -0.42684 -0.050132 0.36122 -0.33855 0.13876 -0.088181 0.030413 0.3692 -0.53752 0.35968 0.4127 0.16576 0.039321 0.34533 -0.11458 -0.22823 0.65404 0.7051 0.6314 0.0092982 1.0525 -0.21561 0.33548 0.91009 -0.026389 -0.60619 -0.48759 -0.14306 0.59628 -0.3599 0.30895 0.37264 -0.37101 0.23444 0.18741 -0.025595 1.0097 0.32791 -0.32223 -0.0055639 -0.1392 0.035865 -0.8678 0.43742 0.28195 0.4807 0.37444 0.72876 0.068444 -0.38927 -0.16599 0.07328 0.72087 -0.049171 -0.51587 -0.2012 0.22672 0.29861 -0.32277 0.38725 0.35888 -1.079 0.71543 0.30602 -0.26587 0.20419 0.3822 0.11181 -0.11071 0.26734 -0.15588 0.15397 -0.38158 0.79119 -0.18658 0.54225 -0.40564 -0.10549 -0.82668 -0.62674 0.84779 0.068896 0.38232 0.33286 -0.48 0.52934 -0.41978 0.1088 -0.25773 -0.0055707 -0.52408 -0.61617 0.039149 -0.1719 0.23159 0.09492 -0.31472 0.15857 0.28991 -0.41732 0.33569 0.34713 -0.63198 0.56957 -0.049675 -0.5076 0.060887 0.23733 -0.87114 0.84624 -0.59119 -0.65668 0.27904 1.057 1.1038 -0.035591 -0.46176 0.30508 0.38827 0.65275 -0.32213 0.41151 0.94974 0.58738 0.44268 -0.39528 -0.47793 0.77619 -0.0099428 0.2281 -0.48645 0.068474 -0.80549 0.10605 0.00065233 0.08486 -0.80676 -0.23474 -0.014354 -0.27922 0.23816 -0.37636 -0.72866 0.25994 0.63853 -0.3637 0.84496 -0.20848 -0.17247 0.50279 -0.103 0.32116 0.056203 -0.28605 0.39173 -0.61971 0.57869 -0.056591 -0.029144 -0.34928 -0.22251 -0.11527 -0.29257 0.12429 -0.17621 -0.030569 -0.044646 -0.094714 -0.54187 -0.96051 0.48889 0.11773 0.08525 0.65416 0.52163 0.47616 -0.18009 -0.66358 -0.11433 0.039102 0.45848 -0.43547 0.30632 0.10928 -0.29464 0.3885 -0.27575 0.94347 0.29634 0.19867 0.24562 -1.2232 0.32122 -0.43432 -0.42034 0.69881 0.060382 0.27623 -0.28204 -0.077642 -0.3354 0.60693 -0.4238 -1.5451 0.60604 -0.13648 0.027048 0.40161 -0.54746 0.095631 -0.34715 0.44501 -0.056407 -0.21963 -0.52178 -0.067083 0.35775 0.62776 0.061668 -0.60127 -0.1761 0.1436 0.67858 0.043179 -0.60185 0.48527 0.21701 -0.0057137 -0.034326 -0.11921 -0.18423 -0.060758 -0.48361 0.52468 -0.2559 -0.43967 0.6707 0.47819 0.33455 -0.27848 -0.11266 -0.34096 0.19152 -0.67067 -0.65432 -0.39036 -0.42259 0.81294 0.2848 -0.50367 -0.68707 0.97279 -0.353 -0.59196 0.36528 -0.10413 -0.45654 0.87298 0.53492 0.53057 -0.1289 0.1762 0.34568 0.76461 -0.26661 -0.10645 -0.25543 -0.94133 0.2791 0.76972 -0.50886 -0.013945 -0.83772 -0.31972
religion 0.065645 0.17889 -0.46638 -0.058358 0.50231 0.12437 -0.51305 0.298 -0.20516 -0.96412 -0.18996 0.022511 -0.27967 0.79706 0.14165 -0.22399 -0.51968 -0.34982 0.32293 0.23162 -0.47904 0.40908 0.2942 0.24811 0.52438 -0.16274 -0.04375 0.23204 -0.41996 0.76714 0.41679 0.25244 0.40836 -0.82323 0.13273 0.36435 0.2149 -0.78999 -0.21071 0.80626 0.022424 0.66329 0.19024 0.33455 -0.17537 -0.66917 0.2831 -0.511 -0.6137 0.35661 -0.37688 -0.31827 -0.1229 0.093635 -0.40806 -0.13525 0.25439 -0.015019 0.15937 -0.57453 -0.065384 0.26804 -0.40431 -0.1476 0.026644 -0.11052 -0.041727 -0.16427 0.22923 -0.25842 -0.43457 0.21314 0.40263 0.13898 -0.052149 0.20368 0.19107 0.21918 0.048102 -0.27693 -0.1992 -0.30089 0.66188 -0.58337 0.4498 -0.18767 -0.44248 -2.1946 0.25039 0.054415 -0.067517 0.46267 0.3555 -0.18157 -0.54297 -0.24322 -0.12709 0.21275 0.10533 -1.1851 -0.085288 -0.081405 0.28646 -0.0046192 0.23551 0.39759 -0.32717 -0.16861 -0.74142 0.10747 0.032897 0.21044 -0.015278 -0.14962 -0.1696 0.43424 0.027484 -0.70023 -0.2787 -0.65922 -0.13306 0.38725 0.65663 0.12859 1.0398 -0.097317 0.085357 -0.2204 0.64675 -0.003201 -0.044902 -0.17172 -0.17408 -0.2626 0.098214 -0.23351 0.17771 -0.11677 -0.29453 0.039742 0.0068777 0.37613 0.14159 0.31618 0.19384 -0.038465 -0.14983 -0.41501 -0.17867 -0.40534 -0.2949 0.10279 0.047796 0.049109 -0.26932 0.57446 -0.9244 -0.86644 -0.77703 0.87807 -0.099882 -0.5476 0.76981 -0.023749 -0.47871 0.56409 -0.35998 -0.27278 -0.49667 0.29627 -0.35543 -0.23193 1.0831 -0.68243 -0.21977 0.27568 0.080913 0.3286 0.62476 -0.57643 -0.01687 0.19945 -0.72205 0.36062 0.019327 -0.10315 0.22406 -0.10095 0.60838 -0.49213 -0.12934 0.13923 -0.49029 -0.33526 -0.16402 -0.54461 -0.32856 -0.25155 0.14103 0.47698 -0.21633 0.91871 -0.17356 -0.079451 -0.0136 0.25567 0.41218 -0.65322 0.028017 0.55707 -0.64315 -0.36447 0.027202 0.52494 -0.082004 -0.45968 0.32597 -0.69112 -0.47432 0.40338 0.22449 0.034181 -0.38878 -0.88407 -0.027323 -0.11881 -0.44916 0.19206 -0.47915 -0.028591 0.26048 0.46171 -0.4841 0.16461 0.25736 -0.069765 0.13514 0.031387 -0.50795 0.43154 -0.22581 -0.58877 0.41102 -0.60004 0.31777 0.15016 -0.012438 0.13742 0.32081 -0.19655 0.12449 0.23101 -0.39952 -0.56978 0.3368 0.35511 0.051331 0.064313 -0.45726 0.81291 -0.21619 -0.20822 0.34763 0.64583 0.27474 -0.27454 -0.55761 -0.032493 0.17293 0.39411 -0.93062 0.060679 0.14349 -0.60592 0.33162 -0.028211 -0.55376 0.46787 0.060127 -0.19573 -0.013128 -0.34384 -0.12558 -0.048889 -0.91518 -0.057354 0.035709 0.1095 -0.16637 -0.4977 0.5091 -0.030565 -0.59785 -0.76942 -0.14616 0.1134 0.34429 -0.018268 -0.18055 -0.098127
deceased 0.091521 -0.26477 -0.22038 -0.0029572 0.29759 0.0057781 -0.13037 -0.22316 -0.29838 -1.4359 0.17727 1.1912 -0.070985 0.23827 0.037257 0.49887 -0.12376 -0.78791 0.24889 -0.51915 0.28665 0.12162 0.024463 0.30424 0.29524 0.16597 -0.33607 0.19491 -0.53704 -0.51967 0.27443 -0.086466 0.41388 0.49773 -0.10391 0.08629 0.1438 0.057982 -0.57512 0.41444 0.30874 0.28419 -0.19445 -0.045101 -0.16503 -0.15618 0.61129 -0.73759 0.57528 0.3057 -0.2114 -0.22104 -0.3265 0.33596 -0.024934 0.68756 -0.4001 0.24595 -0.19087 0.18009 0.2308 0.29621 0.33982 0.34672 -0.30107 0.88116 -0.17293 -0.043853 -0.68739 0.33058 -0.73347 0.50913 -0.35327 0.27452 -0.37222 -0.11344 -0.36334 0.080655 0.04565 -0.69022 -0.27581 -0.1701 -0.27032 0.15496 0.15565 -0.91443 0.71152 -1.6069 0.086608 0.015749 -0.36858 0.36822 0.023336 -0.024381 -0.19428 -0.26658 0.16409 0.1383 -0.26469 0.40868 -0.25938 -0.19816 0.2159 -0.16626 -0.37793 0.53851 0.20061 -0.2547 0.13198 -0.078549 -0.21434 1.2914 0.18753 -0.3791 0.035096 -0.072717 -0.38193 -0.046175 0.65032 -0.27241 -0.11807 0.56234 0.17471 -0.1736 0.52986 -0.44414 -0.44581 0.22957 -0.55415 -0.52468 0.6962 0.7309 -0.02738 -0.7272 -0.42314 0.031725 -0.62504 -0.52062 0.38929 0.19861 0.83763 0.16282 -0.13295 0.69136 -0.31935 0.80708 -0.076081 0.017341 0.77478 0.47611 -0.59417 0.073676 0.33659 0.35987 0.67491 -0.0016527 -0.18742 -0.26133 0.12643 -0.33742 -0.085095 0.052753 0.92076 0.41944 -0.40247 -0.11812 -0.29066 -0.65302 0.17193 0.19691 0.85219 -0.2167 0.49736 0.32321 -0.15976 0.38979 -0.020948 -0.64553 0.17748 -0.48958 0.12734 -0.37396 0.15946 0.02721 0.051703 0.24912 0.40246 -0.50571 -0.32726 -0.75093 0.11948 0.61308 -0.17084 -0.22168 0.25538 -0.41271 -0.73472 0.61525 0.34869 -0.12728 -0.10395 0.65734 0.054791 0.020766 -0.30124 0.0015997 0.012183 0.21638 -0.60411 -0.24184 0.493 0.14728 -0.51433 0.87559 0.15406 -0.25644 0.38807 -0.63653 -0.28152 0.49683 -0.16487 0.15944 0.27905 0.042831 -0.1086 -0.59894 -0.6981 0.62565 -0.2866 -0.60602 -0.34141 0.029981 -0.2523 0.30761 -0.1905 -0.071804 0.0054611 0.21855 0.32074 -0.18014 0.17108 -0.28331 -0.48165 0.4015 0.21954 0.073233 -0.01902 0.78908 0.14668 -0.1458 0.38806 0.0014365 0.45685 0.27364 0.061163 -1.1823 -0.90635 0.18238 0.33147 0.46588 -0.050312 -0.57288 1.0858 0.94065 -0.83307 0.5252 0.20503 0.066193 -0.2738 0.29661 -0.36728 0.07041 0.0014183 0.16496 0.33191 -0.2492 -0.33832 0.71001 -0.86933 -0.28575 0.26415 -0.11674 -0.2059 -1.2085 0.19211 0.14716 -0.038353 -0.14366 -0.18563 0.56391 0.55288 0.24451 -0.13869 -0.69997 -0.018585 -0.25271 0.31351 0.55092 -0.65933 -0.75413
death 0.096519 -0.33061 -0.28277 -0.28859 0.39949 -0.35871 -0.24571 -0.30059 0.054741 -0.063336 -0.57844 0.66487 -0.34074 1.1461 -0.10247 -0.30035 -0.15738 0.12249 -0.28418 -0.54471 0.30195 -0.051349 0.12083 0.025355 0.18525 -0.15225 0.039172 0.27748 -0.25196 -0.11575 0.57336 0.59611 -0.11423 -0.20272 0.061202 0.25244 0.35247 -0.55263 0.23096 0.72241 0.7496 0.30452 0.36005 -0.7932 0.43952 -0.024782 0.31987 -0.17159 0.27898 0.099383 0.45388 -0.051531 0.059096 -0.073949 -0.26536 -0.19454 0.31995 -0.59046 -0.20299 -0.42149 -0.31361 0.29559 0.22225 0.33404 -0.2077 0.55123 -0.04645 -0.45605 -0.05856 0.11382 -0.1052 -0.12833 -0.4101 -0.24736 0.30873 -0.42258 -0.14505 -0.18587 0.12429 0.10442 0.1823 -0.080629 0.25396 -0.56886 0.43209 -0.42528 -0.23555 -2.9792 -0.40651 0.13963 -0.40982 -0.0375 -0.15206 -0.26572 -0.51733 -0.43113 -0.0029706 0.36698 0.36152 0.018005 -0.33678 -0.23158 -0.125 -0.68406 0.09337 1.0476 -0.21834 -0.17231 -0.33427 -0.17875 -0.14489 0.72963 0.34947 0.037396 -0.038706 0.0034285 -0.030969 -0.061836 -0.36472 0.34619 -0.25857 0.46506 0.38619 -0.43767 0.55863 0.036131 0.10503 0.16481 -0.21912 -0.1041 0.2012 -0.26159 0.026171 -0.031003 -0.15178 0.079153 -0.25148 -0.20256 0.36911 0.39312 -0.67687 0.27771 0.075199 0.072768 -0.168 0.060339 -0.13851 -0.20712 0.79942 -0.58092 -0.45513 -0.022114 0.75209 0.19086 -0.11271 -0.0065381 -0.21427 -0.24067 -0.083974 -0.099316 -0.38996 -0.13712 0.31132 -0.24236 -0.30086 0.30625 0.017198 -0.14884 -0.76316 0.33406 -0.020554 -0.3161 0.15822 0.24753 0.1617 0.23257 -0.30281 -0.24922 0.43306 -0.33466 -0.058049 0.29443 -0.00089886 0.27289 0.082208 -0.21958 -0.48185 -0.0012759 -0.19338 0.08909 -0.32993 0.22223 0.38572 0.045202 -0.097174 -0.46125 -0.33014 0.10439 -0.18551 0.26394 0.22586 0.61084 0.21969 -0.232 0.26498 0.089244 0.20377 -0.17123 0.022897 0.40847 0.34645 -0.084053 -0.13499 0.65379 -0.01309 -0.11728 0.39289 -1.3546 -0.08387 0.061777 0.42787 -0.03319 -0.27415 -0.21729 0.15743 -0.02078 -0.38651 0.22706 -0.05197 -0.04873 -0.11774 -0.45045 -0.25017 -0.049703 -0.19833 0.17107 -0.17531 0.71114 -0.48477 0.11566 0.38915 0.08959 -0.35122 0.19142 0.18722 0.49349 0.50936 0.40039 0.98221 0.051808 -0.39866 -0.38644 0.46541 0.20578 -0.26965 -0.28371 -0.33013 0.014891 0.39486 0.7147 -0.30756 0.23809 0.46949 0.90914 -0.021171 -0.094183 -0.41832 -0.11537 0.038703 0.088003 -0.44496 -0.22328 0.40337 0.18227 0.1749 0.39946 0.30491 0.73013 -0.064298 -0.071236 0.36789 0.16833 -0.22797 -0.13431 0.19978 -0.095118 0.32679 0.089748 -0.018841 -0.25169 -0.13536 -0.19463 -0.40035 -0.47067 -0.48172 0.038108 0.45424 -0.097763 0.2564 -0.31536
divisions 0.0091843 -0.24185 0.013815 -0.0108 0.103 0.066576 -0.078053 0.78348 0.49633 -1.6338 -0.0057255 0.21485 0.0081294 0.22889 0.78149 0.12135 0.049213 -0.83074 0.1734 0.57996 0.47645 -0.0011748 0.0056243 -0.18179 0.073553 -0.36209 0.080055 0.20028 0.18377 -0.20288 -0.28977 0.2746 0.30849 0.10715 0.0048026 -0.55864 -0.32545 -0.02423 0.13174 0.3581 -0.063974 0.091074 0.37601 0.24892 0.18159 0.022903 0.84887 -0.079067 0.063439 0.25626 0.53228 -0.2958 0.1012 -0.36442 -0.2475 0.043085 0.40799 0.12647 0.61855 0.27259 0.15334 0.1062 0.89057 0.40115 -0.49131 0.40256 -0.043601 -0.27598 0.014149 0.03582 0.34309 0.063875 0.3316 -0.16883 0.80013 0.52569 -0.33787 -0.14447 0.78938 -0.27301 -0.024862 0.024817 -0.41531 -0.15036 0.5686 0.25123 -0.11404 -1.1 0.24535 0.45568 0.17946 -0.11088 0.42368 -0.35298 -0.07607 0.31902 -0.050607 -0.12012 -0.19837 0.11554 0.21752 0.14313 -0.048219 -0.48647 -0.71535 -0.23631 -0.19072 -0.10838 0.036903 -0.2107 -0.29652 0.23527 0.078223 0.2942 -0.27311 -0.19303 -0.16864 -0.29241 -0.048269 -0.51317 -0.25081 -0.57847 0.64818 -0.082155 0.45051 -0.75112 0.12424 0.37577 0.29463 0.45955 -0.17502 -0.23279 0.064189 -0.40367 -0.063213 0.45759 -0.18893 -0.42982 -0.3199 0.27295 1.375 0.17812 -0.016448 -0.15755 0.25224 1.1376 -0.3765 -0.044569 -0.0457 0.2918 0.0035546 -0.3531 -0.035954 0.84857 0.33637 -0.11323 -0.64205 -0.0084248 0.051267 0.6276 -0.26588 -0.11079 0.27109 -0.28664 0.20904 0.19044 -0.35875 -0.15938 -1.0829 0.71123 0.0050208 0.16689 0.20581 -0.40276 0.63459 0.35473 -0.56196 0.10869 0.39155 0.28717 0.37046 0.029138 -0.079818 0.85128 -0.15014 -0.064783 0.15417 -0.28266 -0.00068685 0.28581 -0.030018 -0.046062 0.22598 -0.082813 0.025952 -0.55553 0.24402 0.21732 0.48766 -0.064242 0.43839 0.35665 0.036241 0.11245 -0.44214 -0.024329 -0.28001 -0.048366 0.030351 0.14469 -0.46599 0.20971 -0.18081 0.83368 0.086178 -0.55706 -0.064685 -1.399 -0.15528 0.37293 0.5403 -0.27416 0.52561 -0.018001 -0.26317 0.0059597 -0.47726 0.44176 -0.24163 -0.3201 -0.0015892 0.042926 -0.57136 0.4216 -0.016099 0.24353 0.0016876 0.41421 -0.34389 -0.0414 -0.56569 -0.19145 -0.52193 -0.23909 -0.3447 0.31145 -0.46356 0.61936 0.48954 0.35712 0.40489 -0.017743 0.24947 0.54665 -0.20295 -0.0066483 -0.48911 0.3929 -0.86694 -0.023955 0.15931 -0.46383 -0.54672 -0.075394 0.63305 -0.26002 -0.50304 -0.67119 -0.25084 -0.15322 -0.43757 -0.16591 -0.3317 0.19552 0.10622 -0.65403 0.1714 -0.12129 -0.16732 -0.11182 0.42446 -0.19845 -0.53778 -0.35336 -0.18095 0.31112 -0.2569 -0.37489 0.30636 -0.031566 0.20204 -0.53283 -0.28299 -0.37423 -0.38645 0.54539 -0.58239 0.071467 0.48903 -0.72146
